digraph Tree {
node [shape=box, style="filled", color="black"] ;
0 [label="X[1] <= 25.0\ngini = 0.743\nsamples = 3750\nvalue = [1507, 549, 434, 811, 449]", fillcolor="#f9e1d0"] ;
1 [label="X[7] <= 6.5\ngini = 0.574\nsamples = 2428\nvalue = [1464, 159, 297, 507, 1]", fillcolor="#f2c09c"] ;
0 -> 1 [labeldistance=2.5, labelangle=45, headlabel="True"] ;
2 [label="X[11] <= 0.5\ngini = 0.683\nsamples = 1204\nvalue = [355, 71, 273, 504, 1]", fillcolor="#dddcfa"] ;
1 -> 2 ;
3 [label="X[7] <= 1.5\ngini = 0.421\nsamples = 432\nvalue = [320, 68, 20, 24, 0]", fillcolor="#eda876"] ;
2 -> 3 ;
4 [label="X[8] <= 22.5\ngini = 0.688\nsamples = 174\nvalue = [62, 68, 20, 24, 0]", fillcolor="#f8fef4"] ;
3 -> 4 ;
5 [label="X[4] <= 1029.5\ngini = 0.495\nsamples = 74\nvalue = [11, 50, 12, 1, 0]", fillcolor="#aeef86"] ;
4 -> 5 ;
6 [label="X[4] <= 1016.5\ngini = 0.296\nsamples = 61\nvalue = [11, 50, 0, 0, 0]", fillcolor="#98eb65"] ;
5 -> 6 ;
7 [label="gini = 0.0\nsamples = 33\nvalue = [0, 33, 0, 0, 0]", fillcolor="#7be539"] ;
6 -> 7 ;
8 [label="X[8] <= 17.5\ngini = 0.477\nsamples = 28\nvalue = [11, 17, 0, 0, 0]", fillcolor="#d0f6b9"] ;
6 -> 8 ;
9 [label="gini = 0.0\nsamples = 10\nvalue = [0, 10, 0, 0, 0]", fillcolor="#7be539"] ;
8 -> 9 ;
10 [label="X[3] <= 7.5\ngini = 0.475\nsamples = 18\nvalue = [11, 7, 0, 0, 0]", fillcolor="#f6d1b7"] ;
8 -> 10 ;
11 [label="X[4] <= 1026.0\ngini = 0.463\nsamples = 11\nvalue = [4, 7, 0, 0, 0]", fillcolor="#c6f4aa"] ;
10 -> 11 ;
12 [label="X[4] <= 1019.5\ngini = 0.245\nsamples = 7\nvalue = [1, 6, 0, 0, 0]", fillcolor="#91e95a"] ;
11 -> 12 ;
13 [label="gini = 0.0\nsamples = 1\nvalue = [1, 0, 0, 0, 0]", fillcolor="#e58139"] ;
12 -> 13 ;
14 [label="gini = 0.0\nsamples = 6\nvalue = [0, 6, 0, 0, 0]", fillcolor="#7be539"] ;
12 -> 14 ;
15 [label="X[3] <= 6.5\ngini = 0.375\nsamples = 4\nvalue = [3, 1, 0, 0, 0]", fillcolor="#eeab7b"] ;
11 -> 15 ;
16 [label="gini = 0.0\nsamples = 3\nvalue = [3, 0, 0, 0, 0]", fillcolor="#e58139"] ;
15 -> 16 ;
17 [label="gini = 0.0\nsamples = 1\nvalue = [0, 1, 0, 0, 0]", fillcolor="#7be539"] ;
15 -> 17 ;
18 [label="gini = 0.0\nsamples = 7\nvalue = [7, 0, 0, 0, 0]", fillcolor="#e58139"] ;
10 -> 18 ;
19 [label="X[5] <= 3.5\ngini = 0.142\nsamples = 13\nvalue = [0, 0, 12, 1, 0]", fillcolor="#49e7ca"] ;
5 -> 19 ;
20 [label="gini = 0.0\nsamples = 12\nvalue = [0, 0, 12, 0, 0]", fillcolor="#39e5c5"] ;
19 -> 20 ;
21 [label="gini = 0.0\nsamples = 1\nvalue = [0, 0, 0, 1, 0]", fillcolor="#3c39e5"] ;
19 -> 21 ;
22 [label="X[8] <= 27.5\ngini = 0.648\nsamples = 100\nvalue = [51, 18, 8, 23, 0]", fillcolor="#f6d1b7"] ;
4 -> 22 ;
23 [label="X[9] <= 22.5\ngini = 0.073\nsamples = 53\nvalue = [51, 0, 0, 2, 0]", fillcolor="#e68641"] ;
22 -> 23 ;
24 [label="X[9] <= 18.0\ngini = 0.038\nsamples = 51\nvalue = [50, 0, 0, 1, 0]", fillcolor="#e6843d"] ;
23 -> 24 ;
25 [label="gini = 0.0\nsamples = 42\nvalue = [42, 0, 0, 0, 0]", fillcolor="#e58139"] ;
24 -> 25 ;
26 [label="X[8] <= 26.5\ngini = 0.198\nsamples = 9\nvalue = [8, 0, 0, 1, 0]", fillcolor="#e89152"] ;
24 -> 26 ;
27 [label="gini = 0.0\nsamples = 8\nvalue = [8, 0, 0, 0, 0]", fillcolor="#e58139"] ;
26 -> 27 ;
28 [label="gini = 0.0\nsamples = 1\nvalue = [0, 0, 0, 1, 0]", fillcolor="#3c39e5"] ;
26 -> 28 ;
29 [label="X[8] <= 26.0\ngini = 0.5\nsamples = 2\nvalue = [1, 0, 0, 1, 0]", fillcolor="#ffffff"] ;
23 -> 29 ;
30 [label="gini = 0.0\nsamples = 1\nvalue = [1, 0, 0, 0, 0]", fillcolor="#e58139"] ;
29 -> 30 ;
31 [label="gini = 0.0\nsamples = 1\nvalue = [0, 0, 0, 1, 0]", fillcolor="#3c39e5"] ;
29 -> 31 ;
32 [label="X[4] <= 1018.5\ngini = 0.625\nsamples = 47\nvalue = [0, 18, 8, 21, 0]", fillcolor="#ebebfc"] ;
22 -> 32 ;
33 [label="X[8] <= 30.5\ngini = 0.426\nsamples = 26\nvalue = [0, 18, 8, 0, 0]", fillcolor="#b6f191"] ;
32 -> 33 ;
34 [label="X[9] <= 11.5\ngini = 0.49\nsamples = 14\nvalue = [0, 6, 8, 0, 0]", fillcolor="#cef8f0"] ;
33 -> 34 ;
35 [label="gini = 0.0\nsamples = 6\nvalue = [0, 0, 6, 0, 0]", fillcolor="#39e5c5"] ;
34 -> 35 ;
36 [label="X[6] <= 0.5\ngini = 0.375\nsamples = 8\nvalue = [0, 6, 2, 0, 0]", fillcolor="#a7ee7b"] ;
34 -> 36 ;
37 [label="gini = 0.0\nsamples = 6\nvalue = [0, 6, 0, 0, 0]", fillcolor="#7be539"] ;
36 -> 37 ;
38 [label="gini = 0.0\nsamples = 2\nvalue = [0, 0, 2, 0, 0]", fillcolor="#39e5c5"] ;
36 -> 38 ;
39 [label="gini = 0.0\nsamples = 12\nvalue = [0, 12, 0, 0, 0]", fillcolor="#7be539"] ;
33 -> 39 ;
40 [label="gini = 0.0\nsamples = 21\nvalue = [0, 0, 0, 21, 0]", fillcolor="#3c39e5"] ;
32 -> 40 ;
41 [label="gini = 0.0\nsamples = 258\nvalue = [258, 0, 0, 0, 0]", fillcolor="#e58139"] ;
3 -> 41 ;
42 [label="X[7] <= 3.5\ngini = 0.504\nsamples = 772\nvalue = [35, 3, 253, 480, 1]", fillcolor="#aaa8f4"] ;
2 -> 42 ;
43 [label="gini = 0.0\nsamples = 91\nvalue = [0, 0, 91, 0, 0]", fillcolor="#39e5c5"] ;
42 -> 43 ;
44 [label="X[10] <= 0.5\ngini = 0.444\nsamples = 681\nvalue = [35, 3, 162, 480, 1]", fillcolor="#8886ef"] ;
42 -> 44 ;
45 [label="X[9] <= 0.5\ngini = 0.056\nsamples = 35\nvalue = [34, 1, 0, 0, 0]", fillcolor="#e6853f"] ;
44 -> 45 ;
46 [label="X[4] <= 1018.0\ngini = 0.5\nsamples = 2\nvalue = [1, 1, 0, 0, 0]", fillcolor="#ffffff"] ;
45 -> 46 ;
47 [label="gini = 0.0\nsamples = 1\nvalue = [0, 1, 0, 0, 0]", fillcolor="#7be539"] ;
46 -> 47 ;
48 [label="gini = 0.0\nsamples = 1\nvalue = [1, 0, 0, 0, 0]", fillcolor="#e58139"] ;
46 -> 48 ;
49 [label="gini = 0.0\nsamples = 33\nvalue = [33, 0, 0, 0, 0]", fillcolor="#e58139"] ;
45 -> 49 ;
50 [label="X[7] <= 5.5\ngini = 0.385\nsamples = 646\nvalue = [1, 2, 162, 480, 1]", fillcolor="#7f7dee"] ;
44 -> 50 ;
51 [label="X[8] <= 4.5\ngini = 0.206\nsamples = 396\nvalue = [1, 0, 44, 350, 1]", fillcolor="#5553e8"] ;
50 -> 51 ;
52 [label="X[7] <= 4.5\ngini = 0.511\nsamples = 90\nvalue = [1, 0, 44, 45, 0]", fillcolor="#fbfbfe"] ;
51 -> 52 ;
53 [label="X[3] <= 19.5\ngini = 0.215\nsamples = 50\nvalue = [1, 0, 44, 5, 0]", fillcolor="#53e8cd"] ;
52 -> 53 ;
54 [label="X[9] <= 20.0\ngini = 0.126\nsamples = 45\nvalue = [1, 0, 42, 2, 0]", fillcolor="#47e7c9"] ;
53 -> 54 ;
55 [label="gini = 0.0\nsamples = 37\nvalue = [0, 0, 37, 0, 0]", fillcolor="#39e5c5"] ;
54 -> 55 ;
56 [label="X[8] <= 3.5\ngini = 0.531\nsamples = 8\nvalue = [1, 0, 5, 2, 0]", fillcolor="#9cf2e2"] ;
54 -> 56 ;
57 [label="X[8] <= 1.5\ngini = 0.278\nsamples = 6\nvalue = [1, 0, 5, 0, 0]", fillcolor="#61ead1"] ;
56 -> 57 ;
58 [label="X[5] <= 0.5\ngini = 0.5\nsamples = 2\nvalue = [1, 0, 1, 0, 0]", fillcolor="#ffffff"] ;
57 -> 58 ;
59 [label="gini = 0.0\nsamples = 1\nvalue = [1, 0, 0, 0, 0]", fillcolor="#e58139"] ;
58 -> 59 ;
60 [label="gini = 0.0\nsamples = 1\nvalue = [0, 0, 1, 0, 0]", fillcolor="#39e5c5"] ;
58 -> 60 ;
61 [label="gini = 0.0\nsamples = 4\nvalue = [0, 0, 4, 0, 0]", fillcolor="#39e5c5"] ;
57 -> 61 ;
62 [label="gini = 0.0\nsamples = 2\nvalue = [0, 0, 0, 2, 0]", fillcolor="#3c39e5"] ;
56 -> 62 ;
63 [label="X[4] <= 1013.5\ngini = 0.48\nsamples = 5\nvalue = [0, 0, 2, 3, 0]", fillcolor="#bebdf6"] ;
53 -> 63 ;
64 [label="gini = 0.0\nsamples = 2\nvalue = [0, 0, 2, 0, 0]", fillcolor="#39e5c5"] ;
63 -> 64 ;
65 [label="gini = 0.0\nsamples = 3\nvalue = [0, 0, 0, 3, 0]", fillcolor="#3c39e5"] ;
63 -> 65 ;
66 [label="gini = 0.0\nsamples = 40\nvalue = [0, 0, 0, 40, 0]", fillcolor="#3c39e5"] ;
52 -> 66 ;
67 [label="X[8] <= 29.5\ngini = 0.007\nsamples = 306\nvalue = [0, 0, 0, 305, 1]", fillcolor="#3d3ae5"] ;
51 -> 67 ;
68 [label="gini = 0.0\nsamples = 300\nvalue = [0, 0, 0, 300, 0]", fillcolor="#3c39e5"] ;
67 -> 68 ;
69 [label="X[3] <= 11.5\ngini = 0.278\nsamples = 6\nvalue = [0, 0, 0, 5, 1]", fillcolor="#6361ea"] ;
67 -> 69 ;
70 [label="gini = 0.0\nsamples = 5\nvalue = [0, 0, 0, 5, 0]", fillcolor="#3c39e5"] ;
69 -> 70 ;
71 [label="gini = 0.0\nsamples = 1\nvalue = [0, 0, 0, 0, 1]", fillcolor="#e539c0"] ;
69 -> 71 ;
72 [label="X[8] <= 15.5\ngini = 0.507\nsamples = 250\nvalue = [0, 2, 118, 130, 0]", fillcolor="#ededfd"] ;
50 -> 72 ;
73 [label="X[6] <= 1.5\ngini = 0.044\nsamples = 133\nvalue = [0, 1, 2, 130, 0]", fillcolor="#403ee6"] ;
72 -> 73 ;
74 [label="X[3] <= 10.5\ngini = 0.03\nsamples = 132\nvalue = [0, 1, 1, 130, 0]", fillcolor="#3f3ce5"] ;
73 -> 74 ;
75 [label="X[8] <= 3.5\ngini = 0.245\nsamples = 7\nvalue = [0, 1, 0, 6, 0]", fillcolor="#5d5ae9"] ;
74 -> 75 ;
76 [label="gini = 0.0\nsamples = 4\nvalue = [0, 0, 0, 4, 0]", fillcolor="#3c39e5"] ;
75 -> 76 ;
77 [label="X[4] <= 1022.5\ngini = 0.444\nsamples = 3\nvalue = [0, 1, 0, 2, 0]", fillcolor="#9e9cf2"] ;
75 -> 77 ;
78 [label="gini = 0.0\nsamples = 1\nvalue = [0, 1, 0, 0, 0]", fillcolor="#7be539"] ;
77 -> 78 ;
79 [label="gini = 0.0\nsamples = 2\nvalue = [0, 0, 0, 2, 0]", fillcolor="#3c39e5"] ;
77 -> 79 ;
80 [label="X[4] <= 1013.5\ngini = 0.016\nsamples = 125\nvalue = [0, 0, 1, 124, 0]", fillcolor="#3e3be5"] ;
74 -> 80 ;
81 [label="X[9] <= 19.5\ngini = 0.219\nsamples = 8\nvalue = [0, 0, 1, 7, 0]", fillcolor="#5855e9"] ;
80 -> 81 ;
82 [label="gini = 0.0\nsamples = 7\nvalue = [0, 0, 0, 7, 0]", fillcolor="#3c39e5"] ;
81 -> 82 ;
83 [label="gini = 0.0\nsamples = 1\nvalue = [0, 0, 1, 0, 0]", fillcolor="#39e5c5"] ;
81 -> 83 ;
84 [label="gini = 0.0\nsamples = 117\nvalue = [0, 0, 0, 117, 0]", fillcolor="#3c39e5"] ;
80 -> 84 ;
85 [label="gini = 0.0\nsamples = 1\nvalue = [0, 0, 1, 0, 0]", fillcolor="#39e5c5"] ;
73 -> 85 ;
86 [label="X[9] <= 21.5\ngini = 0.017\nsamples = 117\nvalue = [0, 1, 116, 0, 0]", fillcolor="#3be5c6"] ;
72 -> 86 ;
87 [label="gini = 0.0\nsamples = 105\nvalue = [0, 0, 105, 0, 0]", fillcolor="#39e5c5"] ;
86 -> 87 ;
88 [label="X[8] <= 24.5\ngini = 0.153\nsamples = 12\nvalue = [0, 1, 11, 0, 0]", fillcolor="#4be7ca"] ;
86 -> 88 ;
89 [label="gini = 0.0\nsamples = 9\nvalue = [0, 0, 9, 0, 0]", fillcolor="#39e5c5"] ;
88 -> 89 ;
90 [label="X[4] <= 1017.5\ngini = 0.444\nsamples = 3\nvalue = [0, 1, 2, 0, 0]", fillcolor="#9cf2e2"] ;
88 -> 90 ;
91 [label="gini = 0.0\nsamples = 1\nvalue = [0, 1, 0, 0, 0]", fillcolor="#7be539"] ;
90 -> 91 ;
92 [label="gini = 0.0\nsamples = 2\nvalue = [0, 0, 2, 0, 0]", fillcolor="#39e5c5"] ;
90 -> 92 ;
93 [label="X[0] <= 1.0\ngini = 0.174\nsamples = 1224\nvalue = [1109, 88, 24, 3, 0]", fillcolor="#e88e4d"] ;
1 -> 93 ;
94 [label="X[8] <= 10.5\ngini = 0.153\nsamples = 1207\nvalue = [1108, 72, 24, 3, 0]", fillcolor="#e78c4a"] ;
93 -> 94 ;
95 [label="X[7] <= 11.5\ngini = 0.335\nsamples = 345\nvalue = [277, 43, 23, 2, 0]", fillcolor="#eb9d66"] ;
94 -> 95 ;
96 [label="X[10] <= 0.5\ngini = 0.114\nsamples = 248\nvalue = [233, 1, 14, 0, 0]", fillcolor="#e78946"] ;
95 -> 96 ;
97 [label="X[1] <= 12.0\ngini = 0.009\nsamples = 234\nvalue = [233, 1, 0, 0, 0]", fillcolor="#e5823a"] ;
96 -> 97 ;
98 [label="gini = 0.0\nsamples = 233\nvalue = [233, 0, 0, 0, 0]", fillcolor="#e58139"] ;
97 -> 98 ;
99 [label="gini = 0.0\nsamples = 1\nvalue = [0, 1, 0, 0, 0]", fillcolor="#7be539"] ;
97 -> 99 ;
100 [label="gini = 0.0\nsamples = 14\nvalue = [0, 0, 14, 0, 0]", fillcolor="#39e5c5"] ;
96 -> 100 ;
101 [label="X[3] <= 10.5\ngini = 0.598\nsamples = 97\nvalue = [44, 42, 9, 2, 0]", fillcolor="#fefaf8"] ;
95 -> 101 ;
102 [label="X[8] <= 3.5\ngini = 0.565\nsamples = 74\nvalue = [44, 19, 9, 2, 0]", fillcolor="#f3c6a5"] ;
101 -> 102 ;
103 [label="X[9] <= 19.5\ngini = 0.175\nsamples = 31\nvalue = [28, 3, 0, 0, 0]", fillcolor="#e88e4e"] ;
102 -> 103 ;
104 [label="gini = 0.0\nsamples = 24\nvalue = [24, 0, 0, 0, 0]", fillcolor="#e58139"] ;
103 -> 104 ;
105 [label="X[9] <= 21.5\ngini = 0.49\nsamples = 7\nvalue = [4, 3, 0, 0, 0]", fillcolor="#f8e0ce"] ;
103 -> 105 ;
106 [label="gini = 0.0\nsamples = 2\nvalue = [0, 2, 0, 0, 0]", fillcolor="#7be539"] ;
105 -> 106 ;
107 [label="X[3] <= 8.5\ngini = 0.32\nsamples = 5\nvalue = [4, 1, 0, 0, 0]", fillcolor="#eca06a"] ;
105 -> 107 ;
108 [label="gini = 0.0\nsamples = 3\nvalue = [3, 0, 0, 0, 0]", fillcolor="#e58139"] ;
107 -> 108 ;
109 [label="X[9] <= 22.5\ngini = 0.5\nsamples = 2\nvalue = [1, 1, 0, 0, 0]", fillcolor="#ffffff"] ;
107 -> 109 ;
110 [label="gini = 0.0\nsamples = 1\nvalue = [1, 0, 0, 0, 0]", fillcolor="#e58139"] ;
109 -> 110 ;
111 [label="gini = 0.0\nsamples = 1\nvalue = [0, 1, 0, 0, 0]", fillcolor="#7be539"] ;
109 -> 111 ;
112 [label="X[4] <= 1023.0\ngini = 0.677\nsamples = 43\nvalue = [16, 16, 9, 2, 0]", fillcolor="#ffffff"] ;
102 -> 112 ;
113 [label="X[9] <= 13.5\ngini = 0.473\nsamples = 13\nvalue = [0, 2, 9, 2, 0]", fillcolor="#81eeda"] ;
112 -> 113 ;
114 [label="gini = 0.0\nsamples = 8\nvalue = [0, 0, 8, 0, 0]", fillcolor="#39e5c5"] ;
113 -> 114 ;
115 [label="X[9] <= 20.5\ngini = 0.64\nsamples = 5\nvalue = [0, 2, 1, 2, 0]", fillcolor="#ffffff"] ;
113 -> 115 ;
116 [label="gini = 0.0\nsamples = 2\nvalue = [0, 0, 0, 2, 0]", fillcolor="#3c39e5"] ;
115 -> 116 ;
117 [label="X[9] <= 22.5\ngini = 0.444\nsamples = 3\nvalue = [0, 2, 1, 0, 0]", fillcolor="#bdf29c"] ;
115 -> 117 ;
118 [label="gini = 0.0\nsamples = 2\nvalue = [0, 2, 0, 0, 0]", fillcolor="#7be539"] ;
117 -> 118 ;
119 [label="gini = 0.0\nsamples = 1\nvalue = [0, 0, 1, 0, 0]", fillcolor="#39e5c5"] ;
117 -> 119 ;
120 [label="X[8] <= 5.5\ngini = 0.498\nsamples = 30\nvalue = [16, 14, 0, 0, 0]", fillcolor="#fcefe6"] ;
112 -> 120 ;
121 [label="X[4] <= 1027.5\ngini = 0.305\nsamples = 16\nvalue = [3, 13, 0, 0, 0]", fillcolor="#99eb67"] ;
120 -> 121 ;
122 [label="gini = 0.0\nsamples = 13\nvalue = [0, 13, 0, 0, 0]", fillcolor="#7be539"] ;
121 -> 122 ;
123 [label="gini = 0.0\nsamples = 3\nvalue = [3, 0, 0, 0, 0]", fillcolor="#e58139"] ;
121 -> 123 ;
124 [label="X[9] <= 1.5\ngini = 0.133\nsamples = 14\nvalue = [13, 1, 0, 0, 0]", fillcolor="#e78b48"] ;
120 -> 124 ;
125 [label="X[8] <= 7.5\ngini = 0.444\nsamples = 3\nvalue = [2, 1, 0, 0, 0]", fillcolor="#f2c09c"] ;
124 -> 125 ;
126 [label="gini = 0.0\nsamples = 2\nvalue = [2, 0, 0, 0, 0]", fillcolor="#e58139"] ;
125 -> 126 ;
127 [label="gini = 0.0\nsamples = 1\nvalue = [0, 1, 0, 0, 0]", fillcolor="#7be539"] ;
125 -> 127 ;
128 [label="gini = 0.0\nsamples = 11\nvalue = [11, 0, 0, 0, 0]", fillcolor="#e58139"] ;
124 -> 128 ;
129 [label="gini = 0.0\nsamples = 23\nvalue = [0, 23, 0, 0, 0]", fillcolor="#7be539"] ;
101 -> 129 ;
130 [label="X[3] <= 9.5\ngini = 0.069\nsamples = 862\nvalue = [831, 29, 1, 1, 0]", fillcolor="#e68640"] ;
94 -> 130 ;
131 [label="X[8] <= 25.5\ngini = 0.262\nsamples = 98\nvalue = [83, 14, 1, 0, 0]", fillcolor="#ea985c"] ;
130 -> 131 ;
132 [label="X[8] <= 11.5\ngini = 0.057\nsamples = 68\nvalue = [66, 2, 0, 0, 0]", fillcolor="#e6853f"] ;
131 -> 132 ;
133 [label="X[9] <= 1.5\ngini = 0.408\nsamples = 7\nvalue = [5, 2, 0, 0, 0]", fillcolor="#efb388"] ;
132 -> 133 ;
134 [label="gini = 0.0\nsamples = 2\nvalue = [0, 2, 0, 0, 0]", fillcolor="#7be539"] ;
133 -> 134 ;
135 [label="gini = 0.0\nsamples = 5\nvalue = [5, 0, 0, 0, 0]", fillcolor="#e58139"] ;
133 -> 135 ;
136 [label="gini = 0.0\nsamples = 61\nvalue = [61, 0, 0, 0, 0]", fillcolor="#e58139"] ;
132 -> 136 ;
137 [label="X[4] <= 1015.5\ngini = 0.518\nsamples = 30\nvalue = [17, 12, 1, 0, 0]", fillcolor="#f8dcc8"] ;
131 -> 137 ;
138 [label="gini = 0.0\nsamples = 5\nvalue = [0, 5, 0, 0, 0]", fillcolor="#7be539"] ;
137 -> 138 ;
139 [label="X[4] <= 1024.5\ngini = 0.458\nsamples = 25\nvalue = [17, 7, 1, 0, 0]", fillcolor="#f1b991"] ;
137 -> 139 ;
140 [label="X[5] <= 2.5\ngini = 0.335\nsamples = 20\nvalue = [16, 3, 1, 0, 0]", fillcolor="#eb9f68"] ;
139 -> 140 ;
141 [label="X[9] <= 18.5\ngini = 0.204\nsamples = 18\nvalue = [16, 1, 1, 0, 0]", fillcolor="#e89050"] ;
140 -> 141 ;
142 [label="X[9] <= 1.5\ngini = 0.117\nsamples = 16\nvalue = [15, 1, 0, 0, 0]", fillcolor="#e78946"] ;
141 -> 142 ;
143 [label="X[8] <= 29.0\ngini = 0.444\nsamples = 3\nvalue = [2, 1, 0, 0, 0]", fillcolor="#f2c09c"] ;
142 -> 143 ;
144 [label="gini = 0.0\nsamples = 2\nvalue = [2, 0, 0, 0, 0]", fillcolor="#e58139"] ;
143 -> 144 ;
145 [label="gini = 0.0\nsamples = 1\nvalue = [0, 1, 0, 0, 0]", fillcolor="#7be539"] ;
143 -> 145 ;
146 [label="gini = 0.0\nsamples = 13\nvalue = [13, 0, 0, 0, 0]", fillcolor="#e58139"] ;
142 -> 146 ;
147 [label="X[4] <= 1022.5\ngini = 0.5\nsamples = 2\nvalue = [1, 0, 1, 0, 0]", fillcolor="#ffffff"] ;
141 -> 147 ;
148 [label="gini = 0.0\nsamples = 1\nvalue = [1, 0, 0, 0, 0]", fillcolor="#e58139"] ;
147 -> 148 ;
149 [label="gini = 0.0\nsamples = 1\nvalue = [0, 0, 1, 0, 0]", fillcolor="#39e5c5"] ;
147 -> 149 ;
150 [label="gini = 0.0\nsamples = 2\nvalue = [0, 2, 0, 0, 0]", fillcolor="#7be539"] ;
140 -> 150 ;
151 [label="X[3] <= 7.5\ngini = 0.32\nsamples = 5\nvalue = [1, 4, 0, 0, 0]", fillcolor="#9cec6a"] ;
139 -> 151 ;
152 [label="X[9] <= 4.5\ngini = 0.444\nsamples = 3\nvalue = [1, 2, 0, 0, 0]", fillcolor="#bdf29c"] ;
151 -> 152 ;
153 [label="gini = 0.0\nsamples = 2\nvalue = [0, 2, 0, 0, 0]", fillcolor="#7be539"] ;
152 -> 153 ;
154 [label="gini = 0.0\nsamples = 1\nvalue = [1, 0, 0, 0, 0]", fillcolor="#e58139"] ;
152 -> 154 ;
155 [label="gini = 0.0\nsamples = 2\nvalue = [0, 2, 0, 0, 0]", fillcolor="#7be539"] ;
151 -> 155 ;
156 [label="X[5] <= 4.5\ngini = 0.041\nsamples = 764\nvalue = [748, 15, 0, 1, 0]", fillcolor="#e6843d"] ;
130 -> 156 ;
157 [label="X[4] <= 1017.5\ngini = 0.036\nsamples = 757\nvalue = [743, 13, 0, 1, 0]", fillcolor="#e5833d"] ;
156 -> 157 ;
158 [label="X[4] <= 1015.5\ngini = 0.08\nsamples = 313\nvalue = [300, 12, 0, 1, 0]", fillcolor="#e68642"] ;
157 -> 158 ;
159 [label="X[3] <= 10.5\ngini = 0.021\nsamples = 189\nvalue = [187, 1, 0, 1, 0]", fillcolor="#e5823b"] ;
158 -> 159 ;
160 [label="X[8] <= 26.0\ngini = 0.32\nsamples = 5\nvalue = [4, 1, 0, 0, 0]", fillcolor="#eca06a"] ;
159 -> 160 ;
161 [label="gini = 0.0\nsamples = 4\nvalue = [4, 0, 0, 0, 0]", fillcolor="#e58139"] ;
160 -> 161 ;
162 [label="gini = 0.0\nsamples = 1\nvalue = [0, 1, 0, 0, 0]", fillcolor="#7be539"] ;
160 -> 162 ;
163 [label="X[8] <= 30.5\ngini = 0.011\nsamples = 184\nvalue = [183, 0, 0, 1, 0]", fillcolor="#e5823a"] ;
159 -> 163 ;
164 [label="gini = 0.0\nsamples = 178\nvalue = [178, 0, 0, 0, 0]", fillcolor="#e58139"] ;
163 -> 164 ;
165 [label="X[9] <= 1.5\ngini = 0.278\nsamples = 6\nvalue = [5, 0, 0, 1, 0]", fillcolor="#ea9a61"] ;
163 -> 165 ;
166 [label="gini = 0.0\nsamples = 1\nvalue = [0, 0, 0, 1, 0]", fillcolor="#3c39e5"] ;
165 -> 166 ;
167 [label="gini = 0.0\nsamples = 5\nvalue = [5, 0, 0, 0, 0]", fillcolor="#e58139"] ;
165 -> 167 ;
168 [label="X[7] <= 8.0\ngini = 0.162\nsamples = 124\nvalue = [113, 11, 0, 0, 0]", fillcolor="#e88d4c"] ;
158 -> 168 ;
169 [label="gini = 0.0\nsamples = 76\nvalue = [76, 0, 0, 0, 0]", fillcolor="#e58139"] ;
168 -> 169 ;
170 [label="X[7] <= 9.5\ngini = 0.353\nsamples = 48\nvalue = [37, 11, 0, 0, 0]", fillcolor="#eda674"] ;
168 -> 170 ;
171 [label="X[2] <= 1.5\ngini = 0.475\nsamples = 18\nvalue = [7, 11, 0, 0, 0]", fillcolor="#cff6b7"] ;
170 -> 171 ;
172 [label="gini = 0.0\nsamples = 7\nvalue = [7, 0, 0, 0, 0]", fillcolor="#e58139"] ;
171 -> 172 ;
173 [label="gini = 0.0\nsamples = 11\nvalue = [0, 11, 0, 0, 0]", fillcolor="#7be539"] ;
171 -> 173 ;
174 [label="gini = 0.0\nsamples = 30\nvalue = [30, 0, 0, 0, 0]", fillcolor="#e58139"] ;
170 -> 174 ;
175 [label="X[5] <= 2.5\ngini = 0.004\nsamples = 444\nvalue = [443, 1, 0, 0, 0]", fillcolor="#e58139"] ;
157 -> 175 ;
176 [label="gini = 0.0\nsamples = 427\nvalue = [427, 0, 0, 0, 0]", fillcolor="#e58139"] ;
175 -> 176 ;
177 [label="X[8] <= 27.5\ngini = 0.111\nsamples = 17\nvalue = [16, 1, 0, 0, 0]", fillcolor="#e78945"] ;
175 -> 177 ;
178 [label="gini = 0.0\nsamples = 15\nvalue = [15, 0, 0, 0, 0]", fillcolor="#e58139"] ;
177 -> 178 ;
179 [label="X[4] <= 1024.0\ngini = 0.5\nsamples = 2\nvalue = [1, 1, 0, 0, 0]", fillcolor="#ffffff"] ;
177 -> 179 ;
180 [label="gini = 0.0\nsamples = 1\nvalue = [0, 1, 0, 0, 0]", fillcolor="#7be539"] ;
179 -> 180 ;
181 [label="gini = 0.0\nsamples = 1\nvalue = [1, 0, 0, 0, 0]", fillcolor="#e58139"] ;
179 -> 181 ;
182 [label="X[3] <= 14.0\ngini = 0.408\nsamples = 7\nvalue = [5, 2, 0, 0, 0]", fillcolor="#efb388"] ;
156 -> 182 ;
183 [label="X[9] <= 5.5\ngini = 0.444\nsamples = 3\nvalue = [1, 2, 0, 0, 0]", fillcolor="#bdf29c"] ;
182 -> 183 ;
184 [label="gini = 0.0\nsamples = 1\nvalue = [1, 0, 0, 0, 0]", fillcolor="#e58139"] ;
183 -> 184 ;
185 [label="gini = 0.0\nsamples = 2\nvalue = [0, 2, 0, 0, 0]", fillcolor="#7be539"] ;
183 -> 185 ;
186 [label="gini = 0.0\nsamples = 4\nvalue = [4, 0, 0, 0, 0]", fillcolor="#e58139"] ;
182 -> 186 ;
187 [label="X[8] <= 10.5\ngini = 0.111\nsamples = 17\nvalue = [1, 16, 0, 0, 0]", fillcolor="#83e745"] ;
93 -> 187 ;
188 [label="gini = 0.0\nsamples = 13\nvalue = [0, 13, 0, 0, 0]", fillcolor="#7be539"] ;
187 -> 188 ;
189 [label="X[9] <= 1.5\ngini = 0.375\nsamples = 4\nvalue = [1, 3, 0, 0, 0]", fillcolor="#a7ee7b"] ;
187 -> 189 ;
190 [label="gini = 0.0\nsamples = 2\nvalue = [0, 2, 0, 0, 0]", fillcolor="#7be539"] ;
189 -> 190 ;
191 [label="X[9] <= 2.5\ngini = 0.5\nsamples = 2\nvalue = [1, 1, 0, 0, 0]", fillcolor="#ffffff"] ;
189 -> 191 ;
192 [label="gini = 0.0\nsamples = 1\nvalue = [1, 0, 0, 0, 0]", fillcolor="#e58139"] ;
191 -> 192 ;
193 [label="gini = 0.0\nsamples = 1\nvalue = [0, 1, 0, 0, 0]", fillcolor="#7be539"] ;
191 -> 193 ;
194 [label="X[1] <= 1238.0\ngini = 0.733\nsamples = 1322\nvalue = [43, 390, 137, 304, 448]", fillcolor="#fdf3fb"] ;
0 -> 194 [labeldistance=2.5, labelangle=-45, headlabel="False"] ;
195 [label="X[7] <= 6.5\ngini = 0.71\nsamples = 865\nvalue = [41, 385, 121, 191, 127]", fillcolor="#d9f8c6"] ;
194 -> 195 ;
196 [label="X[11] <= 0.5\ngini = 0.691\nsamples = 376\nvalue = [0, 78, 27, 145, 126]", fillcolor="#f0f0fd"] ;
195 -> 196 ;
197 [label="X[7] <= 1.5\ngini = 0.477\nsamples = 105\nvalue = [0, 72, 22, 10, 1]", fillcolor="#afef88"] ;
196 -> 197 ;
198 [label="X[8] <= 22.5\ngini = 0.637\nsamples = 44\nvalue = [0, 14, 21, 8, 1]", fillcolor="#d1f9f1"] ;
197 -> 198 ;
199 [label="X[13] <= 0.5\ngini = 0.322\nsamples = 21\nvalue = [0, 0, 17, 3, 1]", fillcolor="#65ebd2"] ;
198 -> 199 ;
200 [label="gini = 0.0\nsamples = 15\nvalue = [0, 0, 15, 0, 0]", fillcolor="#39e5c5"] ;
199 -> 200 ;
201 [label="X[1] <= 1060.5\ngini = 0.611\nsamples = 6\nvalue = [0, 0, 2, 3, 1]", fillcolor="#cecef8"] ;
199 -> 201 ;
202 [label="X[6] <= 0.5\ngini = 0.48\nsamples = 5\nvalue = [0, 0, 2, 3, 0]", fillcolor="#bebdf6"] ;
201 -> 202 ;
203 [label="X[5] <= 1.0\ngini = 0.444\nsamples = 3\nvalue = [0, 0, 2, 1, 0]", fillcolor="#9cf2e2"] ;
202 -> 203 ;
204 [label="gini = 0.0\nsamples = 1\nvalue = [0, 0, 0, 1, 0]", fillcolor="#3c39e5"] ;
203 -> 204 ;
205 [label="gini = 0.0\nsamples = 2\nvalue = [0, 0, 2, 0, 0]", fillcolor="#39e5c5"] ;
203 -> 205 ;
206 [label="gini = 0.0\nsamples = 2\nvalue = [0, 0, 0, 2, 0]", fillcolor="#3c39e5"] ;
202 -> 206 ;
207 [label="gini = 0.0\nsamples = 1\nvalue = [0, 0, 0, 0, 1]", fillcolor="#e539c0"] ;
201 -> 207 ;
208 [label="X[8] <= 27.0\ngini = 0.552\nsamples = 23\nvalue = [0, 14, 4, 5, 0]", fillcolor="#bdf29c"] ;
198 -> 208 ;
209 [label="gini = 0.0\nsamples = 14\nvalue = [0, 14, 0, 0, 0]", fillcolor="#7be539"] ;
208 -> 209 ;
210 [label="X[8] <= 29.5\ngini = 0.494\nsamples = 9\nvalue = [0, 0, 4, 5, 0]", fillcolor="#d8d7fa"] ;
208 -> 210 ;
211 [label="gini = 0.0\nsamples = 4\nvalue = [0, 0, 0, 4, 0]", fillcolor="#3c39e5"] ;
210 -> 211 ;
212 [label="X[5] <= 2.5\ngini = 0.32\nsamples = 5\nvalue = [0, 0, 4, 1, 0]", fillcolor="#6aecd4"] ;
210 -> 212 ;
213 [label="gini = 0.0\nsamples = 4\nvalue = [0, 0, 4, 0, 0]", fillcolor="#39e5c5"] ;
212 -> 213 ;
214 [label="gini = 0.0\nsamples = 1\nvalue = [0, 0, 0, 1, 0]", fillcolor="#3c39e5"] ;
212 -> 214 ;
215 [label="X[1] <= 963.0\ngini = 0.095\nsamples = 61\nvalue = [0, 58, 1, 2, 0]", fillcolor="#82e643"] ;
197 -> 215 ;
216 [label="X[4] <= 1026.5\ngini = 0.065\nsamples = 60\nvalue = [0, 58, 1, 1, 0]", fillcolor="#7fe640"] ;
215 -> 216 ;
217 [label="X[3] <= 15.5\ngini = 0.034\nsamples = 57\nvalue = [0, 56, 1, 0, 0]", fillcolor="#7de53d"] ;
216 -> 217 ;
218 [label="gini = 0.0\nsamples = 43\nvalue = [0, 43, 0, 0, 0]", fillcolor="#7be539"] ;
217 -> 218 ;
219 [label="X[9] <= 12.5\ngini = 0.133\nsamples = 14\nvalue = [0, 13, 1, 0, 0]", fillcolor="#85e748"] ;
217 -> 219 ;
220 [label="X[1] <= 146.5\ngini = 0.5\nsamples = 2\nvalue = [0, 1, 1, 0, 0]", fillcolor="#ffffff"] ;
219 -> 220 ;
221 [label="gini = 0.0\nsamples = 1\nvalue = [0, 0, 1, 0, 0]", fillcolor="#39e5c5"] ;
220 -> 221 ;
222 [label="gini = 0.0\nsamples = 1\nvalue = [0, 1, 0, 0, 0]", fillcolor="#7be539"] ;
220 -> 222 ;
223 [label="gini = 0.0\nsamples = 12\nvalue = [0, 12, 0, 0, 0]", fillcolor="#7be539"] ;
219 -> 223 ;
224 [label="X[3] <= 13.0\ngini = 0.444\nsamples = 3\nvalue = [0, 2, 0, 1, 0]", fillcolor="#bdf29c"] ;
216 -> 224 ;
225 [label="gini = 0.0\nsamples = 1\nvalue = [0, 0, 0, 1, 0]", fillcolor="#3c39e5"] ;
224 -> 225 ;
226 [label="gini = 0.0\nsamples = 2\nvalue = [0, 2, 0, 0, 0]", fillcolor="#7be539"] ;
224 -> 226 ;
227 [label="gini = 0.0\nsamples = 1\nvalue = [0, 0, 0, 1, 0]", fillcolor="#3c39e5"] ;
215 -> 227 ;
228 [label="X[8] <= 16.5\ngini = 0.538\nsamples = 271\nvalue = [0, 6, 5, 135, 125]", fillcolor="#f2f1fd"] ;
196 -> 228 ;
229 [label="X[8] <= 4.5\ngini = 0.39\nsamples = 157\nvalue = [0, 2, 4, 33, 118]", fillcolor="#ed77d4"] ;
228 -> 229 ;
230 [label="X[7] <= 5.5\ngini = 0.48\nsamples = 36\nvalue = [0, 1, 0, 23, 12]", fillcolor="#a6a4f3"] ;
229 -> 230 ;
231 [label="X[4] <= 1022.0\ngini = 0.333\nsamples = 25\nvalue = [0, 1, 0, 20, 4]", fillcolor="#6a68eb"] ;
230 -> 231 ;
232 [label="X[3] <= 20.0\ngini = 0.227\nsamples = 23\nvalue = [0, 0, 0, 20, 3]", fillcolor="#5957e9"] ;
231 -> 232 ;
233 [label="X[0] <= 1.0\ngini = 0.095\nsamples = 20\nvalue = [0, 0, 0, 19, 1]", fillcolor="#4643e6"] ;
232 -> 233 ;
234 [label="gini = 0.0\nsamples = 19\nvalue = [0, 0, 0, 19, 0]", fillcolor="#3c39e5"] ;
233 -> 234 ;
235 [label="gini = 0.0\nsamples = 1\nvalue = [0, 0, 0, 0, 1]", fillcolor="#e539c0"] ;
233 -> 235 ;
236 [label="X[4] <= 1014.5\ngini = 0.444\nsamples = 3\nvalue = [0, 0, 0, 1, 2]", fillcolor="#f29ce0"] ;
232 -> 236 ;
237 [label="gini = 0.0\nsamples = 1\nvalue = [0, 0, 0, 1, 0]", fillcolor="#3c39e5"] ;
236 -> 237 ;
238 [label="gini = 0.0\nsamples = 2\nvalue = [0, 0, 0, 0, 2]", fillcolor="#e539c0"] ;
236 -> 238 ;
239 [label="X[3] <= 18.0\ngini = 0.5\nsamples = 2\nvalue = [0, 1, 0, 0, 1]", fillcolor="#ffffff"] ;
231 -> 239 ;
240 [label="gini = 0.0\nsamples = 1\nvalue = [0, 1, 0, 0, 0]", fillcolor="#7be539"] ;
239 -> 240 ;
241 [label="gini = 0.0\nsamples = 1\nvalue = [0, 0, 0, 0, 1]", fillcolor="#e539c0"] ;
239 -> 241 ;
242 [label="X[8] <= 2.5\ngini = 0.397\nsamples = 11\nvalue = [0, 0, 0, 3, 8]", fillcolor="#ef83d8"] ;
230 -> 242 ;
243 [label="gini = 0.0\nsamples = 7\nvalue = [0, 0, 0, 0, 7]", fillcolor="#e539c0"] ;
242 -> 243 ;
244 [label="X[1] <= 835.5\ngini = 0.375\nsamples = 4\nvalue = [0, 0, 0, 3, 1]", fillcolor="#7d7bee"] ;
242 -> 244 ;
245 [label="gini = 0.0\nsamples = 3\nvalue = [0, 0, 0, 3, 0]", fillcolor="#3c39e5"] ;
244 -> 245 ;
246 [label="gini = 0.0\nsamples = 1\nvalue = [0, 0, 0, 0, 1]", fillcolor="#e539c0"] ;
244 -> 246 ;
247 [label="X[7] <= 3.5\ngini = 0.225\nsamples = 121\nvalue = [0, 1, 4, 10, 106]", fillcolor="#e954c9"] ;
229 -> 247 ;
248 [label="X[3] <= 17.0\ngini = 0.571\nsamples = 7\nvalue = [0, 1, 4, 2, 0]", fillcolor="#b0f5e8"] ;
247 -> 248 ;
249 [label="X[1] <= 929.5\ngini = 0.32\nsamples = 5\nvalue = [0, 0, 4, 1, 0]", fillcolor="#6aecd4"] ;
248 -> 249 ;
250 [label="gini = 0.0\nsamples = 3\nvalue = [0, 0, 3, 0, 0]", fillcolor="#39e5c5"] ;
249 -> 250 ;
251 [label="X[10] <= 0.5\ngini = 0.5\nsamples = 2\nvalue = [0, 0, 1, 1, 0]", fillcolor="#ffffff"] ;
249 -> 251 ;
252 [label="gini = 0.0\nsamples = 1\nvalue = [0, 0, 1, 0, 0]", fillcolor="#39e5c5"] ;
251 -> 252 ;
253 [label="gini = 0.0\nsamples = 1\nvalue = [0, 0, 0, 1, 0]", fillcolor="#3c39e5"] ;
251 -> 253 ;
254 [label="X[8] <= 15.5\ngini = 0.5\nsamples = 2\nvalue = [0, 1, 0, 1, 0]", fillcolor="#ffffff"] ;
248 -> 254 ;
255 [label="gini = 0.0\nsamples = 1\nvalue = [0, 0, 0, 1, 0]", fillcolor="#3c39e5"] ;
254 -> 255 ;
256 [label="gini = 0.0\nsamples = 1\nvalue = [0, 1, 0, 0, 0]", fillcolor="#7be539"] ;
254 -> 256 ;
257 [label="X[7] <= 5.5\ngini = 0.131\nsamples = 114\nvalue = [0, 0, 0, 8, 106]", fillcolor="#e748c5"] ;
247 -> 257 ;
258 [label="gini = 0.0\nsamples = 73\nvalue = [0, 0, 0, 0, 73]", fillcolor="#e539c0"] ;
257 -> 258 ;
259 [label="X[4] <= 1011.5\ngini = 0.314\nsamples = 41\nvalue = [0, 0, 0, 8, 33]", fillcolor="#eb69cf"] ;
257 -> 259 ;
260 [label="gini = 0.0\nsamples = 3\nvalue = [0, 0, 0, 3, 0]", fillcolor="#3c39e5"] ;
259 -> 260 ;
261 [label="X[8] <= 7.5\ngini = 0.229\nsamples = 38\nvalue = [0, 0, 0, 5, 33]", fillcolor="#e957ca"] ;
259 -> 261 ;
262 [label="gini = 0.0\nsamples = 3\nvalue = [0, 0, 0, 3, 0]", fillcolor="#3c39e5"] ;
261 -> 262 ;
263 [label="X[3] <= 15.0\ngini = 0.108\nsamples = 35\nvalue = [0, 0, 0, 2, 33]", fillcolor="#e745c4"] ;
261 -> 263 ;
264 [label="gini = 0.0\nsamples = 1\nvalue = [0, 0, 0, 1, 0]", fillcolor="#3c39e5"] ;
263 -> 264 ;
265 [label="X[3] <= 18.5\ngini = 0.057\nsamples = 34\nvalue = [0, 0, 0, 1, 33]", fillcolor="#e63fc2"] ;
263 -> 265 ;
266 [label="X[8] <= 8.5\ngini = 0.444\nsamples = 3\nvalue = [0, 0, 0, 1, 2]", fillcolor="#f29ce0"] ;
265 -> 266 ;
267 [label="gini = 0.0\nsamples = 1\nvalue = [0, 0, 0, 1, 0]", fillcolor="#3c39e5"] ;
266 -> 267 ;
268 [label="gini = 0.0\nsamples = 2\nvalue = [0, 0, 0, 0, 2]", fillcolor="#e539c0"] ;
266 -> 268 ;
269 [label="gini = 0.0\nsamples = 31\nvalue = [0, 0, 0, 0, 31]", fillcolor="#e539c0"] ;
265 -> 269 ;
270 [label="X[1] <= 974.5\ngini = 0.194\nsamples = 114\nvalue = [0, 4, 1, 102, 7]", fillcolor="#524fe8"] ;
228 -> 270 ;
271 [label="X[5] <= 6.5\ngini = 0.127\nsamples = 105\nvalue = [0, 4, 1, 98, 2]", fillcolor="#4a47e7"] ;
270 -> 271 ;
272 [label="X[10] <= 0.5\ngini = 0.11\nsamples = 104\nvalue = [0, 4, 1, 98, 1]", fillcolor="#4845e7"] ;
271 -> 272 ;
273 [label="X[3] <= 17.5\ngini = 0.287\nsamples = 30\nvalue = [0, 4, 1, 25, 0]", fillcolor="#625fea"] ;
272 -> 273 ;
274 [label="gini = 0.0\nsamples = 19\nvalue = [0, 0, 0, 19, 0]", fillcolor="#3c39e5"] ;
273 -> 274 ;
275 [label="X[8] <= 25.0\ngini = 0.562\nsamples = 11\nvalue = [0, 4, 1, 6, 0]", fillcolor="#c7c6f8"] ;
273 -> 275 ;
276 [label="gini = 0.0\nsamples = 5\nvalue = [0, 0, 0, 5, 0]", fillcolor="#3c39e5"] ;
275 -> 276 ;
277 [label="X[1] <= 452.0\ngini = 0.5\nsamples = 6\nvalue = [0, 4, 1, 1, 0]", fillcolor="#b0ef88"] ;
275 -> 277 ;
278 [label="gini = 0.0\nsamples = 4\nvalue = [0, 4, 0, 0, 0]", fillcolor="#7be539"] ;
277 -> 278 ;
279 [label="X[1] <= 659.5\ngini = 0.5\nsamples = 2\nvalue = [0, 0, 1, 1, 0]", fillcolor="#ffffff"] ;
277 -> 279 ;
280 [label="gini = 0.0\nsamples = 1\nvalue = [0, 0, 0, 1, 0]", fillcolor="#3c39e5"] ;
279 -> 280 ;
281 [label="gini = 0.0\nsamples = 1\nvalue = [0, 0, 1, 0, 0]", fillcolor="#39e5c5"] ;
279 -> 281 ;
282 [label="X[0] <= 1.0\ngini = 0.027\nsamples = 74\nvalue = [0, 0, 0, 73, 1]", fillcolor="#3f3ce5"] ;
272 -> 282 ;
283 [label="gini = 0.0\nsamples = 72\nvalue = [0, 0, 0, 72, 0]", fillcolor="#3c39e5"] ;
282 -> 283 ;
284 [label="X[9] <= 14.0\ngini = 0.5\nsamples = 2\nvalue = [0, 0, 0, 1, 1]", fillcolor="#ffffff"] ;
282 -> 284 ;
285 [label="gini = 0.0\nsamples = 1\nvalue = [0, 0, 0, 0, 1]", fillcolor="#e539c0"] ;
284 -> 285 ;
286 [label="gini = 0.0\nsamples = 1\nvalue = [0, 0, 0, 1, 0]", fillcolor="#3c39e5"] ;
284 -> 286 ;
287 [label="gini = 0.0\nsamples = 1\nvalue = [0, 0, 0, 0, 1]", fillcolor="#e539c0"] ;
271 -> 287 ;
288 [label="X[1] <= 1175.5\ngini = 0.494\nsamples = 9\nvalue = [0, 0, 0, 4, 5]", fillcolor="#fad7f2"] ;
270 -> 288 ;
289 [label="X[3] <= 12.0\ngini = 0.278\nsamples = 6\nvalue = [0, 0, 0, 1, 5]", fillcolor="#ea61cd"] ;
288 -> 289 ;
290 [label="gini = 0.0\nsamples = 1\nvalue = [0, 0, 0, 1, 0]", fillcolor="#3c39e5"] ;
289 -> 290 ;
291 [label="gini = 0.0\nsamples = 5\nvalue = [0, 0, 0, 0, 5]", fillcolor="#e539c0"] ;
289 -> 291 ;
292 [label="gini = 0.0\nsamples = 3\nvalue = [0, 0, 0, 3, 0]", fillcolor="#3c39e5"] ;
288 -> 292 ;
293 [label="X[1] <= 553.0\ngini = 0.553\nsamples = 489\nvalue = [41, 307, 94, 46, 1]", fillcolor="#b8f194"] ;
195 -> 293 ;
294 [label="X[7] <= 11.5\ngini = 0.353\nsamples = 345\nvalue = [35, 274, 24, 12, 0]", fillcolor="#99eb66"] ;
293 -> 294 ;
295 [label="X[8] <= 2.5\ngini = 0.234\nsamples = 289\nvalue = [10, 252, 16, 11, 0]", fillcolor="#8de954"] ;
294 -> 295 ;
296 [label="X[7] <= 8.5\ngini = 0.53\nsamples = 26\nvalue = [0, 14, 1, 11, 0]", fillcolor="#e5fad7"] ;
295 -> 296 ;
297 [label="gini = 0.0\nsamples = 11\nvalue = [0, 0, 0, 11, 0]", fillcolor="#3c39e5"] ;
296 -> 297 ;
298 [label="X[0] <= 1.0\ngini = 0.124\nsamples = 15\nvalue = [0, 14, 1, 0, 0]", fillcolor="#84e747"] ;
296 -> 298 ;
299 [label="gini = 0.0\nsamples = 14\nvalue = [0, 14, 0, 0, 0]", fillcolor="#7be539"] ;
298 -> 299 ;
300 [label="gini = 0.0\nsamples = 1\nvalue = [0, 0, 1, 0, 0]", fillcolor="#39e5c5"] ;
298 -> 300 ;
301 [label="X[11] <= 0.5\ngini = 0.176\nsamples = 263\nvalue = [10, 238, 15, 0, 0]", fillcolor="#88e84d"] ;
295 -> 301 ;
302 [label="gini = 0.0\nsamples = 2\nvalue = [2, 0, 0, 0, 0]", fillcolor="#e58139"] ;
301 -> 302 ;
303 [label="X[0] <= 1.0\ngini = 0.164\nsamples = 261\nvalue = [8, 238, 15, 0, 0]", fillcolor="#87e74c"] ;
301 -> 303 ;
304 [label="X[8] <= 23.5\ngini = 0.131\nsamples = 246\nvalue = [8, 229, 9, 0, 0]", fillcolor="#84e747"] ;
303 -> 304 ;
305 [label="X[4] <= 1027.5\ngini = 0.041\nsamples = 193\nvalue = [1, 189, 3, 0, 0]", fillcolor="#7ee63d"] ;
304 -> 305 ;
306 [label="X[8] <= 21.5\ngini = 0.032\nsamples = 187\nvalue = [0, 184, 3, 0, 0]", fillcolor="#7de53c"] ;
305 -> 306 ;
307 [label="X[1] <= 412.0\ngini = 0.012\nsamples = 166\nvalue = [0, 165, 1, 0, 0]", fillcolor="#7ce53a"] ;
306 -> 307 ;
308 [label="gini = 0.0\nsamples = 149\nvalue = [0, 149, 0, 0, 0]", fillcolor="#7be539"] ;
307 -> 308 ;
309 [label="X[1] <= 419.5\ngini = 0.111\nsamples = 17\nvalue = [0, 16, 1, 0, 0]", fillcolor="#83e745"] ;
307 -> 309 ;
310 [label="gini = 0.0\nsamples = 1\nvalue = [0, 0, 1, 0, 0]", fillcolor="#39e5c5"] ;
309 -> 310 ;
311 [label="gini = 0.0\nsamples = 16\nvalue = [0, 16, 0, 0, 0]", fillcolor="#7be539"] ;
309 -> 311 ;
312 [label="X[3] <= 20.0\ngini = 0.172\nsamples = 21\nvalue = [0, 19, 2, 0, 0]", fillcolor="#89e84e"] ;
306 -> 312 ;
313 [label="gini = 0.0\nsamples = 16\nvalue = [0, 16, 0, 0, 0]", fillcolor="#7be539"] ;
312 -> 313 ;
314 [label="X[4] <= 1017.0\ngini = 0.48\nsamples = 5\nvalue = [0, 3, 2, 0, 0]", fillcolor="#d3f6bd"] ;
312 -> 314 ;
315 [label="gini = 0.0\nsamples = 3\nvalue = [0, 3, 0, 0, 0]", fillcolor="#7be539"] ;
314 -> 315 ;
316 [label="gini = 0.0\nsamples = 2\nvalue = [0, 0, 2, 0, 0]", fillcolor="#39e5c5"] ;
314 -> 316 ;
317 [label="X[9] <= 18.5\ngini = 0.278\nsamples = 6\nvalue = [1, 5, 0, 0, 0]", fillcolor="#95ea61"] ;
305 -> 317 ;
318 [label="gini = 0.0\nsamples = 4\nvalue = [0, 4, 0, 0, 0]", fillcolor="#7be539"] ;
317 -> 318 ;
319 [label="X[9] <= 21.0\ngini = 0.5\nsamples = 2\nvalue = [1, 1, 0, 0, 0]", fillcolor="#ffffff"] ;
317 -> 319 ;
320 [label="gini = 0.0\nsamples = 1\nvalue = [1, 0, 0, 0, 0]", fillcolor="#e58139"] ;
319 -> 320 ;
321 [label="gini = 0.0\nsamples = 1\nvalue = [0, 1, 0, 0, 0]", fillcolor="#7be539"] ;
319 -> 321 ;
322 [label="X[7] <= 10.5\ngini = 0.4\nsamples = 53\nvalue = [7, 40, 6, 0, 0]", fillcolor="#a0ec71"] ;
304 -> 322 ;
323 [label="X[8] <= 25.5\ngini = 0.273\nsamples = 43\nvalue = [7, 36, 0, 0, 0]", fillcolor="#95ea5f"] ;
322 -> 323 ;
324 [label="X[7] <= 9.5\ngini = 0.486\nsamples = 12\nvalue = [7, 5, 0, 0, 0]", fillcolor="#f8dbc6"] ;
323 -> 324 ;
325 [label="gini = 0.0\nsamples = 5\nvalue = [0, 5, 0, 0, 0]", fillcolor="#7be539"] ;
324 -> 325 ;
326 [label="gini = 0.0\nsamples = 7\nvalue = [7, 0, 0, 0, 0]", fillcolor="#e58139"] ;
324 -> 326 ;
327 [label="gini = 0.0\nsamples = 31\nvalue = [0, 31, 0, 0, 0]", fillcolor="#7be539"] ;
323 -> 327 ;
328 [label="X[8] <= 28.5\ngini = 0.48\nsamples = 10\nvalue = [0, 4, 6, 0, 0]", fillcolor="#bdf6ec"] ;
322 -> 328 ;
329 [label="gini = 0.0\nsamples = 4\nvalue = [0, 4, 0, 0, 0]", fillcolor="#7be539"] ;
328 -> 329 ;
330 [label="gini = 0.0\nsamples = 6\nvalue = [0, 0, 6, 0, 0]", fillcolor="#39e5c5"] ;
328 -> 330 ;
331 [label="X[8] <= 10.5\ngini = 0.48\nsamples = 15\nvalue = [0, 9, 6, 0, 0]", fillcolor="#d3f6bd"] ;
303 -> 331 ;
332 [label="X[8] <= 7.0\ngini = 0.408\nsamples = 7\nvalue = [0, 2, 5, 0, 0]", fillcolor="#88efdc"] ;
331 -> 332 ;
333 [label="gini = 0.0\nsamples = 2\nvalue = [0, 2, 0, 0, 0]", fillcolor="#7be539"] ;
332 -> 333 ;
334 [label="gini = 0.0\nsamples = 5\nvalue = [0, 0, 5, 0, 0]", fillcolor="#39e5c5"] ;
332 -> 334 ;
335 [label="X[5] <= 3.0\ngini = 0.219\nsamples = 8\nvalue = [0, 7, 1, 0, 0]", fillcolor="#8ee955"] ;
331 -> 335 ;
336 [label="gini = 0.0\nsamples = 7\nvalue = [0, 7, 0, 0, 0]", fillcolor="#7be539"] ;
335 -> 336 ;
337 [label="gini = 0.0\nsamples = 1\nvalue = [0, 0, 1, 0, 0]", fillcolor="#39e5c5"] ;
335 -> 337 ;
338 [label="X[8] <= 10.5\ngini = 0.626\nsamples = 56\nvalue = [25, 22, 8, 1, 0]", fillcolor="#fdf4ee"] ;
294 -> 338 ;
339 [label="X[3] <= 10.5\ngini = 0.547\nsamples = 17\nvalue = [0, 9, 7, 1, 0]", fillcolor="#e5fad7"] ;
338 -> 339 ;
340 [label="X[9] <= 12.5\ngini = 0.32\nsamples = 10\nvalue = [0, 8, 2, 0, 0]", fillcolor="#9cec6a"] ;
339 -> 340 ;
341 [label="gini = 0.0\nsamples = 7\nvalue = [0, 7, 0, 0, 0]", fillcolor="#7be539"] ;
340 -> 341 ;
342 [label="X[8] <= 4.5\ngini = 0.444\nsamples = 3\nvalue = [0, 1, 2, 0, 0]", fillcolor="#9cf2e2"] ;
340 -> 342 ;
343 [label="gini = 0.0\nsamples = 2\nvalue = [0, 0, 2, 0, 0]", fillcolor="#39e5c5"] ;
342 -> 343 ;
344 [label="gini = 0.0\nsamples = 1\nvalue = [0, 1, 0, 0, 0]", fillcolor="#7be539"] ;
342 -> 344 ;
345 [label="X[3] <= 12.0\ngini = 0.449\nsamples = 7\nvalue = [0, 1, 5, 1, 0]", fillcolor="#7beed8"] ;
339 -> 345 ;
346 [label="X[0] <= 1.0\ngini = 0.278\nsamples = 6\nvalue = [0, 1, 5, 0, 0]", fillcolor="#61ead1"] ;
345 -> 346 ;
347 [label="gini = 0.0\nsamples = 5\nvalue = [0, 0, 5, 0, 0]", fillcolor="#39e5c5"] ;
346 -> 347 ;
348 [label="gini = 0.0\nsamples = 1\nvalue = [0, 1, 0, 0, 0]", fillcolor="#7be539"] ;
346 -> 348 ;
349 [label="gini = 0.0\nsamples = 1\nvalue = [0, 0, 0, 1, 0]", fillcolor="#3c39e5"] ;
345 -> 349 ;
350 [label="X[11] <= 0.5\ngini = 0.477\nsamples = 39\nvalue = [25, 13, 1, 0, 0]", fillcolor="#f3c5a4"] ;
338 -> 350 ;
351 [label="gini = 0.0\nsamples = 10\nvalue = [10, 0, 0, 0, 0]", fillcolor="#e58139"] ;
350 -> 351 ;
352 [label="X[8] <= 28.5\ngini = 0.53\nsamples = 29\nvalue = [15, 13, 1, 0, 0]", fillcolor="#fcefe6"] ;
350 -> 352 ;
353 [label="X[9] <= 19.5\ngini = 0.526\nsamples = 19\nvalue = [7, 11, 1, 0, 0]", fillcolor="#d3f6bd"] ;
352 -> 353 ;
354 [label="X[1] <= 417.0\ngini = 0.561\nsamples = 14\nvalue = [7, 6, 1, 0, 0]", fillcolor="#fcefe6"] ;
353 -> 354 ;
355 [label="X[8] <= 27.5\ngini = 0.542\nsamples = 12\nvalue = [7, 4, 1, 0, 0]", fillcolor="#f5d0b5"] ;
354 -> 355 ;
356 [label="X[14] <= 0.5\ngini = 0.463\nsamples = 11\nvalue = [7, 4, 0, 0, 0]", fillcolor="#f4c9aa"] ;
355 -> 356 ;
357 [label="X[1] <= 234.5\ngini = 0.42\nsamples = 10\nvalue = [7, 3, 0, 0, 0]", fillcolor="#f0b78e"] ;
356 -> 357 ;
358 [label="X[1] <= 82.5\ngini = 0.5\nsamples = 6\nvalue = [3, 3, 0, 0, 0]", fillcolor="#ffffff"] ;
357 -> 358 ;
359 [label="gini = 0.0\nsamples = 2\nvalue = [2, 0, 0, 0, 0]", fillcolor="#e58139"] ;
358 -> 359 ;
360 [label="X[2] <= 1.5\ngini = 0.375\nsamples = 4\nvalue = [1, 3, 0, 0, 0]", fillcolor="#a7ee7b"] ;
358 -> 360 ;
361 [label="gini = 0.0\nsamples = 3\nvalue = [0, 3, 0, 0, 0]", fillcolor="#7be539"] ;
360 -> 361 ;
362 [label="gini = 0.0\nsamples = 1\nvalue = [1, 0, 0, 0, 0]", fillcolor="#e58139"] ;
360 -> 362 ;
363 [label="gini = 0.0\nsamples = 4\nvalue = [4, 0, 0, 0, 0]", fillcolor="#e58139"] ;
357 -> 363 ;
364 [label="gini = 0.0\nsamples = 1\nvalue = [0, 1, 0, 0, 0]", fillcolor="#7be539"] ;
356 -> 364 ;
365 [label="gini = 0.0\nsamples = 1\nvalue = [0, 0, 1, 0, 0]", fillcolor="#39e5c5"] ;
355 -> 365 ;
366 [label="gini = 0.0\nsamples = 2\nvalue = [0, 2, 0, 0, 0]", fillcolor="#7be539"] ;
354 -> 366 ;
367 [label="gini = 0.0\nsamples = 5\nvalue = [0, 5, 0, 0, 0]", fillcolor="#7be539"] ;
353 -> 367 ;
368 [label="X[3] <= 15.5\ngini = 0.32\nsamples = 10\nvalue = [8, 2, 0, 0, 0]", fillcolor="#eca06a"] ;
352 -> 368 ;
369 [label="X[5] <= 0.5\ngini = 0.198\nsamples = 9\nvalue = [8, 1, 0, 0, 0]", fillcolor="#e89152"] ;
368 -> 369 ;
370 [label="X[4] <= 1022.0\ngini = 0.5\nsamples = 2\nvalue = [1, 1, 0, 0, 0]", fillcolor="#ffffff"] ;
369 -> 370 ;
371 [label="gini = 0.0\nsamples = 1\nvalue = [1, 0, 0, 0, 0]", fillcolor="#e58139"] ;
370 -> 371 ;
372 [label="gini = 0.0\nsamples = 1\nvalue = [0, 1, 0, 0, 0]", fillcolor="#7be539"] ;
370 -> 372 ;
373 [label="gini = 0.0\nsamples = 7\nvalue = [7, 0, 0, 0, 0]", fillcolor="#e58139"] ;
369 -> 373 ;
374 [label="gini = 0.0\nsamples = 1\nvalue = [0, 1, 0, 0, 0]", fillcolor="#7be539"] ;
368 -> 374 ;
375 [label="X[1] <= 898.5\ngini = 0.654\nsamples = 144\nvalue = [6, 33, 70, 34, 1]", fillcolor="#bef6ec"] ;
293 -> 375 ;
376 [label="X[10] <= 0.5\ngini = 0.606\nsamples = 73\nvalue = [4, 26, 37, 6, 0]", fillcolor="#d1f9f1"] ;
375 -> 376 ;
377 [label="X[1] <= 575.5\ngini = 0.55\nsamples = 64\nvalue = [1, 23, 36, 4, 0]", fillcolor="#c0f7ed"] ;
376 -> 377 ;
378 [label="X[3] <= 16.0\ngini = 0.612\nsamples = 7\nvalue = [0, 3, 1, 3, 0]", fillcolor="#ffffff"] ;
377 -> 378 ;
379 [label="X[5] <= 3.0\ngini = 0.56\nsamples = 5\nvalue = [0, 1, 1, 3, 0]", fillcolor="#9e9cf2"] ;
378 -> 379 ;
380 [label="X[4] <= 1025.0\ngini = 0.375\nsamples = 4\nvalue = [0, 1, 0, 3, 0]", fillcolor="#7d7bee"] ;
379 -> 380 ;
381 [label="gini = 0.0\nsamples = 3\nvalue = [0, 0, 0, 3, 0]", fillcolor="#3c39e5"] ;
380 -> 381 ;
382 [label="gini = 0.0\nsamples = 1\nvalue = [0, 1, 0, 0, 0]", fillcolor="#7be539"] ;
380 -> 382 ;
383 [label="gini = 0.0\nsamples = 1\nvalue = [0, 0, 1, 0, 0]", fillcolor="#39e5c5"] ;
379 -> 383 ;
384 [label="gini = 0.0\nsamples = 2\nvalue = [0, 2, 0, 0, 0]", fillcolor="#7be539"] ;
378 -> 384 ;
385 [label="X[1] <= 859.5\ngini = 0.499\nsamples = 57\nvalue = [1, 20, 35, 1, 0]", fillcolor="#aff4e7"] ;
377 -> 385 ;
386 [label="X[4] <= 1015.5\ngini = 0.477\nsamples = 52\nvalue = [1, 16, 34, 1, 0]", fillcolor="#9cf2e2"] ;
385 -> 386 ;
387 [label="gini = 0.0\nsamples = 7\nvalue = [0, 0, 7, 0, 0]", fillcolor="#39e5c5"] ;
386 -> 387 ;
388 [label="X[1] <= 817.5\ngini = 0.513\nsamples = 45\nvalue = [1, 16, 27, 1, 0]", fillcolor="#b4f5e9"] ;
386 -> 388 ;
389 [label="X[9] <= 14.5\ngini = 0.54\nsamples = 39\nvalue = [1, 16, 21, 1, 0]", fillcolor="#d4f9f2"] ;
388 -> 389 ;
390 [label="X[8] <= 21.5\ngini = 0.494\nsamples = 21\nvalue = [1, 5, 14, 1, 0]", fillcolor="#90f0de"] ;
389 -> 390 ;
391 [label="X[4] <= 1022.5\ngini = 0.24\nsamples = 15\nvalue = [0, 1, 13, 1, 0]", fillcolor="#55e9cd"] ;
390 -> 391 ;
392 [label="gini = 0.0\nsamples = 10\nvalue = [0, 0, 10, 0, 0]", fillcolor="#39e5c5"] ;
391 -> 392 ;
393 [label="X[8] <= 17.5\ngini = 0.56\nsamples = 5\nvalue = [0, 1, 3, 1, 0]", fillcolor="#9cf2e2"] ;
391 -> 393 ;
394 [label="X[13] <= 0.5\ngini = 0.375\nsamples = 4\nvalue = [0, 0, 3, 1, 0]", fillcolor="#7beed8"] ;
393 -> 394 ;
395 [label="gini = 0.0\nsamples = 2\nvalue = [0, 0, 2, 0, 0]", fillcolor="#39e5c5"] ;
394 -> 395 ;
396 [label="X[1] <= 645.0\ngini = 0.5\nsamples = 2\nvalue = [0, 0, 1, 1, 0]", fillcolor="#ffffff"] ;
394 -> 396 ;
397 [label="gini = 0.0\nsamples = 1\nvalue = [0, 0, 0, 1, 0]", fillcolor="#3c39e5"] ;
396 -> 397 ;
398 [label="gini = 0.0\nsamples = 1\nvalue = [0, 0, 1, 0, 0]", fillcolor="#39e5c5"] ;
396 -> 398 ;
399 [label="gini = 0.0\nsamples = 1\nvalue = [0, 1, 0, 0, 0]", fillcolor="#7be539"] ;
393 -> 399 ;
400 [label="X[1] <= 596.0\ngini = 0.5\nsamples = 6\nvalue = [1, 4, 1, 0, 0]", fillcolor="#b0ef88"] ;
390 -> 400 ;
401 [label="gini = 0.0\nsamples = 1\nvalue = [1, 0, 0, 0, 0]", fillcolor="#e58139"] ;
400 -> 401 ;
402 [label="X[1] <= 744.5\ngini = 0.32\nsamples = 5\nvalue = [0, 4, 1, 0, 0]", fillcolor="#9cec6a"] ;
400 -> 402 ;
403 [label="gini = 0.0\nsamples = 4\nvalue = [0, 4, 0, 0, 0]", fillcolor="#7be539"] ;
402 -> 403 ;
404 [label="gini = 0.0\nsamples = 1\nvalue = [0, 0, 1, 0, 0]", fillcolor="#39e5c5"] ;
402 -> 404 ;
405 [label="X[0] <= 1.0\ngini = 0.475\nsamples = 18\nvalue = [0, 11, 7, 0, 0]", fillcolor="#cff6b7"] ;
389 -> 405 ;
406 [label="X[1] <= 695.0\ngini = 0.355\nsamples = 13\nvalue = [0, 10, 3, 0, 0]", fillcolor="#a3ed74"] ;
405 -> 406 ;
407 [label="X[1] <= 626.0\ngini = 0.48\nsamples = 5\nvalue = [0, 2, 3, 0, 0]", fillcolor="#bdf6ec"] ;
406 -> 407 ;
408 [label="gini = 0.0\nsamples = 2\nvalue = [0, 2, 0, 0, 0]", fillcolor="#7be539"] ;
407 -> 408 ;
409 [label="gini = 0.0\nsamples = 3\nvalue = [0, 0, 3, 0, 0]", fillcolor="#39e5c5"] ;
407 -> 409 ;
410 [label="gini = 0.0\nsamples = 8\nvalue = [0, 8, 0, 0, 0]", fillcolor="#7be539"] ;
406 -> 410 ;
411 [label="X[9] <= 15.5\ngini = 0.32\nsamples = 5\nvalue = [0, 1, 4, 0, 0]", fillcolor="#6aecd4"] ;
405 -> 411 ;
412 [label="gini = 0.0\nsamples = 1\nvalue = [0, 1, 0, 0, 0]", fillcolor="#7be539"] ;
411 -> 412 ;
413 [label="gini = 0.0\nsamples = 4\nvalue = [0, 0, 4, 0, 0]", fillcolor="#39e5c5"] ;
411 -> 413 ;
414 [label="gini = 0.0\nsamples = 6\nvalue = [0, 0, 6, 0, 0]", fillcolor="#39e5c5"] ;
388 -> 414 ;
415 [label="X[5] <= 0.5\ngini = 0.32\nsamples = 5\nvalue = [0, 4, 1, 0, 0]", fillcolor="#9cec6a"] ;
385 -> 415 ;
416 [label="gini = 0.0\nsamples = 1\nvalue = [0, 0, 1, 0, 0]", fillcolor="#39e5c5"] ;
415 -> 416 ;
417 [label="gini = 0.0\nsamples = 4\nvalue = [0, 4, 0, 0, 0]", fillcolor="#7be539"] ;
415 -> 417 ;
418 [label="X[0] <= 1.0\ngini = 0.716\nsamples = 9\nvalue = [3, 3, 1, 2, 0]", fillcolor="#ffffff"] ;
376 -> 418 ;
419 [label="gini = 0.0\nsamples = 3\nvalue = [0, 3, 0, 0, 0]", fillcolor="#7be539"] ;
418 -> 419 ;
420 [label="X[2] <= 1.5\ngini = 0.611\nsamples = 6\nvalue = [3, 0, 1, 2, 0]", fillcolor="#f8e0ce"] ;
418 -> 420 ;
421 [label="X[5] <= 0.5\ngini = 0.444\nsamples = 3\nvalue = [0, 0, 1, 2, 0]", fillcolor="#9e9cf2"] ;
420 -> 421 ;
422 [label="gini = 0.0\nsamples = 1\nvalue = [0, 0, 1, 0, 0]", fillcolor="#39e5c5"] ;
421 -> 422 ;
423 [label="gini = 0.0\nsamples = 2\nvalue = [0, 0, 0, 2, 0]", fillcolor="#3c39e5"] ;
421 -> 423 ;
424 [label="gini = 0.0\nsamples = 3\nvalue = [3, 0, 0, 0, 0]", fillcolor="#e58139"] ;
420 -> 424 ;
425 [label="X[9] <= 16.5\ngini = 0.618\nsamples = 71\nvalue = [2, 7, 33, 28, 1]", fillcolor="#e8fcf8"] ;
375 -> 425 ;
426 [label="X[4] <= 1024.5\ngini = 0.59\nsamples = 49\nvalue = [0, 6, 18, 25, 0]", fillcolor="#d3d2f9"] ;
425 -> 426 ;
427 [label="X[10] <= 0.5\ngini = 0.607\nsamples = 44\nvalue = [0, 6, 18, 20, 0]", fillcolor="#f0f0fd"] ;
426 -> 427 ;
428 [label="X[9] <= 13.5\ngini = 0.576\nsamples = 38\nvalue = [0, 4, 14, 20, 0]", fillcolor="#cecef8"] ;
427 -> 428 ;
429 [label="X[9] <= 12.5\ngini = 0.615\nsamples = 27\nvalue = [0, 4, 12, 11, 0]", fillcolor="#f3fdfb"] ;
428 -> 429 ;
430 [label="X[1] <= 1174.0\ngini = 0.541\nsamples = 22\nvalue = [0, 1, 10, 11, 0]", fillcolor="#efeefd"] ;
429 -> 430 ;
431 [label="X[9] <= 9.5\ngini = 0.539\nsamples = 16\nvalue = [0, 1, 9, 6, 0]", fillcolor="#c4f7ee"] ;
430 -> 431 ;
432 [label="X[8] <= 25.0\ngini = 0.531\nsamples = 8\nvalue = [0, 1, 2, 5, 0]", fillcolor="#9e9cf2"] ;
431 -> 432 ;
433 [label="X[1] <= 949.0\ngini = 0.408\nsamples = 7\nvalue = [0, 0, 2, 5, 0]", fillcolor="#8a88ef"] ;
432 -> 433 ;
434 [label="gini = 0.0\nsamples = 1\nvalue = [0, 0, 1, 0, 0]", fillcolor="#39e5c5"] ;
433 -> 434 ;
435 [label="X[1] <= 1113.5\ngini = 0.278\nsamples = 6\nvalue = [0, 0, 1, 5, 0]", fillcolor="#6361ea"] ;
433 -> 435 ;
436 [label="gini = 0.0\nsamples = 5\nvalue = [0, 0, 0, 5, 0]", fillcolor="#3c39e5"] ;
435 -> 436 ;
437 [label="gini = 0.0\nsamples = 1\nvalue = [0, 0, 1, 0, 0]", fillcolor="#39e5c5"] ;
435 -> 437 ;
438 [label="gini = 0.0\nsamples = 1\nvalue = [0, 1, 0, 0, 0]", fillcolor="#7be539"] ;
432 -> 438 ;
439 [label="X[7] <= 11.5\ngini = 0.219\nsamples = 8\nvalue = [0, 0, 7, 1, 0]", fillcolor="#55e9cd"] ;
431 -> 439 ;
440 [label="gini = 0.0\nsamples = 7\nvalue = [0, 0, 7, 0, 0]", fillcolor="#39e5c5"] ;
439 -> 440 ;
441 [label="gini = 0.0\nsamples = 1\nvalue = [0, 0, 0, 1, 0]", fillcolor="#3c39e5"] ;
439 -> 441 ;
442 [label="X[9] <= 8.5\ngini = 0.278\nsamples = 6\nvalue = [0, 0, 1, 5, 0]", fillcolor="#6361ea"] ;
430 -> 442 ;
443 [label="gini = 0.0\nsamples = 1\nvalue = [0, 0, 1, 0, 0]", fillcolor="#39e5c5"] ;
442 -> 443 ;
444 [label="gini = 0.0\nsamples = 5\nvalue = [0, 0, 0, 5, 0]", fillcolor="#3c39e5"] ;
442 -> 444 ;
445 [label="X[13] <= 0.5\ngini = 0.48\nsamples = 5\nvalue = [0, 3, 2, 0, 0]", fillcolor="#d3f6bd"] ;
429 -> 445 ;
446 [label="gini = 0.0\nsamples = 2\nvalue = [0, 0, 2, 0, 0]", fillcolor="#39e5c5"] ;
445 -> 446 ;
447 [label="gini = 0.0\nsamples = 3\nvalue = [0, 3, 0, 0, 0]", fillcolor="#7be539"] ;
445 -> 447 ;
448 [label="X[15] <= 0.5\ngini = 0.298\nsamples = 11\nvalue = [0, 0, 2, 9, 0]", fillcolor="#6765eb"] ;
428 -> 448 ;
449 [label="X[1] <= 1173.0\ngini = 0.18\nsamples = 10\nvalue = [0, 0, 1, 9, 0]", fillcolor="#524fe8"] ;
448 -> 449 ;
450 [label="gini = 0.0\nsamples = 7\nvalue = [0, 0, 0, 7, 0]", fillcolor="#3c39e5"] ;
449 -> 450 ;
451 [label="X[8] <= 10.5\ngini = 0.444\nsamples = 3\nvalue = [0, 0, 1, 2, 0]", fillcolor="#9e9cf2"] ;
449 -> 451 ;
452 [label="gini = 0.0\nsamples = 2\nvalue = [0, 0, 0, 2, 0]", fillcolor="#3c39e5"] ;
451 -> 452 ;
453 [label="gini = 0.0\nsamples = 1\nvalue = [0, 0, 1, 0, 0]", fillcolor="#39e5c5"] ;
451 -> 453 ;
454 [label="gini = 0.0\nsamples = 1\nvalue = [0, 0, 1, 0, 0]", fillcolor="#39e5c5"] ;
448 -> 454 ;
455 [label="X[7] <= 11.5\ngini = 0.444\nsamples = 6\nvalue = [0, 2, 4, 0, 0]", fillcolor="#9cf2e2"] ;
427 -> 455 ;
456 [label="gini = 0.0\nsamples = 4\nvalue = [0, 0, 4, 0, 0]", fillcolor="#39e5c5"] ;
455 -> 456 ;
457 [label="gini = 0.0\nsamples = 2\nvalue = [0, 2, 0, 0, 0]", fillcolor="#7be539"] ;
455 -> 457 ;
458 [label="gini = 0.0\nsamples = 5\nvalue = [0, 0, 0, 5, 0]", fillcolor="#3c39e5"] ;
426 -> 458 ;
459 [label="X[3] <= 13.0\ngini = 0.504\nsamples = 22\nvalue = [2, 1, 15, 3, 1]", fillcolor="#82efda"] ;
425 -> 459 ;
460 [label="X[3] <= 10.5\ngini = 0.781\nsamples = 8\nvalue = [2, 1, 2, 2, 1]", fillcolor="#ffffff"] ;
459 -> 460 ;
461 [label="X[1] <= 1150.0\ngini = 0.722\nsamples = 6\nvalue = [0, 1, 2, 2, 1]", fillcolor="#ffffff"] ;
460 -> 461 ;
462 [label="X[0] <= 1.0\ngini = 0.444\nsamples = 3\nvalue = [0, 1, 0, 2, 0]", fillcolor="#9e9cf2"] ;
461 -> 462 ;
463 [label="gini = 0.0\nsamples = 2\nvalue = [0, 0, 0, 2, 0]", fillcolor="#3c39e5"] ;
462 -> 463 ;
464 [label="gini = 0.0\nsamples = 1\nvalue = [0, 1, 0, 0, 0]", fillcolor="#7be539"] ;
462 -> 464 ;
465 [label="X[9] <= 20.5\ngini = 0.444\nsamples = 3\nvalue = [0, 0, 2, 0, 1]", fillcolor="#9cf2e2"] ;
461 -> 465 ;
466 [label="gini = 0.0\nsamples = 1\nvalue = [0, 0, 0, 0, 1]", fillcolor="#e539c0"] ;
465 -> 466 ;
467 [label="gini = 0.0\nsamples = 2\nvalue = [0, 0, 2, 0, 0]", fillcolor="#39e5c5"] ;
465 -> 467 ;
468 [label="gini = 0.0\nsamples = 2\nvalue = [2, 0, 0, 0, 0]", fillcolor="#e58139"] ;
460 -> 468 ;
469 [label="X[12] <= 0.5\ngini = 0.133\nsamples = 14\nvalue = [0, 0, 13, 1, 0]", fillcolor="#48e7c9"] ;
459 -> 469 ;
470 [label="gini = 0.0\nsamples = 13\nvalue = [0, 0, 13, 0, 0]", fillcolor="#39e5c5"] ;
469 -> 470 ;
471 [label="gini = 0.0\nsamples = 1\nvalue = [0, 0, 0, 1, 0]", fillcolor="#3c39e5"] ;
469 -> 471 ;
472 [label="X[1] <= 2803.0\ngini = 0.444\nsamples = 457\nvalue = [2, 5, 16, 113, 321]", fillcolor="#ef87d9"] ;
194 -> 472 ;
473 [label="X[7] <= 6.5\ngini = 0.573\nsamples = 255\nvalue = [2, 4, 16, 103, 130]", fillcolor="#fadcf4"] ;
472 -> 473 ;
474 [label="X[7] <= 3.5\ngini = 0.247\nsamples = 104\nvalue = [0, 0, 0, 15, 89]", fillcolor="#e95acb"] ;
473 -> 474 ;
475 [label="X[10] <= 0.5\ngini = 0.444\nsamples = 21\nvalue = [0, 0, 0, 14, 7]", fillcolor="#9e9cf2"] ;
474 -> 475 ;
476 [label="gini = 0.0\nsamples = 8\nvalue = [0, 0, 0, 8, 0]", fillcolor="#3c39e5"] ;
475 -> 476 ;
477 [label="X[9] <= 16.5\ngini = 0.497\nsamples = 13\nvalue = [0, 0, 0, 6, 7]", fillcolor="#fbe3f6"] ;
475 -> 477 ;
478 [label="X[1] <= 2303.5\ngini = 0.375\nsamples = 8\nvalue = [0, 0, 0, 6, 2]", fillcolor="#7d7bee"] ;
477 -> 478 ;
479 [label="gini = 0.0\nsamples = 6\nvalue = [0, 0, 0, 6, 0]", fillcolor="#3c39e5"] ;
478 -> 479 ;
480 [label="gini = 0.0\nsamples = 2\nvalue = [0, 0, 0, 0, 2]", fillcolor="#e539c0"] ;
478 -> 480 ;
481 [label="gini = 0.0\nsamples = 5\nvalue = [0, 0, 0, 0, 5]", fillcolor="#e539c0"] ;
477 -> 481 ;
482 [label="X[3] <= 20.5\ngini = 0.024\nsamples = 83\nvalue = [0, 0, 0, 1, 82]", fillcolor="#e53bc1"] ;
474 -> 482 ;
483 [label="gini = 0.0\nsamples = 66\nvalue = [0, 0, 0, 0, 66]", fillcolor="#e539c0"] ;
482 -> 483 ;
484 [label="X[8] <= 19.0\ngini = 0.111\nsamples = 17\nvalue = [0, 0, 0, 1, 16]", fillcolor="#e745c4"] ;
482 -> 484 ;
485 [label="gini = 0.0\nsamples = 14\nvalue = [0, 0, 0, 0, 14]", fillcolor="#e539c0"] ;
484 -> 485 ;
486 [label="X[8] <= 22.5\ngini = 0.444\nsamples = 3\nvalue = [0, 0, 0, 1, 2]", fillcolor="#f29ce0"] ;
484 -> 486 ;
487 [label="gini = 0.0\nsamples = 1\nvalue = [0, 0, 0, 1, 0]", fillcolor="#3c39e5"] ;
486 -> 487 ;
488 [label="gini = 0.0\nsamples = 2\nvalue = [0, 0, 0, 0, 2]", fillcolor="#e539c0"] ;
486 -> 488 ;
489 [label="X[1] <= 2257.5\ngini = 0.575\nsamples = 151\nvalue = [2, 4, 16, 88, 41]", fillcolor="#acaaf4"] ;
473 -> 489 ;
490 [label="X[7] <= 11.5\ngini = 0.527\nsamples = 110\nvalue = [2, 4, 15, 72, 17]", fillcolor="#8c8af0"] ;
489 -> 490 ;
491 [label="X[1] <= 1375.5\ngini = 0.302\nsamples = 69\nvalue = [0, 0, 6, 57, 6]", fillcolor="#615fea"] ;
490 -> 491 ;
492 [label="X[4] <= 1015.5\ngini = 0.486\nsamples = 12\nvalue = [0, 0, 5, 7, 0]", fillcolor="#c7c6f8"] ;
491 -> 492 ;
493 [label="gini = 0.0\nsamples = 3\nvalue = [0, 0, 3, 0, 0]", fillcolor="#39e5c5"] ;
492 -> 493 ;
494 [label="X[0] <= 1.0\ngini = 0.346\nsamples = 9\nvalue = [0, 0, 2, 7, 0]", fillcolor="#7472ec"] ;
492 -> 494 ;
495 [label="X[3] <= 19.5\ngini = 0.5\nsamples = 4\nvalue = [0, 0, 2, 2, 0]", fillcolor="#ffffff"] ;
494 -> 495 ;
496 [label="gini = 0.0\nsamples = 2\nvalue = [0, 0, 0, 2, 0]", fillcolor="#3c39e5"] ;
495 -> 496 ;
497 [label="gini = 0.0\nsamples = 2\nvalue = [0, 0, 2, 0, 0]", fillcolor="#39e5c5"] ;
495 -> 497 ;
498 [label="gini = 0.0\nsamples = 5\nvalue = [0, 0, 0, 5, 0]", fillcolor="#3c39e5"] ;
494 -> 498 ;
499 [label="X[1] <= 1855.5\ngini = 0.219\nsamples = 57\nvalue = [0, 0, 1, 50, 6]", fillcolor="#5754e9"] ;
491 -> 499 ;
500 [label="X[8] <= 11.0\ngini = 0.069\nsamples = 28\nvalue = [0, 0, 0, 27, 1]", fillcolor="#4340e6"] ;
499 -> 500 ;
501 [label="X[8] <= 8.0\ngini = 0.245\nsamples = 7\nvalue = [0, 0, 0, 6, 1]", fillcolor="#5d5ae9"] ;
500 -> 501 ;
502 [label="gini = 0.0\nsamples = 5\nvalue = [0, 0, 0, 5, 0]", fillcolor="#3c39e5"] ;
501 -> 502 ;
503 [label="X[9] <= 11.0\ngini = 0.5\nsamples = 2\nvalue = [0, 0, 0, 1, 1]", fillcolor="#ffffff"] ;
501 -> 503 ;
504 [label="gini = 0.0\nsamples = 1\nvalue = [0, 0, 0, 1, 0]", fillcolor="#3c39e5"] ;
503 -> 504 ;
505 [label="gini = 0.0\nsamples = 1\nvalue = [0, 0, 0, 0, 1]", fillcolor="#e539c0"] ;
503 -> 505 ;
506 [label="gini = 0.0\nsamples = 21\nvalue = [0, 0, 0, 21, 0]", fillcolor="#3c39e5"] ;
500 -> 506 ;
507 [label="X[4] <= 1010.0\ngini = 0.34\nsamples = 29\nvalue = [0, 0, 1, 23, 5]", fillcolor="#6d6aec"] ;
499 -> 507 ;
508 [label="gini = 0.0\nsamples = 1\nvalue = [0, 0, 1, 0, 0]", fillcolor="#39e5c5"] ;
507 -> 508 ;
509 [label="X[1] <= 1876.5\ngini = 0.293\nsamples = 28\nvalue = [0, 0, 0, 23, 5]", fillcolor="#6664eb"] ;
507 -> 509 ;
510 [label="gini = 0.0\nsamples = 1\nvalue = [0, 0, 0, 0, 1]", fillcolor="#e539c0"] ;
509 -> 510 ;
511 [label="X[7] <= 9.5\ngini = 0.252\nsamples = 27\nvalue = [0, 0, 0, 23, 4]", fillcolor="#5e5bea"] ;
509 -> 511 ;
512 [label="X[2] <= 0.5\ngini = 0.42\nsamples = 10\nvalue = [0, 0, 0, 7, 3]", fillcolor="#908ef0"] ;
511 -> 512 ;
513 [label="gini = 0.0\nsamples = 1\nvalue = [0, 0, 0, 0, 1]", fillcolor="#e539c0"] ;
512 -> 513 ;
514 [label="X[9] <= 8.5\ngini = 0.346\nsamples = 9\nvalue = [0, 0, 0, 7, 2]", fillcolor="#7472ec"] ;
512 -> 514 ;
515 [label="gini = 0.0\nsamples = 1\nvalue = [0, 0, 0, 0, 1]", fillcolor="#e539c0"] ;
514 -> 515 ;
516 [label="X[5] <= 2.5\ngini = 0.219\nsamples = 8\nvalue = [0, 0, 0, 7, 1]", fillcolor="#5855e9"] ;
514 -> 516 ;
517 [label="gini = 0.0\nsamples = 5\nvalue = [0, 0, 0, 5, 0]", fillcolor="#3c39e5"] ;
516 -> 517 ;
518 [label="X[1] <= 1961.5\ngini = 0.444\nsamples = 3\nvalue = [0, 0, 0, 2, 1]", fillcolor="#9e9cf2"] ;
516 -> 518 ;
519 [label="gini = 0.0\nsamples = 1\nvalue = [0, 0, 0, 0, 1]", fillcolor="#e539c0"] ;
518 -> 519 ;
520 [label="gini = 0.0\nsamples = 2\nvalue = [0, 0, 0, 2, 0]", fillcolor="#3c39e5"] ;
518 -> 520 ;
521 [label="X[1] <= 2215.0\ngini = 0.111\nsamples = 17\nvalue = [0, 0, 0, 16, 1]", fillcolor="#4845e7"] ;
511 -> 521 ;
522 [label="gini = 0.0\nsamples = 14\nvalue = [0, 0, 0, 14, 0]", fillcolor="#3c39e5"] ;
521 -> 522 ;
523 [label="X[4] <= 1021.0\ngini = 0.444\nsamples = 3\nvalue = [0, 0, 0, 2, 1]", fillcolor="#9e9cf2"] ;
521 -> 523 ;
524 [label="gini = 0.0\nsamples = 1\nvalue = [0, 0, 0, 0, 1]", fillcolor="#e539c0"] ;
523 -> 524 ;
525 [label="gini = 0.0\nsamples = 2\nvalue = [0, 0, 0, 2, 0]", fillcolor="#3c39e5"] ;
523 -> 525 ;
526 [label="X[8] <= 10.5\ngini = 0.734\nsamples = 41\nvalue = [2, 4, 9, 15, 11]", fillcolor="#e5e5fc"] ;
490 -> 526 ;
527 [label="X[13] <= 0.5\ngini = 0.524\nsamples = 15\nvalue = [0, 0, 1, 5, 9]", fillcolor="#f5b0e6"] ;
526 -> 527 ;
528 [label="X[6] <= 0.5\ngini = 0.32\nsamples = 5\nvalue = [0, 0, 1, 4, 0]", fillcolor="#6d6aec"] ;
527 -> 528 ;
529 [label="gini = 0.0\nsamples = 4\nvalue = [0, 0, 0, 4, 0]", fillcolor="#3c39e5"] ;
528 -> 529 ;
530 [label="gini = 0.0\nsamples = 1\nvalue = [0, 0, 1, 0, 0]", fillcolor="#39e5c5"] ;
528 -> 530 ;
531 [label="X[1] <= 1573.5\ngini = 0.18\nsamples = 10\nvalue = [0, 0, 0, 1, 9]", fillcolor="#e84fc7"] ;
527 -> 531 ;
532 [label="X[18] <= 0.5\ngini = 0.5\nsamples = 2\nvalue = [0, 0, 0, 1, 1]", fillcolor="#ffffff"] ;
531 -> 532 ;
533 [label="gini = 0.0\nsamples = 1\nvalue = [0, 0, 0, 1, 0]", fillcolor="#3c39e5"] ;
532 -> 533 ;
534 [label="gini = 0.0\nsamples = 1\nvalue = [0, 0, 0, 0, 1]", fillcolor="#e539c0"] ;
532 -> 534 ;
535 [label="gini = 0.0\nsamples = 8\nvalue = [0, 0, 0, 0, 8]", fillcolor="#e539c0"] ;
531 -> 535 ;
536 [label="X[1] <= 1883.0\ngini = 0.722\nsamples = 26\nvalue = [2, 4, 8, 10, 2]", fillcolor="#e9e9fc"] ;
526 -> 536 ;
537 [label="X[3] <= 11.5\ngini = 0.656\nsamples = 16\nvalue = [2, 4, 8, 2, 0]", fillcolor="#bdf6ec"] ;
536 -> 537 ;
538 [label="X[1] <= 1443.0\ngini = 0.625\nsamples = 4\nvalue = [2, 1, 0, 1, 0]", fillcolor="#f6d5bd"] ;
537 -> 538 ;
539 [label="gini = 0.0\nsamples = 2\nvalue = [2, 0, 0, 0, 0]", fillcolor="#e58139"] ;
538 -> 539 ;
540 [label="X[1] <= 1524.0\ngini = 0.5\nsamples = 2\nvalue = [0, 1, 0, 1, 0]", fillcolor="#ffffff"] ;
538 -> 540 ;
541 [label="gini = 0.0\nsamples = 1\nvalue = [0, 1, 0, 0, 0]", fillcolor="#7be539"] ;
540 -> 541 ;
542 [label="gini = 0.0\nsamples = 1\nvalue = [0, 0, 0, 1, 0]", fillcolor="#3c39e5"] ;
540 -> 542 ;
543 [label="X[9] <= 13.0\ngini = 0.486\nsamples = 12\nvalue = [0, 3, 8, 1, 0]", fillcolor="#91f1df"] ;
537 -> 543 ;
544 [label="X[4] <= 1020.0\ngini = 0.444\nsamples = 3\nvalue = [0, 2, 1, 0, 0]", fillcolor="#bdf29c"] ;
543 -> 544 ;
545 [label="gini = 0.0\nsamples = 2\nvalue = [0, 2, 0, 0, 0]", fillcolor="#7be539"] ;
544 -> 545 ;
546 [label="gini = 0.0\nsamples = 1\nvalue = [0, 0, 1, 0, 0]", fillcolor="#39e5c5"] ;
544 -> 546 ;
547 [label="X[5] <= 0.5\ngini = 0.37\nsamples = 9\nvalue = [0, 1, 7, 1, 0]", fillcolor="#6aecd4"] ;
543 -> 547 ;
548 [label="X[1] <= 1761.5\ngini = 0.5\nsamples = 2\nvalue = [0, 1, 0, 1, 0]", fillcolor="#ffffff"] ;
547 -> 548 ;
549 [label="gini = 0.0\nsamples = 1\nvalue = [0, 0, 0, 1, 0]", fillcolor="#3c39e5"] ;
548 -> 549 ;
550 [label="gini = 0.0\nsamples = 1\nvalue = [0, 1, 0, 0, 0]", fillcolor="#7be539"] ;
548 -> 550 ;
551 [label="gini = 0.0\nsamples = 7\nvalue = [0, 0, 7, 0, 0]", fillcolor="#39e5c5"] ;
547 -> 551 ;
552 [label="X[3] <= 14.5\ngini = 0.32\nsamples = 10\nvalue = [0, 0, 0, 8, 2]", fillcolor="#6d6aec"] ;
536 -> 552 ;
553 [label="gini = 0.0\nsamples = 7\nvalue = [0, 0, 0, 7, 0]", fillcolor="#3c39e5"] ;
552 -> 553 ;
554 [label="X[4] <= 1023.5\ngini = 0.444\nsamples = 3\nvalue = [0, 0, 0, 1, 2]", fillcolor="#f29ce0"] ;
552 -> 554 ;
555 [label="gini = 0.0\nsamples = 2\nvalue = [0, 0, 0, 0, 2]", fillcolor="#e539c0"] ;
554 -> 555 ;
556 [label="gini = 0.0\nsamples = 1\nvalue = [0, 0, 0, 1, 0]", fillcolor="#3c39e5"] ;
554 -> 556 ;
557 [label="X[8] <= 11.5\ngini = 0.504\nsamples = 41\nvalue = [0, 0, 1, 16, 24]", fillcolor="#f7c0eb"] ;
489 -> 557 ;
558 [label="X[1] <= 2792.0\ngini = 0.124\nsamples = 15\nvalue = [0, 0, 0, 1, 14]", fillcolor="#e747c4"] ;
557 -> 558 ;
559 [label="gini = 0.0\nsamples = 14\nvalue = [0, 0, 0, 0, 14]", fillcolor="#e539c0"] ;
558 -> 559 ;
560 [label="gini = 0.0\nsamples = 1\nvalue = [0, 0, 0, 1, 0]", fillcolor="#3c39e5"] ;
558 -> 560 ;
561 [label="X[12] <= 0.5\ngini = 0.518\nsamples = 26\nvalue = [0, 0, 1, 15, 10]", fillcolor="#c2c1f7"] ;
557 -> 561 ;
562 [label="X[0] <= 1.0\ngini = 0.418\nsamples = 15\nvalue = [0, 0, 1, 11, 3]", fillcolor="#7d7bee"] ;
561 -> 562 ;
563 [label="gini = 0.0\nsamples = 1\nvalue = [0, 0, 1, 0, 0]", fillcolor="#39e5c5"] ;
562 -> 563 ;
564 [label="X[3] <= 29.5\ngini = 0.337\nsamples = 14\nvalue = [0, 0, 0, 11, 3]", fillcolor="#716fec"] ;
562 -> 564 ;
565 [label="X[15] <= 0.5\ngini = 0.26\nsamples = 13\nvalue = [0, 0, 0, 11, 2]", fillcolor="#5f5dea"] ;
564 -> 565 ;
566 [label="X[9] <= 18.0\ngini = 0.153\nsamples = 12\nvalue = [0, 0, 0, 11, 1]", fillcolor="#4e4be7"] ;
565 -> 566 ;
567 [label="gini = 0.0\nsamples = 8\nvalue = [0, 0, 0, 8, 0]", fillcolor="#3c39e5"] ;
566 -> 567 ;
568 [label="X[5] <= 1.5\ngini = 0.375\nsamples = 4\nvalue = [0, 0, 0, 3, 1]", fillcolor="#7d7bee"] ;
566 -> 568 ;
569 [label="X[7] <= 11.5\ngini = 0.5\nsamples = 2\nvalue = [0, 0, 0, 1, 1]", fillcolor="#ffffff"] ;
568 -> 569 ;
570 [label="gini = 0.0\nsamples = 1\nvalue = [0, 0, 0, 0, 1]", fillcolor="#e539c0"] ;
569 -> 570 ;
571 [label="gini = 0.0\nsamples = 1\nvalue = [0, 0, 0, 1, 0]", fillcolor="#3c39e5"] ;
569 -> 571 ;
572 [label="gini = 0.0\nsamples = 2\nvalue = [0, 0, 0, 2, 0]", fillcolor="#3c39e5"] ;
568 -> 572 ;
573 [label="gini = 0.0\nsamples = 1\nvalue = [0, 0, 0, 0, 1]", fillcolor="#e539c0"] ;
565 -> 573 ;
574 [label="gini = 0.0\nsamples = 1\nvalue = [0, 0, 0, 0, 1]", fillcolor="#e539c0"] ;
564 -> 574 ;
575 [label="X[0] <= 1.5\ngini = 0.463\nsamples = 11\nvalue = [0, 0, 0, 4, 7]", fillcolor="#f4aae4"] ;
561 -> 575 ;
576 [label="gini = 0.0\nsamples = 2\nvalue = [0, 0, 0, 2, 0]", fillcolor="#3c39e5"] ;
575 -> 576 ;
577 [label="X[8] <= 29.5\ngini = 0.346\nsamples = 9\nvalue = [0, 0, 0, 2, 7]", fillcolor="#ec72d2"] ;
575 -> 577 ;
578 [label="X[3] <= 8.0\ngini = 0.219\nsamples = 8\nvalue = [0, 0, 0, 1, 7]", fillcolor="#e955c9"] ;
577 -> 578 ;
579 [label="gini = 0.0\nsamples = 1\nvalue = [0, 0, 0, 1, 0]", fillcolor="#3c39e5"] ;
578 -> 579 ;
580 [label="gini = 0.0\nsamples = 7\nvalue = [0, 0, 0, 0, 7]", fillcolor="#e539c0"] ;
578 -> 580 ;
581 [label="gini = 0.0\nsamples = 1\nvalue = [0, 0, 0, 1, 0]", fillcolor="#3c39e5"] ;
577 -> 581 ;
582 [label="X[13] <= 0.5\ngini = 0.103\nsamples = 202\nvalue = [0, 1, 0, 10, 191]", fillcolor="#e644c4"] ;
472 -> 582 ;
583 [label="X[1] <= 4980.5\ngini = 0.541\nsamples = 14\nvalue = [0, 1, 0, 5, 8]", fillcolor="#f6bdea"] ;
582 -> 583 ;
584 [label="X[3] <= 14.0\ngini = 0.58\nsamples = 10\nvalue = [0, 1, 0, 5, 4]", fillcolor="#dedefb"] ;
583 -> 584 ;
585 [label="X[4] <= 1024.5\ngini = 0.32\nsamples = 5\nvalue = [0, 0, 0, 4, 1]", fillcolor="#6d6aec"] ;
584 -> 585 ;
586 [label="gini = 0.0\nsamples = 4\nvalue = [0, 0, 0, 4, 0]", fillcolor="#3c39e5"] ;
585 -> 586 ;
587 [label="gini = 0.0\nsamples = 1\nvalue = [0, 0, 0, 0, 1]", fillcolor="#e539c0"] ;
585 -> 587 ;
588 [label="X[0] <= 1.0\ngini = 0.56\nsamples = 5\nvalue = [0, 1, 0, 1, 3]", fillcolor="#f29ce0"] ;
584 -> 588 ;
589 [label="X[8] <= 11.0\ngini = 0.5\nsamples = 2\nvalue = [0, 1, 0, 1, 0]", fillcolor="#ffffff"] ;
588 -> 589 ;
590 [label="gini = 0.0\nsamples = 1\nvalue = [0, 1, 0, 0, 0]", fillcolor="#7be539"] ;
589 -> 590 ;
591 [label="gini = 0.0\nsamples = 1\nvalue = [0, 0, 0, 1, 0]", fillcolor="#3c39e5"] ;
589 -> 591 ;
592 [label="gini = 0.0\nsamples = 3\nvalue = [0, 0, 0, 0, 3]", fillcolor="#e539c0"] ;
588 -> 592 ;
593 [label="gini = 0.0\nsamples = 4\nvalue = [0, 0, 0, 0, 4]", fillcolor="#e539c0"] ;
583 -> 593 ;
594 [label="X[1] <= 3558.5\ngini = 0.052\nsamples = 188\nvalue = [0, 0, 0, 5, 183]", fillcolor="#e63ec2"] ;
582 -> 594 ;
595 [label="X[4] <= 1006.5\ngini = 0.165\nsamples = 44\nvalue = [0, 0, 0, 4, 40]", fillcolor="#e84dc6"] ;
594 -> 595 ;
596 [label="gini = 0.0\nsamples = 1\nvalue = [0, 0, 0, 1, 0]", fillcolor="#3c39e5"] ;
595 -> 596 ;
597 [label="X[1] <= 3552.0\ngini = 0.13\nsamples = 43\nvalue = [0, 0, 0, 3, 40]", fillcolor="#e748c5"] ;
595 -> 597 ;
598 [label="X[4] <= 1023.5\ngini = 0.091\nsamples = 42\nvalue = [0, 0, 0, 2, 40]", fillcolor="#e643c3"] ;
597 -> 598 ;
599 [label="gini = 0.0\nsamples = 34\nvalue = [0, 0, 0, 0, 34]", fillcolor="#e539c0"] ;
598 -> 599 ;
600 [label="X[8] <= 25.0\ngini = 0.375\nsamples = 8\nvalue = [0, 0, 0, 2, 6]", fillcolor="#ee7bd5"] ;
598 -> 600 ;
601 [label="X[1] <= 3055.0\ngini = 0.245\nsamples = 7\nvalue = [0, 0, 0, 1, 6]", fillcolor="#e95acb"] ;
600 -> 601 ;
602 [label="gini = 0.0\nsamples = 5\nvalue = [0, 0, 0, 0, 5]", fillcolor="#e539c0"] ;
601 -> 602 ;
603 [label="X[3] <= 11.0\ngini = 0.5\nsamples = 2\nvalue = [0, 0, 0, 1, 1]", fillcolor="#ffffff"] ;
601 -> 603 ;
604 [label="gini = 0.0\nsamples = 1\nvalue = [0, 0, 0, 0, 1]", fillcolor="#e539c0"] ;
603 -> 604 ;
605 [label="gini = 0.0\nsamples = 1\nvalue = [0, 0, 0, 1, 0]", fillcolor="#3c39e5"] ;
603 -> 605 ;
606 [label="gini = 0.0\nsamples = 1\nvalue = [0, 0, 0, 1, 0]", fillcolor="#3c39e5"] ;
600 -> 606 ;
607 [label="gini = 0.0\nsamples = 1\nvalue = [0, 0, 0, 1, 0]", fillcolor="#3c39e5"] ;
597 -> 607 ;
608 [label="X[9] <= 18.5\ngini = 0.014\nsamples = 144\nvalue = [0, 0, 0, 1, 143]", fillcolor="#e53ac0"] ;
594 -> 608 ;
609 [label="gini = 0.0\nsamples = 115\nvalue = [0, 0, 0, 0, 115]", fillcolor="#e539c0"] ;
608 -> 609 ;
610 [label="X[7] <= 10.5\ngini = 0.067\nsamples = 29\nvalue = [0, 0, 0, 1, 28]", fillcolor="#e640c2"] ;
608 -> 610 ;
611 [label="gini = 0.0\nsamples = 19\nvalue = [0, 0, 0, 0, 19]", fillcolor="#e539c0"] ;
610 -> 611 ;
612 [label="X[8] <= 18.5\ngini = 0.18\nsamples = 10\nvalue = [0, 0, 0, 1, 9]", fillcolor="#e84fc7"] ;
610 -> 612 ;
613 [label="gini = 0.0\nsamples = 6\nvalue = [0, 0, 0, 0, 6]", fillcolor="#e539c0"] ;
612 -> 613 ;
614 [label="X[8] <= 20.5\ngini = 0.375\nsamples = 4\nvalue = [0, 0, 0, 1, 3]", fillcolor="#ee7bd5"] ;
612 -> 614 ;
615 [label="gini = 0.0\nsamples = 1\nvalue = [0, 0, 0, 1, 0]", fillcolor="#3c39e5"] ;
614 -> 615 ;
616 [label="gini = 0.0\nsamples = 3\nvalue = [0, 0, 0, 0, 3]", fillcolor="#e539c0"] ;
614 -> 616 ;
}