digraph Tree {
node [shape=box, style="filled", color="black"] ;
0 [label="X[0] <= 25.0\ngini = 0.743\nsamples = 3750\nvalue = [1507, 549, 434, 811, 449]", fillcolor="#f9e1d0"] ;
1 [label="X[6] <= 6.5\ngini = 0.574\nsamples = 2428\nvalue = [1464, 159, 297, 507, 1]", fillcolor="#f2c09c"] ;
0 -> 1 [labeldistance=2.5, labelangle=45, headlabel="True"] ;
2 [label="X[9] <= 0.5\ngini = 0.683\nsamples = 1204\nvalue = [355, 71, 273, 504, 1]", fillcolor="#dddcfa"] ;
1 -> 2 ;
3 [label="X[6] <= 1.5\ngini = 0.421\nsamples = 432\nvalue = [320, 68, 20, 24, 0]", fillcolor="#eda876"] ;
2 -> 3 ;
4 [label="X[7] <= 22.5\ngini = 0.688\nsamples = 174\nvalue = [62, 68, 20, 24, 0]", fillcolor="#f8fef4"] ;
3 -> 4 ;
5 [label="X[3] <= 1029.5\ngini = 0.495\nsamples = 74\nvalue = [11, 50, 12, 1, 0]", fillcolor="#aeef86"] ;
4 -> 5 ;
6 [label="X[19] <= 1.5\ngini = 0.296\nsamples = 61\nvalue = [11, 50, 0, 0, 0]", fillcolor="#98eb65"] ;
5 -> 6 ;
7 [label="X[8] <= 17.5\ngini = 0.298\nsamples = 11\nvalue = [9, 2, 0, 0, 0]", fillcolor="#eb9d65"] ;
6 -> 7 ;
8 [label="gini = 0.0\nsamples = 9\nvalue = [9, 0, 0, 0, 0]", fillcolor="#e58139"] ;
7 -> 8 ;
9 [label="gini = 0.0\nsamples = 2\nvalue = [0, 2, 0, 0, 0]", fillcolor="#7be539"] ;
7 -> 9 ;
10 [label="X[8] <= 20.5\ngini = 0.077\nsamples = 50\nvalue = [2, 48, 0, 0, 0]", fillcolor="#80e641"] ;
6 -> 10 ;
11 [label="gini = 0.0\nsamples = 40\nvalue = [0, 40, 0, 0, 0]", fillcolor="#7be539"] ;
10 -> 11 ;
12 [label="X[7] <= 21.5\ngini = 0.32\nsamples = 10\nvalue = [2, 8, 0, 0, 0]", fillcolor="#9cec6a"] ;
10 -> 12 ;
13 [label="gini = 0.0\nsamples = 8\nvalue = [0, 8, 0, 0, 0]", fillcolor="#7be539"] ;
12 -> 13 ;
14 [label="gini = 0.0\nsamples = 2\nvalue = [2, 0, 0, 0, 0]", fillcolor="#e58139"] ;
12 -> 14 ;
15 [label="X[8] <= 1.5\ngini = 0.142\nsamples = 13\nvalue = [0, 0, 12, 1, 0]", fillcolor="#49e7ca"] ;
5 -> 15 ;
16 [label="gini = 0.0\nsamples = 1\nvalue = [0, 0, 0, 1, 0]", fillcolor="#3c39e5"] ;
15 -> 16 ;
17 [label="gini = 0.0\nsamples = 12\nvalue = [0, 0, 12, 0, 0]", fillcolor="#39e5c5"] ;
15 -> 17 ;
18 [label="X[7] <= 27.5\ngini = 0.648\nsamples = 100\nvalue = [51, 18, 8, 23, 0]", fillcolor="#f6d1b7"] ;
4 -> 18 ;
19 [label="X[8] <= 22.5\ngini = 0.073\nsamples = 53\nvalue = [51, 0, 0, 2, 0]", fillcolor="#e68641"] ;
18 -> 19 ;
20 [label="X[8] <= 18.0\ngini = 0.038\nsamples = 51\nvalue = [50, 0, 0, 1, 0]", fillcolor="#e6843d"] ;
19 -> 20 ;
21 [label="gini = 0.0\nsamples = 42\nvalue = [42, 0, 0, 0, 0]", fillcolor="#e58139"] ;
20 -> 21 ;
22 [label="X[7] <= 26.5\ngini = 0.198\nsamples = 9\nvalue = [8, 0, 0, 1, 0]", fillcolor="#e89152"] ;
20 -> 22 ;
23 [label="gini = 0.0\nsamples = 8\nvalue = [8, 0, 0, 0, 0]", fillcolor="#e58139"] ;
22 -> 23 ;
24 [label="gini = 0.0\nsamples = 1\nvalue = [0, 0, 0, 1, 0]", fillcolor="#3c39e5"] ;
22 -> 24 ;
25 [label="X[3] <= 1022.5\ngini = 0.5\nsamples = 2\nvalue = [1, 0, 0, 1, 0]", fillcolor="#ffffff"] ;
19 -> 25 ;
26 [label="gini = 0.0\nsamples = 1\nvalue = [1, 0, 0, 0, 0]", fillcolor="#e58139"] ;
25 -> 26 ;
27 [label="gini = 0.0\nsamples = 1\nvalue = [0, 0, 0, 1, 0]", fillcolor="#3c39e5"] ;
25 -> 27 ;
28 [label="X[3] <= 1018.5\ngini = 0.625\nsamples = 47\nvalue = [0, 18, 8, 21, 0]", fillcolor="#ebebfc"] ;
18 -> 28 ;
29 [label="X[19] <= 6.5\ngini = 0.426\nsamples = 26\nvalue = [0, 18, 8, 0, 0]", fillcolor="#b6f191"] ;
28 -> 29 ;
30 [label="X[8] <= 11.5\ngini = 0.49\nsamples = 14\nvalue = [0, 6, 8, 0, 0]", fillcolor="#cef8f0"] ;
29 -> 30 ;
31 [label="gini = 0.0\nsamples = 6\nvalue = [0, 0, 6, 0, 0]", fillcolor="#39e5c5"] ;
30 -> 31 ;
32 [label="X[7] <= 29.5\ngini = 0.375\nsamples = 8\nvalue = [0, 6, 2, 0, 0]", fillcolor="#a7ee7b"] ;
30 -> 32 ;
33 [label="gini = 0.0\nsamples = 2\nvalue = [0, 0, 2, 0, 0]", fillcolor="#39e5c5"] ;
32 -> 33 ;
34 [label="gini = 0.0\nsamples = 6\nvalue = [0, 6, 0, 0, 0]", fillcolor="#7be539"] ;
32 -> 34 ;
35 [label="gini = 0.0\nsamples = 12\nvalue = [0, 12, 0, 0, 0]", fillcolor="#7be539"] ;
29 -> 35 ;
36 [label="gini = 0.0\nsamples = 21\nvalue = [0, 0, 0, 21, 0]", fillcolor="#3c39e5"] ;
28 -> 36 ;
37 [label="gini = 0.0\nsamples = 258\nvalue = [258, 0, 0, 0, 0]", fillcolor="#e58139"] ;
3 -> 37 ;
38 [label="X[6] <= 3.5\ngini = 0.504\nsamples = 772\nvalue = [35, 3, 253, 480, 1]", fillcolor="#aaa8f4"] ;
2 -> 38 ;
39 [label="gini = 0.0\nsamples = 91\nvalue = [0, 0, 91, 0, 0]", fillcolor="#39e5c5"] ;
38 -> 39 ;
40 [label="X[6] <= 5.5\ngini = 0.444\nsamples = 681\nvalue = [35, 3, 162, 480, 1]", fillcolor="#8886ef"] ;
38 -> 40 ;
41 [label="X[7] <= 4.5\ngini = 0.206\nsamples = 396\nvalue = [1, 0, 44, 350, 1]", fillcolor="#5553e8"] ;
40 -> 41 ;
42 [label="X[6] <= 4.5\ngini = 0.511\nsamples = 90\nvalue = [1, 0, 44, 45, 0]", fillcolor="#fbfbfe"] ;
41 -> 42 ;
43 [label="X[2] <= 19.5\ngini = 0.215\nsamples = 50\nvalue = [1, 0, 44, 5, 0]", fillcolor="#53e8cd"] ;
42 -> 43 ;
44 [label="X[8] <= 20.0\ngini = 0.126\nsamples = 45\nvalue = [1, 0, 42, 2, 0]", fillcolor="#47e7c9"] ;
43 -> 44 ;
45 [label="gini = 0.0\nsamples = 37\nvalue = [0, 0, 37, 0, 0]", fillcolor="#39e5c5"] ;
44 -> 45 ;
46 [label="X[19] <= 6.5\ngini = 0.531\nsamples = 8\nvalue = [1, 0, 5, 2, 0]", fillcolor="#9cf2e2"] ;
44 -> 46 ;
47 [label="X[7] <= 1.5\ngini = 0.278\nsamples = 6\nvalue = [1, 0, 5, 0, 0]", fillcolor="#61ead1"] ;
46 -> 47 ;
48 [label="X[2] <= 13.5\ngini = 0.5\nsamples = 2\nvalue = [1, 0, 1, 0, 0]", fillcolor="#ffffff"] ;
47 -> 48 ;
49 [label="gini = 0.0\nsamples = 1\nvalue = [1, 0, 0, 0, 0]", fillcolor="#e58139"] ;
48 -> 49 ;
50 [label="gini = 0.0\nsamples = 1\nvalue = [0, 0, 1, 0, 0]", fillcolor="#39e5c5"] ;
48 -> 50 ;
51 [label="gini = 0.0\nsamples = 4\nvalue = [0, 0, 4, 0, 0]", fillcolor="#39e5c5"] ;
47 -> 51 ;
52 [label="gini = 0.0\nsamples = 2\nvalue = [0, 0, 0, 2, 0]", fillcolor="#3c39e5"] ;
46 -> 52 ;
53 [label="X[3] <= 1013.5\ngini = 0.48\nsamples = 5\nvalue = [0, 0, 2, 3, 0]", fillcolor="#bebdf6"] ;
43 -> 53 ;
54 [label="gini = 0.0\nsamples = 2\nvalue = [0, 0, 2, 0, 0]", fillcolor="#39e5c5"] ;
53 -> 54 ;
55 [label="gini = 0.0\nsamples = 3\nvalue = [0, 0, 0, 3, 0]", fillcolor="#3c39e5"] ;
53 -> 55 ;
56 [label="gini = 0.0\nsamples = 40\nvalue = [0, 0, 0, 40, 0]", fillcolor="#3c39e5"] ;
42 -> 56 ;
57 [label="X[7] <= 29.5\ngini = 0.007\nsamples = 306\nvalue = [0, 0, 0, 305, 1]", fillcolor="#3d3ae5"] ;
41 -> 57 ;
58 [label="gini = 0.0\nsamples = 300\nvalue = [0, 0, 0, 300, 0]", fillcolor="#3c39e5"] ;
57 -> 58 ;
59 [label="X[2] <= 11.5\ngini = 0.278\nsamples = 6\nvalue = [0, 0, 0, 5, 1]", fillcolor="#6361ea"] ;
57 -> 59 ;
60 [label="gini = 0.0\nsamples = 5\nvalue = [0, 0, 0, 5, 0]", fillcolor="#3c39e5"] ;
59 -> 60 ;
61 [label="gini = 0.0\nsamples = 1\nvalue = [0, 0, 0, 0, 1]", fillcolor="#e539c0"] ;
59 -> 61 ;
62 [label="X[7] <= 15.5\ngini = 0.606\nsamples = 285\nvalue = [34, 3, 118, 130, 0]", fillcolor="#f1f1fd"] ;
40 -> 62 ;
63 [label="X[5] <= 1.5\ngini = 0.044\nsamples = 133\nvalue = [0, 1, 2, 130, 0]", fillcolor="#403ee6"] ;
62 -> 63 ;
64 [label="X[2] <= 10.5\ngini = 0.03\nsamples = 132\nvalue = [0, 1, 1, 130, 0]", fillcolor="#3f3ce5"] ;
63 -> 64 ;
65 [label="X[3] <= 1020.5\ngini = 0.245\nsamples = 7\nvalue = [0, 1, 0, 6, 0]", fillcolor="#5d5ae9"] ;
64 -> 65 ;
66 [label="gini = 0.0\nsamples = 4\nvalue = [0, 0, 0, 4, 0]", fillcolor="#3c39e5"] ;
65 -> 66 ;
67 [label="X[3] <= 1022.5\ngini = 0.444\nsamples = 3\nvalue = [0, 1, 0, 2, 0]", fillcolor="#9e9cf2"] ;
65 -> 67 ;
68 [label="gini = 0.0\nsamples = 1\nvalue = [0, 1, 0, 0, 0]", fillcolor="#7be539"] ;
67 -> 68 ;
69 [label="gini = 0.0\nsamples = 2\nvalue = [0, 0, 0, 2, 0]", fillcolor="#3c39e5"] ;
67 -> 69 ;
70 [label="X[3] <= 1013.5\ngini = 0.016\nsamples = 125\nvalue = [0, 0, 1, 124, 0]", fillcolor="#3e3be5"] ;
64 -> 70 ;
71 [label="X[8] <= 19.5\ngini = 0.219\nsamples = 8\nvalue = [0, 0, 1, 7, 0]", fillcolor="#5855e9"] ;
70 -> 71 ;
72 [label="gini = 0.0\nsamples = 7\nvalue = [0, 0, 0, 7, 0]", fillcolor="#3c39e5"] ;
71 -> 72 ;
73 [label="gini = 0.0\nsamples = 1\nvalue = [0, 0, 1, 0, 0]", fillcolor="#39e5c5"] ;
71 -> 73 ;
74 [label="gini = 0.0\nsamples = 117\nvalue = [0, 0, 0, 117, 0]", fillcolor="#3c39e5"] ;
70 -> 74 ;
75 [label="gini = 0.0\nsamples = 1\nvalue = [0, 0, 1, 0, 0]", fillcolor="#39e5c5"] ;
63 -> 75 ;
76 [label="X[7] <= 25.5\ngini = 0.367\nsamples = 152\nvalue = [34, 2, 116, 0, 0]", fillcolor="#75edd7"] ;
62 -> 76 ;
77 [label="X[7] <= 24.5\ngini = 0.02\nsamples = 97\nvalue = [0, 1, 96, 0, 0]", fillcolor="#3be5c6"] ;
76 -> 77 ;
78 [label="gini = 0.0\nsamples = 89\nvalue = [0, 0, 89, 0, 0]", fillcolor="#39e5c5"] ;
77 -> 78 ;
79 [label="X[8] <= 21.5\ngini = 0.219\nsamples = 8\nvalue = [0, 1, 7, 0, 0]", fillcolor="#55e9cd"] ;
77 -> 79 ;
80 [label="gini = 0.0\nsamples = 7\nvalue = [0, 0, 7, 0, 0]", fillcolor="#39e5c5"] ;
79 -> 80 ;
81 [label="gini = 0.0\nsamples = 1\nvalue = [0, 1, 0, 0, 0]", fillcolor="#7be539"] ;
79 -> 81 ;
82 [label="X[7] <= 28.5\ngini = 0.485\nsamples = 55\nvalue = [34, 1, 20, 0, 0]", fillcolor="#f5cdb0"] ;
76 -> 82 ;
83 [label="X[3] <= 1021.5\ngini = 0.152\nsamples = 37\nvalue = [34, 1, 2, 0, 0]", fillcolor="#e78c4a"] ;
82 -> 83 ;
84 [label="X[8] <= 0.5\ngini = 0.057\nsamples = 34\nvalue = [33, 1, 0, 0, 0]", fillcolor="#e6853f"] ;
83 -> 84 ;
85 [label="X[3] <= 1018.0\ngini = 0.5\nsamples = 2\nvalue = [1, 1, 0, 0, 0]", fillcolor="#ffffff"] ;
84 -> 85 ;
86 [label="gini = 0.0\nsamples = 1\nvalue = [0, 1, 0, 0, 0]", fillcolor="#7be539"] ;
85 -> 86 ;
87 [label="gini = 0.0\nsamples = 1\nvalue = [1, 0, 0, 0, 0]", fillcolor="#e58139"] ;
85 -> 87 ;
88 [label="gini = 0.0\nsamples = 32\nvalue = [32, 0, 0, 0, 0]", fillcolor="#e58139"] ;
84 -> 88 ;
89 [label="X[4] <= 1.5\ngini = 0.444\nsamples = 3\nvalue = [1, 0, 2, 0, 0]", fillcolor="#9cf2e2"] ;
83 -> 89 ;
90 [label="gini = 0.0\nsamples = 2\nvalue = [0, 0, 2, 0, 0]", fillcolor="#39e5c5"] ;
89 -> 90 ;
91 [label="gini = 0.0\nsamples = 1\nvalue = [1, 0, 0, 0, 0]", fillcolor="#e58139"] ;
89 -> 91 ;
92 [label="gini = 0.0\nsamples = 18\nvalue = [0, 0, 18, 0, 0]", fillcolor="#39e5c5"] ;
82 -> 92 ;
93 [label="X[7] <= 11.5\ngini = 0.174\nsamples = 1224\nvalue = [1109, 88, 24, 3, 0]", fillcolor="#e88e4d"] ;
1 -> 93 ;
94 [label="X[6] <= 11.5\ngini = 0.355\nsamples = 407\nvalue = [320, 62, 23, 2, 0]", fillcolor="#eca16b"] ;
93 -> 94 ;
95 [label="X[7] <= 2.5\ngini = 0.195\nsamples = 302\nvalue = [270, 18, 14, 0, 0]", fillcolor="#e88f4f"] ;
94 -> 95 ;
96 [label="X[6] <= 8.5\ngini = 0.423\nsamples = 46\nvalue = [32, 0, 14, 0, 0]", fillcolor="#f0b890"] ;
95 -> 96 ;
97 [label="X[8] <= 18.0\ngini = 0.124\nsamples = 15\nvalue = [1, 0, 14, 0, 0]", fillcolor="#47e7c9"] ;
96 -> 97 ;
98 [label="gini = 0.0\nsamples = 13\nvalue = [0, 0, 13, 0, 0]", fillcolor="#39e5c5"] ;
97 -> 98 ;
99 [label="X[7] <= 1.5\ngini = 0.5\nsamples = 2\nvalue = [1, 0, 1, 0, 0]", fillcolor="#ffffff"] ;
97 -> 99 ;
100 [label="gini = 0.0\nsamples = 1\nvalue = [0, 0, 1, 0, 0]", fillcolor="#39e5c5"] ;
99 -> 100 ;
101 [label="gini = 0.0\nsamples = 1\nvalue = [1, 0, 0, 0, 0]", fillcolor="#e58139"] ;
99 -> 101 ;
102 [label="gini = 0.0\nsamples = 31\nvalue = [31, 0, 0, 0, 0]", fillcolor="#e58139"] ;
96 -> 102 ;
103 [label="X[6] <= 10.5\ngini = 0.131\nsamples = 256\nvalue = [238, 18, 0, 0, 0]", fillcolor="#e78b48"] ;
95 -> 103 ;
104 [label="X[0] <= 12.0\ngini = 0.021\nsamples = 187\nvalue = [185, 2, 0, 0, 0]", fillcolor="#e5823b"] ;
103 -> 104 ;
105 [label="X[8] <= 21.5\ngini = 0.011\nsamples = 186\nvalue = [185, 1, 0, 0, 0]", fillcolor="#e5823a"] ;
104 -> 105 ;
106 [label="gini = 0.0\nsamples = 164\nvalue = [164, 0, 0, 0, 0]", fillcolor="#e58139"] ;
105 -> 106 ;
107 [label="X[2] <= 20.5\ngini = 0.087\nsamples = 22\nvalue = [21, 1, 0, 0, 0]", fillcolor="#e68742"] ;
105 -> 107 ;
108 [label="gini = 0.0\nsamples = 21\nvalue = [21, 0, 0, 0, 0]", fillcolor="#e58139"] ;
107 -> 108 ;
109 [label="gini = 0.0\nsamples = 1\nvalue = [0, 1, 0, 0, 0]", fillcolor="#7be539"] ;
107 -> 109 ;
110 [label="gini = 0.0\nsamples = 1\nvalue = [0, 1, 0, 0, 0]", fillcolor="#7be539"] ;
104 -> 110 ;
111 [label="X[7] <= 9.5\ngini = 0.356\nsamples = 69\nvalue = [53, 16, 0, 0, 0]", fillcolor="#eda775"] ;
103 -> 111 ;
112 [label="X[2] <= 14.5\ngini = 0.041\nsamples = 48\nvalue = [47, 1, 0, 0, 0]", fillcolor="#e6843d"] ;
111 -> 112 ;
113 [label="gini = 0.0\nsamples = 46\nvalue = [46, 0, 0, 0, 0]", fillcolor="#e58139"] ;
112 -> 113 ;
114 [label="X[1] <= 1.5\ngini = 0.5\nsamples = 2\nvalue = [1, 1, 0, 0, 0]", fillcolor="#ffffff"] ;
112 -> 114 ;
115 [label="gini = 0.0\nsamples = 1\nvalue = [1, 0, 0, 0, 0]", fillcolor="#e58139"] ;
114 -> 115 ;
116 [label="gini = 0.0\nsamples = 1\nvalue = [0, 1, 0, 0, 0]", fillcolor="#7be539"] ;
114 -> 116 ;
117 [label="X[7] <= 10.5\ngini = 0.408\nsamples = 21\nvalue = [6, 15, 0, 0, 0]", fillcolor="#b0ef88"] ;
111 -> 117 ;
118 [label="gini = 0.0\nsamples = 12\nvalue = [0, 12, 0, 0, 0]", fillcolor="#7be539"] ;
117 -> 118 ;
119 [label="X[8] <= 7.5\ngini = 0.444\nsamples = 9\nvalue = [6, 3, 0, 0, 0]", fillcolor="#f2c09c"] ;
117 -> 119 ;
120 [label="X[2] <= 12.5\ngini = 0.375\nsamples = 4\nvalue = [1, 3, 0, 0, 0]", fillcolor="#a7ee7b"] ;
119 -> 120 ;
121 [label="X[3] <= 1018.5\ngini = 0.5\nsamples = 2\nvalue = [1, 1, 0, 0, 0]", fillcolor="#ffffff"] ;
120 -> 121 ;
122 [label="gini = 0.0\nsamples = 1\nvalue = [0, 1, 0, 0, 0]", fillcolor="#7be539"] ;
121 -> 122 ;
123 [label="gini = 0.0\nsamples = 1\nvalue = [1, 0, 0, 0, 0]", fillcolor="#e58139"] ;
121 -> 123 ;
124 [label="gini = 0.0\nsamples = 2\nvalue = [0, 2, 0, 0, 0]", fillcolor="#7be539"] ;
120 -> 124 ;
125 [label="gini = 0.0\nsamples = 5\nvalue = [5, 0, 0, 0, 0]", fillcolor="#e58139"] ;
119 -> 125 ;
126 [label="X[2] <= 10.5\ngini = 0.59\nsamples = 105\nvalue = [50, 44, 9, 2, 0]", fillcolor="#fcf3ec"] ;
94 -> 126 ;
127 [label="X[19] <= 5.5\ngini = 0.554\nsamples = 81\nvalue = [49, 21, 9, 2, 0]", fillcolor="#f3c4a3"] ;
126 -> 127 ;
128 [label="X[7] <= 6.5\ngini = 0.464\nsamples = 58\nvalue = [41, 6, 9, 2, 0]", fillcolor="#eead7e"] ;
127 -> 128 ;
129 [label="X[8] <= 19.5\ngini = 0.145\nsamples = 38\nvalue = [35, 3, 0, 0, 0]", fillcolor="#e78c4a"] ;
128 -> 129 ;
130 [label="gini = 0.0\nsamples = 31\nvalue = [31, 0, 0, 0, 0]", fillcolor="#e58139"] ;
129 -> 130 ;
131 [label="X[8] <= 21.5\ngini = 0.49\nsamples = 7\nvalue = [4, 3, 0, 0, 0]", fillcolor="#f8e0ce"] ;
129 -> 131 ;
132 [label="gini = 0.0\nsamples = 2\nvalue = [0, 2, 0, 0, 0]", fillcolor="#7be539"] ;
131 -> 132 ;
133 [label="X[19] <= 4.5\ngini = 0.32\nsamples = 5\nvalue = [4, 1, 0, 0, 0]", fillcolor="#eca06a"] ;
131 -> 133 ;
134 [label="gini = 0.0\nsamples = 3\nvalue = [3, 0, 0, 0, 0]", fillcolor="#e58139"] ;
133 -> 134 ;
135 [label="X[8] <= 22.5\ngini = 0.5\nsamples = 2\nvalue = [1, 1, 0, 0, 0]", fillcolor="#ffffff"] ;
133 -> 135 ;
136 [label="gini = 0.0\nsamples = 1\nvalue = [1, 0, 0, 0, 0]", fillcolor="#e58139"] ;
135 -> 136 ;
137 [label="gini = 0.0\nsamples = 1\nvalue = [0, 1, 0, 0, 0]", fillcolor="#7be539"] ;
135 -> 137 ;
138 [label="X[7] <= 8.5\ngini = 0.675\nsamples = 20\nvalue = [6, 3, 9, 2, 0]", fillcolor="#d5f9f3"] ;
128 -> 138 ;
139 [label="X[8] <= 13.5\ngini = 0.473\nsamples = 13\nvalue = [0, 2, 9, 2, 0]", fillcolor="#81eeda"] ;
138 -> 139 ;
140 [label="gini = 0.0\nsamples = 8\nvalue = [0, 0, 8, 0, 0]", fillcolor="#39e5c5"] ;
139 -> 140 ;
141 [label="X[19] <= 2.5\ngini = 0.64\nsamples = 5\nvalue = [0, 2, 1, 2, 0]", fillcolor="#ffffff"] ;
139 -> 141 ;
142 [label="X[8] <= 22.5\ngini = 0.444\nsamples = 3\nvalue = [0, 2, 1, 0, 0]", fillcolor="#bdf29c"] ;
141 -> 142 ;
143 [label="gini = 0.0\nsamples = 2\nvalue = [0, 2, 0, 0, 0]", fillcolor="#7be539"] ;
142 -> 143 ;
144 [label="gini = 0.0\nsamples = 1\nvalue = [0, 0, 1, 0, 0]", fillcolor="#39e5c5"] ;
142 -> 144 ;
145 [label="gini = 0.0\nsamples = 2\nvalue = [0, 0, 0, 2, 0]", fillcolor="#3c39e5"] ;
141 -> 145 ;
146 [label="X[8] <= 1.5\ngini = 0.245\nsamples = 7\nvalue = [6, 1, 0, 0, 0]", fillcolor="#e9965a"] ;
138 -> 146 ;
147 [label="gini = 0.0\nsamples = 1\nvalue = [0, 1, 0, 0, 0]", fillcolor="#7be539"] ;
146 -> 147 ;
148 [label="gini = 0.0\nsamples = 6\nvalue = [6, 0, 0, 0, 0]", fillcolor="#e58139"] ;
146 -> 148 ;
149 [label="X[4] <= 0.5\ngini = 0.454\nsamples = 23\nvalue = [8, 15, 0, 0, 0]", fillcolor="#c1f3a3"] ;
127 -> 149 ;
150 [label="X[8] <= 1.5\ngini = 0.42\nsamples = 10\nvalue = [7, 3, 0, 0, 0]", fillcolor="#f0b78e"] ;
149 -> 150 ;
151 [label="gini = 0.0\nsamples = 2\nvalue = [0, 2, 0, 0, 0]", fillcolor="#7be539"] ;
150 -> 151 ;
152 [label="X[2] <= 8.5\ngini = 0.219\nsamples = 8\nvalue = [7, 1, 0, 0, 0]", fillcolor="#e99355"] ;
150 -> 152 ;
153 [label="gini = 0.0\nsamples = 1\nvalue = [0, 1, 0, 0, 0]", fillcolor="#7be539"] ;
152 -> 153 ;
154 [label="gini = 0.0\nsamples = 7\nvalue = [7, 0, 0, 0, 0]", fillcolor="#e58139"] ;
152 -> 154 ;
155 [label="X[3] <= 1027.5\ngini = 0.142\nsamples = 13\nvalue = [1, 12, 0, 0, 0]", fillcolor="#86e749"] ;
149 -> 155 ;
156 [label="gini = 0.0\nsamples = 12\nvalue = [0, 12, 0, 0, 0]", fillcolor="#7be539"] ;
155 -> 156 ;
157 [label="gini = 0.0\nsamples = 1\nvalue = [1, 0, 0, 0, 0]", fillcolor="#e58139"] ;
155 -> 157 ;
158 [label="X[7] <= 10.5\ngini = 0.08\nsamples = 24\nvalue = [1, 23, 0, 0, 0]", fillcolor="#81e642"] ;
126 -> 158 ;
159 [label="gini = 0.0\nsamples = 23\nvalue = [0, 23, 0, 0, 0]", fillcolor="#7be539"] ;
158 -> 159 ;
160 [label="gini = 0.0\nsamples = 1\nvalue = [1, 0, 0, 0, 0]", fillcolor="#e58139"] ;
158 -> 160 ;
161 [label="X[2] <= 9.5\ngini = 0.066\nsamples = 817\nvalue = [789, 26, 1, 1, 0]", fillcolor="#e68540"] ;
93 -> 161 ;
162 [label="X[7] <= 25.5\ngini = 0.248\nsamples = 91\nvalue = [78, 12, 1, 0, 0]", fillcolor="#e9965a"] ;
161 -> 162 ;
163 [label="gini = 0.0\nsamples = 61\nvalue = [61, 0, 0, 0, 0]", fillcolor="#e58139"] ;
162 -> 163 ;
164 [label="X[3] <= 1015.5\ngini = 0.518\nsamples = 30\nvalue = [17, 12, 1, 0, 0]", fillcolor="#f8dcc8"] ;
162 -> 164 ;
165 [label="gini = 0.0\nsamples = 5\nvalue = [0, 5, 0, 0, 0]", fillcolor="#7be539"] ;
164 -> 165 ;
166 [label="X[19] <= 3.0\ngini = 0.458\nsamples = 25\nvalue = [17, 7, 1, 0, 0]", fillcolor="#f1b991"] ;
164 -> 166 ;
167 [label="X[2] <= 8.5\ngini = 0.531\nsamples = 8\nvalue = [2, 5, 1, 0, 0]", fillcolor="#bdf29c"] ;
166 -> 167 ;
168 [label="X[8] <= 4.5\ngini = 0.278\nsamples = 6\nvalue = [1, 5, 0, 0, 0]", fillcolor="#95ea61"] ;
167 -> 168 ;
169 [label="gini = 0.0\nsamples = 3\nvalue = [0, 3, 0, 0, 0]", fillcolor="#7be539"] ;
168 -> 169 ;
170 [label="X[2] <= 7.5\ngini = 0.444\nsamples = 3\nvalue = [1, 2, 0, 0, 0]", fillcolor="#bdf29c"] ;
168 -> 170 ;
171 [label="gini = 0.0\nsamples = 1\nvalue = [1, 0, 0, 0, 0]", fillcolor="#e58139"] ;
170 -> 171 ;
172 [label="gini = 0.0\nsamples = 2\nvalue = [0, 2, 0, 0, 0]", fillcolor="#7be539"] ;
170 -> 172 ;
173 [label="X[4] <= 0.5\ngini = 0.5\nsamples = 2\nvalue = [1, 0, 1, 0, 0]", fillcolor="#ffffff"] ;
167 -> 173 ;
174 [label="gini = 0.0\nsamples = 1\nvalue = [0, 0, 1, 0, 0]", fillcolor="#39e5c5"] ;
173 -> 174 ;
175 [label="gini = 0.0\nsamples = 1\nvalue = [1, 0, 0, 0, 0]", fillcolor="#e58139"] ;
173 -> 175 ;
176 [label="X[4] <= 2.5\ngini = 0.208\nsamples = 17\nvalue = [15, 2, 0, 0, 0]", fillcolor="#e89253"] ;
166 -> 176 ;
177 [label="gini = 0.0\nsamples = 15\nvalue = [15, 0, 0, 0, 0]", fillcolor="#e58139"] ;
176 -> 177 ;
178 [label="gini = 0.0\nsamples = 2\nvalue = [0, 2, 0, 0, 0]", fillcolor="#7be539"] ;
176 -> 178 ;
179 [label="X[4] <= 4.5\ngini = 0.041\nsamples = 726\nvalue = [711, 14, 0, 1, 0]", fillcolor="#e6843d"] ;
161 -> 179 ;
180 [label="X[7] <= 21.5\ngini = 0.036\nsamples = 720\nvalue = [707, 12, 0, 1, 0]", fillcolor="#e5833d"] ;
179 -> 180 ;
181 [label="gini = 0.0\nsamples = 404\nvalue = [404, 0, 0, 0, 0]", fillcolor="#e58139"] ;
180 -> 181 ;
182 [label="X[7] <= 23.5\ngini = 0.079\nsamples = 316\nvalue = [303, 12, 0, 1, 0]", fillcolor="#e68641"] ;
180 -> 182 ;
183 [label="X[6] <= 9.5\ngini = 0.219\nsamples = 80\nvalue = [70, 10, 0, 0, 0]", fillcolor="#e99355"] ;
182 -> 183 ;
184 [label="X[6] <= 8.0\ngini = 0.408\nsamples = 35\nvalue = [25, 10, 0, 0, 0]", fillcolor="#efb388"] ;
183 -> 184 ;
185 [label="gini = 0.0\nsamples = 20\nvalue = [20, 0, 0, 0, 0]", fillcolor="#e58139"] ;
184 -> 185 ;
186 [label="X[3] <= 1018.5\ngini = 0.444\nsamples = 15\nvalue = [5, 10, 0, 0, 0]", fillcolor="#bdf29c"] ;
184 -> 186 ;
187 [label="gini = 0.0\nsamples = 10\nvalue = [0, 10, 0, 0, 0]", fillcolor="#7be539"] ;
186 -> 187 ;
188 [label="gini = 0.0\nsamples = 5\nvalue = [5, 0, 0, 0, 0]", fillcolor="#e58139"] ;
186 -> 188 ;
189 [label="gini = 0.0\nsamples = 45\nvalue = [45, 0, 0, 0, 0]", fillcolor="#e58139"] ;
183 -> 189 ;
190 [label="X[4] <= 2.5\ngini = 0.025\nsamples = 236\nvalue = [233, 2, 0, 1, 0]", fillcolor="#e5833c"] ;
182 -> 190 ;
191 [label="X[2] <= 10.5\ngini = 0.018\nsamples = 227\nvalue = [225, 1, 0, 1, 0]", fillcolor="#e5823b"] ;
190 -> 191 ;
192 [label="X[8] <= 5.5\ngini = 0.198\nsamples = 9\nvalue = [8, 1, 0, 0, 0]", fillcolor="#e89152"] ;
191 -> 192 ;
193 [label="X[19] <= 4.0\ngini = 0.5\nsamples = 2\nvalue = [1, 1, 0, 0, 0]", fillcolor="#ffffff"] ;
192 -> 193 ;
194 [label="gini = 0.0\nsamples = 1\nvalue = [1, 0, 0, 0, 0]", fillcolor="#e58139"] ;
193 -> 194 ;
195 [label="gini = 0.0\nsamples = 1\nvalue = [0, 1, 0, 0, 0]", fillcolor="#7be539"] ;
193 -> 195 ;
196 [label="gini = 0.0\nsamples = 7\nvalue = [7, 0, 0, 0, 0]", fillcolor="#e58139"] ;
192 -> 196 ;
197 [label="X[7] <= 30.5\ngini = 0.009\nsamples = 218\nvalue = [217, 0, 0, 1, 0]", fillcolor="#e5823a"] ;
191 -> 197 ;
198 [label="gini = 0.0\nsamples = 208\nvalue = [208, 0, 0, 0, 0]", fillcolor="#e58139"] ;
197 -> 198 ;
199 [label="X[8] <= 1.5\ngini = 0.18\nsamples = 10\nvalue = [9, 0, 0, 1, 0]", fillcolor="#e88f4f"] ;
197 -> 199 ;
200 [label="gini = 0.0\nsamples = 1\nvalue = [0, 0, 0, 1, 0]", fillcolor="#3c39e5"] ;
199 -> 200 ;
201 [label="gini = 0.0\nsamples = 9\nvalue = [9, 0, 0, 0, 0]", fillcolor="#e58139"] ;
199 -> 201 ;
202 [label="X[2] <= 14.0\ngini = 0.198\nsamples = 9\nvalue = [8, 1, 0, 0, 0]", fillcolor="#e89152"] ;
190 -> 202 ;
203 [label="gini = 0.0\nsamples = 1\nvalue = [0, 1, 0, 0, 0]", fillcolor="#7be539"] ;
202 -> 203 ;
204 [label="gini = 0.0\nsamples = 8\nvalue = [8, 0, 0, 0, 0]", fillcolor="#e58139"] ;
202 -> 204 ;
205 [label="X[3] <= 1014.5\ngini = 0.444\nsamples = 6\nvalue = [4, 2, 0, 0, 0]", fillcolor="#f2c09c"] ;
179 -> 205 ;
206 [label="X[7] <= 28.5\ngini = 0.444\nsamples = 3\nvalue = [1, 2, 0, 0, 0]", fillcolor="#bdf29c"] ;
205 -> 206 ;
207 [label="gini = 0.0\nsamples = 2\nvalue = [0, 2, 0, 0, 0]", fillcolor="#7be539"] ;
206 -> 207 ;
208 [label="gini = 0.0\nsamples = 1\nvalue = [1, 0, 0, 0, 0]", fillcolor="#e58139"] ;
206 -> 208 ;
209 [label="gini = 0.0\nsamples = 3\nvalue = [3, 0, 0, 0, 0]", fillcolor="#e58139"] ;
205 -> 209 ;
210 [label="X[0] <= 1238.0\ngini = 0.733\nsamples = 1322\nvalue = [43, 390, 137, 304, 448]", fillcolor="#fdf3fb"] ;
0 -> 210 [labeldistance=2.5, labelangle=-45, headlabel="False"] ;
211 [label="X[6] <= 6.5\ngini = 0.71\nsamples = 865\nvalue = [41, 385, 121, 191, 127]", fillcolor="#d9f8c6"] ;
210 -> 211 ;
212 [label="X[9] <= 0.5\ngini = 0.691\nsamples = 376\nvalue = [0, 78, 27, 145, 126]", fillcolor="#f0f0fd"] ;
211 -> 212 ;
213 [label="X[6] <= 1.5\ngini = 0.477\nsamples = 105\nvalue = [0, 72, 22, 10, 1]", fillcolor="#afef88"] ;
212 -> 213 ;
214 [label="X[7] <= 22.5\ngini = 0.637\nsamples = 44\nvalue = [0, 14, 21, 8, 1]", fillcolor="#d1f9f1"] ;
213 -> 214 ;
215 [label="X[11] <= 0.5\ngini = 0.322\nsamples = 21\nvalue = [0, 0, 17, 3, 1]", fillcolor="#65ebd2"] ;
214 -> 215 ;
216 [label="gini = 0.0\nsamples = 15\nvalue = [0, 0, 15, 0, 0]", fillcolor="#39e5c5"] ;
215 -> 216 ;
217 [label="X[0] <= 1060.5\ngini = 0.611\nsamples = 6\nvalue = [0, 0, 2, 3, 1]", fillcolor="#cecef8"] ;
215 -> 217 ;
218 [label="X[5] <= 0.5\ngini = 0.48\nsamples = 5\nvalue = [0, 0, 2, 3, 0]", fillcolor="#bebdf6"] ;
217 -> 218 ;
219 [label="X[19] <= 5.5\ngini = 0.444\nsamples = 3\nvalue = [0, 0, 2, 1, 0]", fillcolor="#9cf2e2"] ;
218 -> 219 ;
220 [label="gini = 0.0\nsamples = 2\nvalue = [0, 0, 2, 0, 0]", fillcolor="#39e5c5"] ;
219 -> 220 ;
221 [label="gini = 0.0\nsamples = 1\nvalue = [0, 0, 0, 1, 0]", fillcolor="#3c39e5"] ;
219 -> 221 ;
222 [label="gini = 0.0\nsamples = 2\nvalue = [0, 0, 0, 2, 0]", fillcolor="#3c39e5"] ;
218 -> 222 ;
223 [label="gini = 0.0\nsamples = 1\nvalue = [0, 0, 0, 0, 1]", fillcolor="#e539c0"] ;
217 -> 223 ;
224 [label="X[7] <= 27.0\ngini = 0.552\nsamples = 23\nvalue = [0, 14, 4, 5, 0]", fillcolor="#bdf29c"] ;
214 -> 224 ;
225 [label="gini = 0.0\nsamples = 14\nvalue = [0, 14, 0, 0, 0]", fillcolor="#7be539"] ;
224 -> 225 ;
226 [label="X[7] <= 29.5\ngini = 0.494\nsamples = 9\nvalue = [0, 0, 4, 5, 0]", fillcolor="#d8d7fa"] ;
224 -> 226 ;
227 [label="gini = 0.0\nsamples = 4\nvalue = [0, 0, 0, 4, 0]", fillcolor="#3c39e5"] ;
226 -> 227 ;
228 [label="X[4] <= 2.5\ngini = 0.32\nsamples = 5\nvalue = [0, 0, 4, 1, 0]", fillcolor="#6aecd4"] ;
226 -> 228 ;
229 [label="gini = 0.0\nsamples = 4\nvalue = [0, 0, 4, 0, 0]", fillcolor="#39e5c5"] ;
228 -> 229 ;
230 [label="gini = 0.0\nsamples = 1\nvalue = [0, 0, 0, 1, 0]", fillcolor="#3c39e5"] ;
228 -> 230 ;
231 [label="X[0] <= 963.0\ngini = 0.095\nsamples = 61\nvalue = [0, 58, 1, 2, 0]", fillcolor="#82e643"] ;
213 -> 231 ;
232 [label="X[3] <= 1026.5\ngini = 0.065\nsamples = 60\nvalue = [0, 58, 1, 1, 0]", fillcolor="#7fe640"] ;
231 -> 232 ;
233 [label="X[19] <= 5.5\ngini = 0.034\nsamples = 57\nvalue = [0, 56, 1, 0, 0]", fillcolor="#7de53d"] ;
232 -> 233 ;
234 [label="gini = 0.0\nsamples = 52\nvalue = [0, 52, 0, 0, 0]", fillcolor="#7be539"] ;
233 -> 234 ;
235 [label="X[7] <= 6.5\ngini = 0.32\nsamples = 5\nvalue = [0, 4, 1, 0, 0]", fillcolor="#9cec6a"] ;
233 -> 235 ;
236 [label="gini = 0.0\nsamples = 1\nvalue = [0, 0, 1, 0, 0]", fillcolor="#39e5c5"] ;
235 -> 236 ;
237 [label="gini = 0.0\nsamples = 4\nvalue = [0, 4, 0, 0, 0]", fillcolor="#7be539"] ;
235 -> 237 ;
238 [label="X[7] <= 15.5\ngini = 0.444\nsamples = 3\nvalue = [0, 2, 0, 1, 0]", fillcolor="#bdf29c"] ;
232 -> 238 ;
239 [label="gini = 0.0\nsamples = 2\nvalue = [0, 2, 0, 0, 0]", fillcolor="#7be539"] ;
238 -> 239 ;
240 [label="gini = 0.0\nsamples = 1\nvalue = [0, 0, 0, 1, 0]", fillcolor="#3c39e5"] ;
238 -> 240 ;
241 [label="gini = 0.0\nsamples = 1\nvalue = [0, 0, 0, 1, 0]", fillcolor="#3c39e5"] ;
231 -> 241 ;
242 [label="X[7] <= 16.5\ngini = 0.538\nsamples = 271\nvalue = [0, 6, 5, 135, 125]", fillcolor="#f2f1fd"] ;
212 -> 242 ;
243 [label="X[7] <= 4.5\ngini = 0.39\nsamples = 157\nvalue = [0, 2, 4, 33, 118]", fillcolor="#ed77d4"] ;
242 -> 243 ;
244 [label="X[19] <= 3.5\ngini = 0.48\nsamples = 36\nvalue = [0, 1, 0, 23, 12]", fillcolor="#a6a4f3"] ;
243 -> 244 ;
245 [label="X[3] <= 1018.5\ngini = 0.526\nsamples = 17\nvalue = [0, 1, 0, 6, 10]", fillcolor="#f6b7e8"] ;
244 -> 245 ;
246 [label="gini = 0.0\nsamples = 8\nvalue = [0, 0, 0, 0, 8]", fillcolor="#e539c0"] ;
245 -> 246 ;
247 [label="X[0] <= 425.5\ngini = 0.494\nsamples = 9\nvalue = [0, 1, 0, 6, 2]", fillcolor="#908ef0"] ;
245 -> 247 ;
248 [label="gini = 0.0\nsamples = 6\nvalue = [0, 0, 0, 6, 0]", fillcolor="#3c39e5"] ;
247 -> 248 ;
249 [label="X[0] <= 582.5\ngini = 0.444\nsamples = 3\nvalue = [0, 1, 0, 0, 2]", fillcolor="#f29ce0"] ;
247 -> 249 ;
250 [label="gini = 0.0\nsamples = 1\nvalue = [0, 1, 0, 0, 0]", fillcolor="#7be539"] ;
249 -> 250 ;
251 [label="gini = 0.0\nsamples = 2\nvalue = [0, 0, 0, 0, 2]", fillcolor="#e539c0"] ;
249 -> 251 ;
252 [label="X[2] <= 19.5\ngini = 0.188\nsamples = 19\nvalue = [0, 0, 0, 17, 2]", fillcolor="#5350e8"] ;
244 -> 252 ;
253 [label="gini = 0.0\nsamples = 16\nvalue = [0, 0, 0, 16, 0]", fillcolor="#3c39e5"] ;
252 -> 253 ;
254 [label="X[8] <= 15.5\ngini = 0.444\nsamples = 3\nvalue = [0, 0, 0, 1, 2]", fillcolor="#f29ce0"] ;
252 -> 254 ;
255 [label="gini = 0.0\nsamples = 1\nvalue = [0, 0, 0, 1, 0]", fillcolor="#3c39e5"] ;
254 -> 255 ;
256 [label="gini = 0.0\nsamples = 2\nvalue = [0, 0, 0, 0, 2]", fillcolor="#e539c0"] ;
254 -> 256 ;
257 [label="X[6] <= 3.5\ngini = 0.225\nsamples = 121\nvalue = [0, 1, 4, 10, 106]", fillcolor="#e954c9"] ;
243 -> 257 ;
258 [label="X[2] <= 17.0\ngini = 0.571\nsamples = 7\nvalue = [0, 1, 4, 2, 0]", fillcolor="#b0f5e8"] ;
257 -> 258 ;
259 [label="X[0] <= 929.5\ngini = 0.32\nsamples = 5\nvalue = [0, 0, 4, 1, 0]", fillcolor="#6aecd4"] ;
258 -> 259 ;
260 [label="gini = 0.0\nsamples = 3\nvalue = [0, 0, 3, 0, 0]", fillcolor="#39e5c5"] ;
259 -> 260 ;
261 [label="X[4] <= 2.5\ngini = 0.5\nsamples = 2\nvalue = [0, 0, 1, 1, 0]", fillcolor="#ffffff"] ;
259 -> 261 ;
262 [label="gini = 0.0\nsamples = 1\nvalue = [0, 0, 0, 1, 0]", fillcolor="#3c39e5"] ;
261 -> 262 ;
263 [label="gini = 0.0\nsamples = 1\nvalue = [0, 0, 1, 0, 0]", fillcolor="#39e5c5"] ;
261 -> 263 ;
264 [label="X[4] <= 0.5\ngini = 0.5\nsamples = 2\nvalue = [0, 1, 0, 1, 0]", fillcolor="#ffffff"] ;
258 -> 264 ;
265 [label="gini = 0.0\nsamples = 1\nvalue = [0, 1, 0, 0, 0]", fillcolor="#7be539"] ;
264 -> 265 ;
266 [label="gini = 0.0\nsamples = 1\nvalue = [0, 0, 0, 1, 0]", fillcolor="#3c39e5"] ;
264 -> 266 ;
267 [label="X[6] <= 5.5\ngini = 0.131\nsamples = 114\nvalue = [0, 0, 0, 8, 106]", fillcolor="#e748c5"] ;
257 -> 267 ;
268 [label="gini = 0.0\nsamples = 73\nvalue = [0, 0, 0, 0, 73]", fillcolor="#e539c0"] ;
267 -> 268 ;
269 [label="X[7] <= 7.5\ngini = 0.314\nsamples = 41\nvalue = [0, 0, 0, 8, 33]", fillcolor="#eb69cf"] ;
267 -> 269 ;
270 [label="gini = 0.0\nsamples = 3\nvalue = [0, 0, 0, 3, 0]", fillcolor="#3c39e5"] ;
269 -> 270 ;
271 [label="X[7] <= 15.5\ngini = 0.229\nsamples = 38\nvalue = [0, 0, 0, 5, 33]", fillcolor="#e957ca"] ;
269 -> 271 ;
272 [label="X[2] <= 15.0\ngini = 0.108\nsamples = 35\nvalue = [0, 0, 0, 2, 33]", fillcolor="#e745c4"] ;
271 -> 272 ;
273 [label="gini = 0.0\nsamples = 1\nvalue = [0, 0, 0, 1, 0]", fillcolor="#3c39e5"] ;
272 -> 273 ;
274 [label="X[2] <= 18.5\ngini = 0.057\nsamples = 34\nvalue = [0, 0, 0, 1, 33]", fillcolor="#e63fc2"] ;
272 -> 274 ;
275 [label="X[19] <= 2.5\ngini = 0.444\nsamples = 3\nvalue = [0, 0, 0, 1, 2]", fillcolor="#f29ce0"] ;
274 -> 275 ;
276 [label="gini = 0.0\nsamples = 1\nvalue = [0, 0, 0, 1, 0]", fillcolor="#3c39e5"] ;
275 -> 276 ;
277 [label="gini = 0.0\nsamples = 2\nvalue = [0, 0, 0, 0, 2]", fillcolor="#e539c0"] ;
275 -> 277 ;
278 [label="gini = 0.0\nsamples = 31\nvalue = [0, 0, 0, 0, 31]", fillcolor="#e539c0"] ;
274 -> 278 ;
279 [label="gini = 0.0\nsamples = 3\nvalue = [0, 0, 0, 3, 0]", fillcolor="#3c39e5"] ;
271 -> 279 ;
280 [label="X[0] <= 974.5\ngini = 0.194\nsamples = 114\nvalue = [0, 4, 1, 102, 7]", fillcolor="#524fe8"] ;
242 -> 280 ;
281 [label="X[4] <= 6.5\ngini = 0.127\nsamples = 105\nvalue = [0, 4, 1, 98, 2]", fillcolor="#4a47e7"] ;
280 -> 281 ;
282 [label="X[19] <= 1.5\ngini = 0.11\nsamples = 104\nvalue = [0, 4, 1, 98, 1]", fillcolor="#4845e7"] ;
281 -> 282 ;
283 [label="X[2] <= 18.5\ngini = 0.507\nsamples = 15\nvalue = [0, 3, 1, 10, 1]", fillcolor="#8d8cf0"] ;
282 -> 283 ;
284 [label="X[3] <= 1013.5\ngini = 0.165\nsamples = 11\nvalue = [0, 0, 0, 10, 1]", fillcolor="#504de8"] ;
283 -> 284 ;
285 [label="X[12] <= 0.5\ngini = 0.5\nsamples = 2\nvalue = [0, 0, 0, 1, 1]", fillcolor="#ffffff"] ;
284 -> 285 ;
286 [label="gini = 0.0\nsamples = 1\nvalue = [0, 0, 0, 0, 1]", fillcolor="#e539c0"] ;
285 -> 286 ;
287 [label="gini = 0.0\nsamples = 1\nvalue = [0, 0, 0, 1, 0]", fillcolor="#3c39e5"] ;
285 -> 287 ;
288 [label="gini = 0.0\nsamples = 9\nvalue = [0, 0, 0, 9, 0]", fillcolor="#3c39e5"] ;
284 -> 288 ;
289 [label="X[0] <= 613.5\ngini = 0.375\nsamples = 4\nvalue = [0, 3, 1, 0, 0]", fillcolor="#a7ee7b"] ;
283 -> 289 ;
290 [label="gini = 0.0\nsamples = 3\nvalue = [0, 3, 0, 0, 0]", fillcolor="#7be539"] ;
289 -> 290 ;
291 [label="gini = 0.0\nsamples = 1\nvalue = [0, 0, 1, 0, 0]", fillcolor="#39e5c5"] ;
289 -> 291 ;
292 [label="X[19] <= 6.5\ngini = 0.022\nsamples = 89\nvalue = [0, 1, 0, 88, 0]", fillcolor="#3e3be5"] ;
282 -> 292 ;
293 [label="gini = 0.0\nsamples = 81\nvalue = [0, 0, 0, 81, 0]", fillcolor="#3c39e5"] ;
292 -> 293 ;
294 [label="X[7] <= 26.0\ngini = 0.219\nsamples = 8\nvalue = [0, 1, 0, 7, 0]", fillcolor="#5855e9"] ;
292 -> 294 ;
295 [label="gini = 0.0\nsamples = 6\nvalue = [0, 0, 0, 6, 0]", fillcolor="#3c39e5"] ;
294 -> 295 ;
296 [label="X[11] <= 0.5\ngini = 0.5\nsamples = 2\nvalue = [0, 1, 0, 1, 0]", fillcolor="#ffffff"] ;
294 -> 296 ;
297 [label="gini = 0.0\nsamples = 1\nvalue = [0, 1, 0, 0, 0]", fillcolor="#7be539"] ;
296 -> 297 ;
298 [label="gini = 0.0\nsamples = 1\nvalue = [0, 0, 0, 1, 0]", fillcolor="#3c39e5"] ;
296 -> 298 ;
299 [label="gini = 0.0\nsamples = 1\nvalue = [0, 0, 0, 0, 1]", fillcolor="#e539c0"] ;
281 -> 299 ;
300 [label="X[4] <= 2.5\ngini = 0.494\nsamples = 9\nvalue = [0, 0, 0, 4, 5]", fillcolor="#fad7f2"] ;
280 -> 300 ;
301 [label="X[3] <= 1022.0\ngini = 0.278\nsamples = 6\nvalue = [0, 0, 0, 1, 5]", fillcolor="#ea61cd"] ;
300 -> 301 ;
302 [label="gini = 0.0\nsamples = 5\nvalue = [0, 0, 0, 0, 5]", fillcolor="#e539c0"] ;
301 -> 302 ;
303 [label="gini = 0.0\nsamples = 1\nvalue = [0, 0, 0, 1, 0]", fillcolor="#3c39e5"] ;
301 -> 303 ;
304 [label="gini = 0.0\nsamples = 3\nvalue = [0, 0, 0, 3, 0]", fillcolor="#3c39e5"] ;
300 -> 304 ;
305 [label="X[0] <= 553.0\ngini = 0.553\nsamples = 489\nvalue = [41, 307, 94, 46, 1]", fillcolor="#b8f194"] ;
211 -> 305 ;
306 [label="X[6] <= 11.5\ngini = 0.353\nsamples = 345\nvalue = [35, 274, 24, 12, 0]", fillcolor="#99eb66"] ;
305 -> 306 ;
307 [label="X[7] <= 2.5\ngini = 0.234\nsamples = 289\nvalue = [10, 252, 16, 11, 0]", fillcolor="#8de954"] ;
306 -> 307 ;
308 [label="X[6] <= 8.5\ngini = 0.53\nsamples = 26\nvalue = [0, 14, 1, 11, 0]", fillcolor="#e5fad7"] ;
307 -> 308 ;
309 [label="gini = 0.0\nsamples = 11\nvalue = [0, 0, 0, 11, 0]", fillcolor="#3c39e5"] ;
308 -> 309 ;
310 [label="X[8] <= 11.5\ngini = 0.124\nsamples = 15\nvalue = [0, 14, 1, 0, 0]", fillcolor="#84e747"] ;
308 -> 310 ;
311 [label="X[8] <= 5.5\ngini = 0.5\nsamples = 2\nvalue = [0, 1, 1, 0, 0]", fillcolor="#ffffff"] ;
310 -> 311 ;
312 [label="gini = 0.0\nsamples = 1\nvalue = [0, 1, 0, 0, 0]", fillcolor="#7be539"] ;
311 -> 312 ;
313 [label="gini = 0.0\nsamples = 1\nvalue = [0, 0, 1, 0, 0]", fillcolor="#39e5c5"] ;
311 -> 313 ;
314 [label="gini = 0.0\nsamples = 13\nvalue = [0, 13, 0, 0, 0]", fillcolor="#7be539"] ;
310 -> 314 ;
315 [label="X[9] <= 0.5\ngini = 0.176\nsamples = 263\nvalue = [10, 238, 15, 0, 0]", fillcolor="#88e84d"] ;
307 -> 315 ;
316 [label="gini = 0.0\nsamples = 2\nvalue = [2, 0, 0, 0, 0]", fillcolor="#e58139"] ;
315 -> 316 ;
317 [label="X[6] <= 10.5\ngini = 0.164\nsamples = 261\nvalue = [8, 238, 15, 0, 0]", fillcolor="#87e74c"] ;
315 -> 317 ;
318 [label="X[7] <= 21.5\ngini = 0.097\nsamples = 198\nvalue = [7, 188, 3, 0, 0]", fillcolor="#82e643"] ;
317 -> 318 ;
319 [label="gini = 0.0\nsamples = 137\nvalue = [0, 137, 0, 0, 0]", fillcolor="#7be539"] ;
318 -> 319 ;
320 [label="X[19] <= 1.5\ngini = 0.285\nsamples = 61\nvalue = [7, 51, 3, 0, 0]", fillcolor="#93ea5e"] ;
318 -> 320 ;
321 [label="X[6] <= 9.5\ngini = 0.444\nsamples = 6\nvalue = [4, 2, 0, 0, 0]", fillcolor="#f2c09c"] ;
320 -> 321 ;
322 [label="gini = 0.0\nsamples = 2\nvalue = [0, 2, 0, 0, 0]", fillcolor="#7be539"] ;
321 -> 322 ;
323 [label="gini = 0.0\nsamples = 4\nvalue = [4, 0, 0, 0, 0]", fillcolor="#e58139"] ;
321 -> 323 ;
324 [label="X[7] <= 22.5\ngini = 0.2\nsamples = 55\nvalue = [3, 49, 3, 0, 0]", fillcolor="#8ae850"] ;
320 -> 324 ;
325 [label="X[2] <= 19.5\ngini = 0.49\nsamples = 7\nvalue = [0, 4, 3, 0, 0]", fillcolor="#def8ce"] ;
324 -> 325 ;
326 [label="gini = 0.0\nsamples = 4\nvalue = [0, 4, 0, 0, 0]", fillcolor="#7be539"] ;
325 -> 326 ;
327 [label="gini = 0.0\nsamples = 3\nvalue = [0, 0, 3, 0, 0]", fillcolor="#39e5c5"] ;
325 -> 327 ;
328 [label="X[19] <= 6.5\ngini = 0.117\nsamples = 48\nvalue = [3, 45, 0, 0, 0]", fillcolor="#84e746"] ;
324 -> 328 ;
329 [label="gini = 0.0\nsamples = 38\nvalue = [0, 38, 0, 0, 0]", fillcolor="#7be539"] ;
328 -> 329 ;
330 [label="X[7] <= 24.5\ngini = 0.42\nsamples = 10\nvalue = [3, 7, 0, 0, 0]", fillcolor="#b4f08e"] ;
328 -> 330 ;
331 [label="gini = 0.0\nsamples = 3\nvalue = [3, 0, 0, 0, 0]", fillcolor="#e58139"] ;
330 -> 331 ;
332 [label="gini = 0.0\nsamples = 7\nvalue = [0, 7, 0, 0, 0]", fillcolor="#7be539"] ;
330 -> 332 ;
333 [label="X[7] <= 28.5\ngini = 0.334\nsamples = 63\nvalue = [1, 50, 12, 0, 0]", fillcolor="#9dec6b"] ;
317 -> 333 ;
334 [label="X[2] <= 18.5\ngini = 0.219\nsamples = 57\nvalue = [1, 50, 6, 0, 0]", fillcolor="#8de954"] ;
333 -> 334 ;
335 [label="X[0] <= 393.0\ngini = 0.168\nsamples = 55\nvalue = [1, 50, 4, 0, 0]", fillcolor="#88e84c"] ;
334 -> 335 ;
336 [label="X[2] <= 17.5\ngini = 0.077\nsamples = 50\nvalue = [0, 48, 2, 0, 0]", fillcolor="#80e641"] ;
335 -> 336 ;
337 [label="X[0] <= 354.0\ngini = 0.042\nsamples = 47\nvalue = [0, 46, 1, 0, 0]", fillcolor="#7ee63d"] ;
336 -> 337 ;
338 [label="gini = 0.0\nsamples = 42\nvalue = [0, 42, 0, 0, 0]", fillcolor="#7be539"] ;
337 -> 338 ;
339 [label="X[0] <= 359.0\ngini = 0.32\nsamples = 5\nvalue = [0, 4, 1, 0, 0]", fillcolor="#9cec6a"] ;
337 -> 339 ;
340 [label="gini = 0.0\nsamples = 1\nvalue = [0, 0, 1, 0, 0]", fillcolor="#39e5c5"] ;
339 -> 340 ;
341 [label="gini = 0.0\nsamples = 4\nvalue = [0, 4, 0, 0, 0]", fillcolor="#7be539"] ;
339 -> 341 ;
342 [label="X[4] <= 0.5\ngini = 0.444\nsamples = 3\nvalue = [0, 2, 1, 0, 0]", fillcolor="#bdf29c"] ;
336 -> 342 ;
343 [label="gini = 0.0\nsamples = 2\nvalue = [0, 2, 0, 0, 0]", fillcolor="#7be539"] ;
342 -> 343 ;
344 [label="gini = 0.0\nsamples = 1\nvalue = [0, 0, 1, 0, 0]", fillcolor="#39e5c5"] ;
342 -> 344 ;
345 [label="X[19] <= 3.0\ngini = 0.64\nsamples = 5\nvalue = [1, 2, 2, 0, 0]", fillcolor="#ffffff"] ;
335 -> 345 ;
346 [label="gini = 0.0\nsamples = 2\nvalue = [0, 0, 2, 0, 0]", fillcolor="#39e5c5"] ;
345 -> 346 ;
347 [label="X[0] <= 442.0\ngini = 0.444\nsamples = 3\nvalue = [1, 2, 0, 0, 0]", fillcolor="#bdf29c"] ;
345 -> 347 ;
348 [label="gini = 0.0\nsamples = 1\nvalue = [1, 0, 0, 0, 0]", fillcolor="#e58139"] ;
347 -> 348 ;
349 [label="gini = 0.0\nsamples = 2\nvalue = [0, 2, 0, 0, 0]", fillcolor="#7be539"] ;
347 -> 349 ;
350 [label="gini = 0.0\nsamples = 2\nvalue = [0, 0, 2, 0, 0]", fillcolor="#39e5c5"] ;
334 -> 350 ;
351 [label="gini = 0.0\nsamples = 6\nvalue = [0, 0, 6, 0, 0]", fillcolor="#39e5c5"] ;
333 -> 351 ;
352 [label="X[7] <= 10.5\ngini = 0.626\nsamples = 56\nvalue = [25, 22, 8, 1, 0]", fillcolor="#fdf4ee"] ;
306 -> 352 ;
353 [label="X[2] <= 10.5\ngini = 0.547\nsamples = 17\nvalue = [0, 9, 7, 1, 0]", fillcolor="#e5fad7"] ;
352 -> 353 ;
354 [label="X[8] <= 12.5\ngini = 0.32\nsamples = 10\nvalue = [0, 8, 2, 0, 0]", fillcolor="#9cec6a"] ;
353 -> 354 ;
355 [label="gini = 0.0\nsamples = 7\nvalue = [0, 7, 0, 0, 0]", fillcolor="#7be539"] ;
354 -> 355 ;
356 [label="X[0] <= 112.0\ngini = 0.444\nsamples = 3\nvalue = [0, 1, 2, 0, 0]", fillcolor="#9cf2e2"] ;
354 -> 356 ;
357 [label="gini = 0.0\nsamples = 1\nvalue = [0, 1, 0, 0, 0]", fillcolor="#7be539"] ;
356 -> 357 ;
358 [label="gini = 0.0\nsamples = 2\nvalue = [0, 0, 2, 0, 0]", fillcolor="#39e5c5"] ;
356 -> 358 ;
359 [label="X[2] <= 12.0\ngini = 0.449\nsamples = 7\nvalue = [0, 1, 5, 1, 0]", fillcolor="#7beed8"] ;
353 -> 359 ;
360 [label="X[8] <= 11.5\ngini = 0.278\nsamples = 6\nvalue = [0, 1, 5, 0, 0]", fillcolor="#61ead1"] ;
359 -> 360 ;
361 [label="X[3] <= 1026.5\ngini = 0.5\nsamples = 2\nvalue = [0, 1, 1, 0, 0]", fillcolor="#ffffff"] ;
360 -> 361 ;
362 [label="gini = 0.0\nsamples = 1\nvalue = [0, 1, 0, 0, 0]", fillcolor="#7be539"] ;
361 -> 362 ;
363 [label="gini = 0.0\nsamples = 1\nvalue = [0, 0, 1, 0, 0]", fillcolor="#39e5c5"] ;
361 -> 363 ;
364 [label="gini = 0.0\nsamples = 4\nvalue = [0, 0, 4, 0, 0]", fillcolor="#39e5c5"] ;
360 -> 364 ;
365 [label="gini = 0.0\nsamples = 1\nvalue = [0, 0, 0, 1, 0]", fillcolor="#3c39e5"] ;
359 -> 365 ;
366 [label="X[9] <= 0.5\ngini = 0.477\nsamples = 39\nvalue = [25, 13, 1, 0, 0]", fillcolor="#f3c5a4"] ;
352 -> 366 ;
367 [label="gini = 0.0\nsamples = 10\nvalue = [10, 0, 0, 0, 0]", fillcolor="#e58139"] ;
366 -> 367 ;
368 [label="X[7] <= 28.5\ngini = 0.53\nsamples = 29\nvalue = [15, 13, 1, 0, 0]", fillcolor="#fcefe6"] ;
366 -> 368 ;
369 [label="X[8] <= 19.5\ngini = 0.526\nsamples = 19\nvalue = [7, 11, 1, 0, 0]", fillcolor="#d3f6bd"] ;
368 -> 369 ;
370 [label="X[0] <= 417.0\ngini = 0.561\nsamples = 14\nvalue = [7, 6, 1, 0, 0]", fillcolor="#fcefe6"] ;
369 -> 370 ;
371 [label="X[7] <= 27.5\ngini = 0.542\nsamples = 12\nvalue = [7, 4, 1, 0, 0]", fillcolor="#f5d0b5"] ;
370 -> 371 ;
372 [label="X[12] <= 0.5\ngini = 0.463\nsamples = 11\nvalue = [7, 4, 0, 0, 0]", fillcolor="#f4c9aa"] ;
371 -> 372 ;
373 [label="X[0] <= 234.5\ngini = 0.42\nsamples = 10\nvalue = [7, 3, 0, 0, 0]", fillcolor="#f0b78e"] ;
372 -> 373 ;
374 [label="X[8] <= 11.5\ngini = 0.5\nsamples = 6\nvalue = [3, 3, 0, 0, 0]", fillcolor="#ffffff"] ;
373 -> 374 ;
375 [label="X[8] <= 9.5\ngini = 0.375\nsamples = 4\nvalue = [1, 3, 0, 0, 0]", fillcolor="#a7ee7b"] ;
374 -> 375 ;
376 [label="gini = 0.0\nsamples = 1\nvalue = [1, 0, 0, 0, 0]", fillcolor="#e58139"] ;
375 -> 376 ;
377 [label="gini = 0.0\nsamples = 3\nvalue = [0, 3, 0, 0, 0]", fillcolor="#7be539"] ;
375 -> 377 ;
378 [label="gini = 0.0\nsamples = 2\nvalue = [2, 0, 0, 0, 0]", fillcolor="#e58139"] ;
374 -> 378 ;
379 [label="gini = 0.0\nsamples = 4\nvalue = [4, 0, 0, 0, 0]", fillcolor="#e58139"] ;
373 -> 379 ;
380 [label="gini = 0.0\nsamples = 1\nvalue = [0, 1, 0, 0, 0]", fillcolor="#7be539"] ;
372 -> 380 ;
381 [label="gini = 0.0\nsamples = 1\nvalue = [0, 0, 1, 0, 0]", fillcolor="#39e5c5"] ;
371 -> 381 ;
382 [label="gini = 0.0\nsamples = 2\nvalue = [0, 2, 0, 0, 0]", fillcolor="#7be539"] ;
370 -> 382 ;
383 [label="gini = 0.0\nsamples = 5\nvalue = [0, 5, 0, 0, 0]", fillcolor="#7be539"] ;
369 -> 383 ;
384 [label="X[2] <= 15.5\ngini = 0.32\nsamples = 10\nvalue = [8, 2, 0, 0, 0]", fillcolor="#eca06a"] ;
368 -> 384 ;
385 [label="X[4] <= 0.5\ngini = 0.198\nsamples = 9\nvalue = [8, 1, 0, 0, 0]", fillcolor="#e89152"] ;
384 -> 385 ;
386 [label="X[3] <= 1022.0\ngini = 0.5\nsamples = 2\nvalue = [1, 1, 0, 0, 0]", fillcolor="#ffffff"] ;
385 -> 386 ;
387 [label="gini = 0.0\nsamples = 1\nvalue = [1, 0, 0, 0, 0]", fillcolor="#e58139"] ;
386 -> 387 ;
388 [label="gini = 0.0\nsamples = 1\nvalue = [0, 1, 0, 0, 0]", fillcolor="#7be539"] ;
386 -> 388 ;
389 [label="gini = 0.0\nsamples = 7\nvalue = [7, 0, 0, 0, 0]", fillcolor="#e58139"] ;
385 -> 389 ;
390 [label="gini = 0.0\nsamples = 1\nvalue = [0, 1, 0, 0, 0]", fillcolor="#7be539"] ;
384 -> 390 ;
391 [label="X[0] <= 898.5\ngini = 0.654\nsamples = 144\nvalue = [6, 33, 70, 34, 1]", fillcolor="#bef6ec"] ;
305 -> 391 ;
392 [label="X[6] <= 11.5\ngini = 0.606\nsamples = 73\nvalue = [4, 26, 37, 6, 0]", fillcolor="#d1f9f1"] ;
391 -> 392 ;
393 [label="X[2] <= 9.5\ngini = 0.495\nsamples = 50\nvalue = [0, 19, 30, 1, 0]", fillcolor="#b9f6ea"] ;
392 -> 393 ;
394 [label="gini = 0.0\nsamples = 4\nvalue = [0, 0, 4, 0, 0]", fillcolor="#39e5c5"] ;
393 -> 394 ;
395 [label="X[1] <= 1.5\ngini = 0.509\nsamples = 46\nvalue = [0, 19, 26, 1, 0]", fillcolor="#ccf8f0"] ;
393 -> 395 ;
396 [label="X[0] <= 574.5\ngini = 0.483\nsamples = 38\nvalue = [0, 13, 24, 1, 0]", fillcolor="#a8f4e5"] ;
395 -> 396 ;
397 [label="gini = 0.0\nsamples = 2\nvalue = [0, 2, 0, 0, 0]", fillcolor="#7be539"] ;
396 -> 397 ;
398 [label="X[11] <= 0.5\ngini = 0.461\nsamples = 36\nvalue = [0, 11, 24, 1, 0]", fillcolor="#98f1e1"] ;
396 -> 398 ;
399 [label="X[0] <= 856.5\ngini = 0.491\nsamples = 23\nvalue = [0, 10, 13, 0, 0]", fillcolor="#d1f9f2"] ;
398 -> 399 ;
400 [label="X[19] <= 2.5\ngini = 0.472\nsamples = 21\nvalue = [0, 8, 13, 0, 0]", fillcolor="#b3f5e9"] ;
399 -> 400 ;
401 [label="gini = 0.0\nsamples = 5\nvalue = [0, 0, 5, 0, 0]", fillcolor="#39e5c5"] ;
400 -> 401 ;
402 [label="X[6] <= 8.0\ngini = 0.5\nsamples = 16\nvalue = [0, 8, 8, 0, 0]", fillcolor="#ffffff"] ;
400 -> 402 ;
403 [label="gini = 0.0\nsamples = 3\nvalue = [0, 3, 0, 0, 0]", fillcolor="#7be539"] ;
402 -> 403 ;
404 [label="X[7] <= 1.5\ngini = 0.473\nsamples = 13\nvalue = [0, 5, 8, 0, 0]", fillcolor="#b5f5e9"] ;
402 -> 404 ;
405 [label="gini = 0.0\nsamples = 2\nvalue = [0, 2, 0, 0, 0]", fillcolor="#7be539"] ;
404 -> 405 ;
406 [label="X[4] <= 1.5\ngini = 0.397\nsamples = 11\nvalue = [0, 3, 8, 0, 0]", fillcolor="#83efdb"] ;
404 -> 406 ;
407 [label="X[4] <= 0.5\ngini = 0.5\nsamples = 6\nvalue = [0, 3, 3, 0, 0]", fillcolor="#ffffff"] ;
406 -> 407 ;
408 [label="X[19] <= 4.5\ngini = 0.375\nsamples = 4\nvalue = [0, 1, 3, 0, 0]", fillcolor="#7beed8"] ;
407 -> 408 ;
409 [label="gini = 0.0\nsamples = 2\nvalue = [0, 0, 2, 0, 0]", fillcolor="#39e5c5"] ;
408 -> 409 ;
410 [label="X[1] <= 0.5\ngini = 0.5\nsamples = 2\nvalue = [0, 1, 1, 0, 0]", fillcolor="#ffffff"] ;
408 -> 410 ;
411 [label="gini = 0.0\nsamples = 1\nvalue = [0, 0, 1, 0, 0]", fillcolor="#39e5c5"] ;
410 -> 411 ;
412 [label="gini = 0.0\nsamples = 1\nvalue = [0, 1, 0, 0, 0]", fillcolor="#7be539"] ;
410 -> 412 ;
413 [label="gini = 0.0\nsamples = 2\nvalue = [0, 2, 0, 0, 0]", fillcolor="#7be539"] ;
407 -> 413 ;
414 [label="gini = 0.0\nsamples = 5\nvalue = [0, 0, 5, 0, 0]", fillcolor="#39e5c5"] ;
406 -> 414 ;
415 [label="gini = 0.0\nsamples = 2\nvalue = [0, 2, 0, 0, 0]", fillcolor="#7be539"] ;
399 -> 415 ;
416 [label="X[7] <= 10.5\ngini = 0.272\nsamples = 13\nvalue = [0, 1, 11, 1, 0]", fillcolor="#5ae9cf"] ;
398 -> 416 ;
417 [label="X[6] <= 8.0\ngini = 0.56\nsamples = 5\nvalue = [0, 1, 3, 1, 0]", fillcolor="#9cf2e2"] ;
416 -> 417 ;
418 [label="X[0] <= 783.0\ngini = 0.375\nsamples = 4\nvalue = [0, 0, 3, 1, 0]", fillcolor="#7beed8"] ;
417 -> 418 ;
419 [label="gini = 0.0\nsamples = 3\nvalue = [0, 0, 3, 0, 0]", fillcolor="#39e5c5"] ;
418 -> 419 ;
420 [label="gini = 0.0\nsamples = 1\nvalue = [0, 0, 0, 1, 0]", fillcolor="#3c39e5"] ;
418 -> 420 ;
421 [label="gini = 0.0\nsamples = 1\nvalue = [0, 1, 0, 0, 0]", fillcolor="#7be539"] ;
417 -> 421 ;
422 [label="gini = 0.0\nsamples = 8\nvalue = [0, 0, 8, 0, 0]", fillcolor="#39e5c5"] ;
416 -> 422 ;
423 [label="X[8] <= 18.0\ngini = 0.375\nsamples = 8\nvalue = [0, 6, 2, 0, 0]", fillcolor="#a7ee7b"] ;
395 -> 423 ;
424 [label="gini = 0.0\nsamples = 1\nvalue = [0, 0, 1, 0, 0]", fillcolor="#39e5c5"] ;
423 -> 424 ;
425 [label="X[0] <= 828.5\ngini = 0.245\nsamples = 7\nvalue = [0, 6, 1, 0, 0]", fillcolor="#91e95a"] ;
423 -> 425 ;
426 [label="gini = 0.0\nsamples = 5\nvalue = [0, 5, 0, 0, 0]", fillcolor="#7be539"] ;
425 -> 426 ;
427 [label="X[4] <= 1.0\ngini = 0.5\nsamples = 2\nvalue = [0, 1, 1, 0, 0]", fillcolor="#ffffff"] ;
425 -> 427 ;
428 [label="gini = 0.0\nsamples = 1\nvalue = [0, 0, 1, 0, 0]", fillcolor="#39e5c5"] ;
427 -> 428 ;
429 [label="gini = 0.0\nsamples = 1\nvalue = [0, 1, 0, 0, 0]", fillcolor="#7be539"] ;
427 -> 429 ;
430 [label="X[0] <= 645.0\ngini = 0.737\nsamples = 23\nvalue = [4, 7, 7, 5, 0]", fillcolor="#ffffff"] ;
392 -> 430 ;
431 [label="X[3] <= 1025.0\ngini = 0.62\nsamples = 10\nvalue = [3, 2, 0, 5, 0]", fillcolor="#c7c6f8"] ;
430 -> 431 ;
432 [label="X[7] <= 22.5\ngini = 0.469\nsamples = 8\nvalue = [3, 0, 0, 5, 0]", fillcolor="#b1b0f5"] ;
431 -> 432 ;
433 [label="gini = 0.0\nsamples = 4\nvalue = [0, 0, 0, 4, 0]", fillcolor="#3c39e5"] ;
432 -> 433 ;
434 [label="X[3] <= 1023.5\ngini = 0.375\nsamples = 4\nvalue = [3, 0, 0, 1, 0]", fillcolor="#eeab7b"] ;
432 -> 434 ;
435 [label="gini = 0.0\nsamples = 3\nvalue = [3, 0, 0, 0, 0]", fillcolor="#e58139"] ;
434 -> 435 ;
436 [label="gini = 0.0\nsamples = 1\nvalue = [0, 0, 0, 1, 0]", fillcolor="#3c39e5"] ;
434 -> 436 ;
437 [label="gini = 0.0\nsamples = 2\nvalue = [0, 2, 0, 0, 0]", fillcolor="#7be539"] ;
431 -> 437 ;
438 [label="X[2] <= 14.5\ngini = 0.556\nsamples = 13\nvalue = [1, 5, 7, 0, 0]", fillcolor="#cef8f0"] ;
430 -> 438 ;
439 [label="X[7] <= 17.5\ngini = 0.46\nsamples = 10\nvalue = [1, 2, 7, 0, 0]", fillcolor="#83efdb"] ;
438 -> 439 ;
440 [label="gini = 0.0\nsamples = 6\nvalue = [0, 0, 6, 0, 0]", fillcolor="#39e5c5"] ;
439 -> 440 ;
441 [label="X[7] <= 19.0\ngini = 0.625\nsamples = 4\nvalue = [1, 2, 1, 0, 0]", fillcolor="#d3f6bd"] ;
439 -> 441 ;
442 [label="gini = 0.0\nsamples = 2\nvalue = [0, 2, 0, 0, 0]", fillcolor="#7be539"] ;
441 -> 442 ;
443 [label="X[0] <= 701.5\ngini = 0.5\nsamples = 2\nvalue = [1, 0, 1, 0, 0]", fillcolor="#ffffff"] ;
441 -> 443 ;
444 [label="gini = 0.0\nsamples = 1\nvalue = [1, 0, 0, 0, 0]", fillcolor="#e58139"] ;
443 -> 444 ;
445 [label="gini = 0.0\nsamples = 1\nvalue = [0, 0, 1, 0, 0]", fillcolor="#39e5c5"] ;
443 -> 445 ;
446 [label="gini = 0.0\nsamples = 3\nvalue = [0, 3, 0, 0, 0]", fillcolor="#7be539"] ;
438 -> 446 ;
447 [label="X[8] <= 16.5\ngini = 0.618\nsamples = 71\nvalue = [2, 7, 33, 28, 1]", fillcolor="#e8fcf8"] ;
391 -> 447 ;
448 [label="X[3] <= 1024.5\ngini = 0.59\nsamples = 49\nvalue = [0, 6, 18, 25, 0]", fillcolor="#d3d2f9"] ;
447 -> 448 ;
449 [label="X[2] <= 10.0\ngini = 0.607\nsamples = 44\nvalue = [0, 6, 18, 20, 0]", fillcolor="#f0f0fd"] ;
448 -> 449 ;
450 [label="gini = 0.0\nsamples = 3\nvalue = [0, 0, 3, 0, 0]", fillcolor="#39e5c5"] ;
449 -> 450 ;
451 [label="X[2] <= 12.5\ngini = 0.607\nsamples = 41\nvalue = [0, 6, 15, 20, 0]", fillcolor="#dad9fa"] ;
449 -> 451 ;
452 [label="gini = 0.0\nsamples = 5\nvalue = [0, 0, 0, 5, 0]", fillcolor="#3c39e5"] ;
451 -> 452 ;
453 [label="X[7] <= 21.5\ngini = 0.625\nsamples = 36\nvalue = [0, 6, 15, 15, 0]", fillcolor="#ffffff"] ;
451 -> 453 ;
454 [label="X[0] <= 1179.5\ngini = 0.535\nsamples = 27\nvalue = [0, 1, 13, 13, 0]", fillcolor="#ffffff"] ;
453 -> 454 ;
455 [label="X[19] <= 4.5\ngini = 0.526\nsamples = 21\nvalue = [0, 1, 12, 8, 0]", fillcolor="#c2f7ed"] ;
454 -> 455 ;
456 [label="X[14] <= 0.5\ngini = 0.486\nsamples = 12\nvalue = [0, 0, 5, 7, 0]", fillcolor="#c7c6f8"] ;
455 -> 456 ;
457 [label="X[7] <= 6.5\ngini = 0.5\nsamples = 10\nvalue = [0, 0, 5, 5, 0]", fillcolor="#ffffff"] ;
456 -> 457 ;
458 [label="gini = 0.0\nsamples = 3\nvalue = [0, 0, 3, 0, 0]", fillcolor="#39e5c5"] ;
457 -> 458 ;
459 [label="X[2] <= 21.5\ngini = 0.408\nsamples = 7\nvalue = [0, 0, 2, 5, 0]", fillcolor="#8a88ef"] ;
457 -> 459 ;
460 [label="gini = 0.0\nsamples = 4\nvalue = [0, 0, 0, 4, 0]", fillcolor="#3c39e5"] ;
459 -> 460 ;
461 [label="X[0] <= 1093.5\ngini = 0.444\nsamples = 3\nvalue = [0, 0, 2, 1, 0]", fillcolor="#9cf2e2"] ;
459 -> 461 ;
462 [label="gini = 0.0\nsamples = 2\nvalue = [0, 0, 2, 0, 0]", fillcolor="#39e5c5"] ;
461 -> 462 ;
463 [label="gini = 0.0\nsamples = 1\nvalue = [0, 0, 0, 1, 0]", fillcolor="#3c39e5"] ;
461 -> 463 ;
464 [label="gini = 0.0\nsamples = 2\nvalue = [0, 0, 0, 2, 0]", fillcolor="#3c39e5"] ;
456 -> 464 ;
465 [label="X[6] <= 8.0\ngini = 0.37\nsamples = 9\nvalue = [0, 1, 7, 1, 0]", fillcolor="#6aecd4"] ;
455 -> 465 ;
466 [label="gini = 0.0\nsamples = 1\nvalue = [0, 1, 0, 0, 0]", fillcolor="#7be539"] ;
465 -> 466 ;
467 [label="X[11] <= 0.5\ngini = 0.219\nsamples = 8\nvalue = [0, 0, 7, 1, 0]", fillcolor="#55e9cd"] ;
465 -> 467 ;
468 [label="gini = 0.0\nsamples = 6\nvalue = [0, 0, 6, 0, 0]", fillcolor="#39e5c5"] ;
467 -> 468 ;
469 [label="X[0] <= 1150.0\ngini = 0.5\nsamples = 2\nvalue = [0, 0, 1, 1, 0]", fillcolor="#ffffff"] ;
467 -> 469 ;
470 [label="gini = 0.0\nsamples = 1\nvalue = [0, 0, 0, 1, 0]", fillcolor="#3c39e5"] ;
469 -> 470 ;
471 [label="gini = 0.0\nsamples = 1\nvalue = [0, 0, 1, 0, 0]", fillcolor="#39e5c5"] ;
469 -> 471 ;
472 [label="X[14] <= 0.5\ngini = 0.278\nsamples = 6\nvalue = [0, 0, 1, 5, 0]", fillcolor="#6361ea"] ;
454 -> 472 ;
473 [label="gini = 0.0\nsamples = 5\nvalue = [0, 0, 0, 5, 0]", fillcolor="#3c39e5"] ;
472 -> 473 ;
474 [label="gini = 0.0\nsamples = 1\nvalue = [0, 0, 1, 0, 0]", fillcolor="#39e5c5"] ;
472 -> 474 ;
475 [label="X[6] <= 9.5\ngini = 0.593\nsamples = 9\nvalue = [0, 5, 2, 2, 0]", fillcolor="#c6f4aa"] ;
453 -> 475 ;
476 [label="X[6] <= 8.0\ngini = 0.444\nsamples = 3\nvalue = [0, 0, 1, 2, 0]", fillcolor="#9e9cf2"] ;
475 -> 476 ;
477 [label="gini = 0.0\nsamples = 1\nvalue = [0, 0, 1, 0, 0]", fillcolor="#39e5c5"] ;
476 -> 477 ;
478 [label="gini = 0.0\nsamples = 2\nvalue = [0, 0, 0, 2, 0]", fillcolor="#3c39e5"] ;
476 -> 478 ;
479 [label="X[19] <= 5.5\ngini = 0.278\nsamples = 6\nvalue = [0, 5, 1, 0, 0]", fillcolor="#95ea61"] ;
475 -> 479 ;
480 [label="gini = 0.0\nsamples = 5\nvalue = [0, 5, 0, 0, 0]", fillcolor="#7be539"] ;
479 -> 480 ;
481 [label="gini = 0.0\nsamples = 1\nvalue = [0, 0, 1, 0, 0]", fillcolor="#39e5c5"] ;
479 -> 481 ;
482 [label="gini = 0.0\nsamples = 5\nvalue = [0, 0, 0, 5, 0]", fillcolor="#3c39e5"] ;
448 -> 482 ;
483 [label="X[2] <= 13.0\ngini = 0.504\nsamples = 22\nvalue = [2, 1, 15, 3, 1]", fillcolor="#82efda"] ;
447 -> 483 ;
484 [label="X[3] <= 1017.5\ngini = 0.781\nsamples = 8\nvalue = [2, 1, 2, 2, 1]", fillcolor="#ffffff"] ;
483 -> 484 ;
485 [label="gini = 0.0\nsamples = 2\nvalue = [2, 0, 0, 0, 0]", fillcolor="#e58139"] ;
484 -> 485 ;
486 [label="X[0] <= 1150.0\ngini = 0.722\nsamples = 6\nvalue = [0, 1, 2, 2, 1]", fillcolor="#ffffff"] ;
484 -> 486 ;
487 [label="X[4] <= 1.5\ngini = 0.444\nsamples = 3\nvalue = [0, 1, 0, 2, 0]", fillcolor="#9e9cf2"] ;
486 -> 487 ;
488 [label="gini = 0.0\nsamples = 2\nvalue = [0, 0, 0, 2, 0]", fillcolor="#3c39e5"] ;
487 -> 488 ;
489 [label="gini = 0.0\nsamples = 1\nvalue = [0, 1, 0, 0, 0]", fillcolor="#7be539"] ;
487 -> 489 ;
490 [label="X[8] <= 20.5\ngini = 0.444\nsamples = 3\nvalue = [0, 0, 2, 0, 1]", fillcolor="#9cf2e2"] ;
486 -> 490 ;
491 [label="gini = 0.0\nsamples = 1\nvalue = [0, 0, 0, 0, 1]", fillcolor="#e539c0"] ;
490 -> 491 ;
492 [label="gini = 0.0\nsamples = 2\nvalue = [0, 0, 2, 0, 0]", fillcolor="#39e5c5"] ;
490 -> 492 ;
493 [label="X[10] <= 0.5\ngini = 0.133\nsamples = 14\nvalue = [0, 0, 13, 1, 0]", fillcolor="#48e7c9"] ;
483 -> 493 ;
494 [label="gini = 0.0\nsamples = 13\nvalue = [0, 0, 13, 0, 0]", fillcolor="#39e5c5"] ;
493 -> 494 ;
495 [label="gini = 0.0\nsamples = 1\nvalue = [0, 0, 0, 1, 0]", fillcolor="#3c39e5"] ;
493 -> 495 ;
496 [label="X[0] <= 2803.0\ngini = 0.444\nsamples = 457\nvalue = [2, 5, 16, 113, 321]", fillcolor="#ef87d9"] ;
210 -> 496 ;
497 [label="X[6] <= 6.5\ngini = 0.573\nsamples = 255\nvalue = [2, 4, 16, 103, 130]", fillcolor="#fadcf4"] ;
496 -> 497 ;
498 [label="X[6] <= 3.5\ngini = 0.247\nsamples = 104\nvalue = [0, 0, 0, 15, 89]", fillcolor="#e95acb"] ;
497 -> 498 ;
499 [label="X[0] <= 2321.0\ngini = 0.444\nsamples = 21\nvalue = [0, 0, 0, 14, 7]", fillcolor="#9e9cf2"] ;
498 -> 499 ;
500 [label="X[1] <= 1.5\ngini = 0.305\nsamples = 16\nvalue = [0, 0, 0, 13, 3]", fillcolor="#6967eb"] ;
499 -> 500 ;
501 [label="X[1] <= 0.5\ngini = 0.133\nsamples = 14\nvalue = [0, 0, 0, 13, 1]", fillcolor="#4b48e7"] ;
500 -> 501 ;
502 [label="X[7] <= 10.0\ngini = 0.5\nsamples = 2\nvalue = [0, 0, 0, 1, 1]", fillcolor="#ffffff"] ;
501 -> 502 ;
503 [label="gini = 0.0\nsamples = 1\nvalue = [0, 0, 0, 1, 0]", fillcolor="#3c39e5"] ;
502 -> 503 ;
504 [label="gini = 0.0\nsamples = 1\nvalue = [0, 0, 0, 0, 1]", fillcolor="#e539c0"] ;
502 -> 504 ;
505 [label="gini = 0.0\nsamples = 12\nvalue = [0, 0, 0, 12, 0]", fillcolor="#3c39e5"] ;
501 -> 505 ;
506 [label="gini = 0.0\nsamples = 2\nvalue = [0, 0, 0, 0, 2]", fillcolor="#e539c0"] ;
500 -> 506 ;
507 [label="X[19] <= 2.5\ngini = 0.32\nsamples = 5\nvalue = [0, 0, 0, 1, 4]", fillcolor="#ec6ad0"] ;
499 -> 507 ;
508 [label="X[4] <= 3.0\ngini = 0.5\nsamples = 2\nvalue = [0, 0, 0, 1, 1]", fillcolor="#ffffff"] ;
507 -> 508 ;
509 [label="gini = 0.0\nsamples = 1\nvalue = [0, 0, 0, 1, 0]", fillcolor="#3c39e5"] ;
508 -> 509 ;
510 [label="gini = 0.0\nsamples = 1\nvalue = [0, 0, 0, 0, 1]", fillcolor="#e539c0"] ;
508 -> 510 ;
511 [label="gini = 0.0\nsamples = 3\nvalue = [0, 0, 0, 0, 3]", fillcolor="#e539c0"] ;
507 -> 511 ;
512 [label="X[2] <= 20.5\ngini = 0.024\nsamples = 83\nvalue = [0, 0, 0, 1, 82]", fillcolor="#e53bc1"] ;
498 -> 512 ;
513 [label="gini = 0.0\nsamples = 66\nvalue = [0, 0, 0, 0, 66]", fillcolor="#e539c0"] ;
512 -> 513 ;
514 [label="X[7] <= 19.0\ngini = 0.111\nsamples = 17\nvalue = [0, 0, 0, 1, 16]", fillcolor="#e745c4"] ;
512 -> 514 ;
515 [label="gini = 0.0\nsamples = 14\nvalue = [0, 0, 0, 0, 14]", fillcolor="#e539c0"] ;
514 -> 515 ;
516 [label="X[7] <= 22.5\ngini = 0.444\nsamples = 3\nvalue = [0, 0, 0, 1, 2]", fillcolor="#f29ce0"] ;
514 -> 516 ;
517 [label="gini = 0.0\nsamples = 1\nvalue = [0, 0, 0, 1, 0]", fillcolor="#3c39e5"] ;
516 -> 517 ;
518 [label="gini = 0.0\nsamples = 2\nvalue = [0, 0, 0, 0, 2]", fillcolor="#e539c0"] ;
516 -> 518 ;
519 [label="X[0] <= 2257.5\ngini = 0.575\nsamples = 151\nvalue = [2, 4, 16, 88, 41]", fillcolor="#acaaf4"] ;
497 -> 519 ;
520 [label="X[6] <= 11.5\ngini = 0.527\nsamples = 110\nvalue = [2, 4, 15, 72, 17]", fillcolor="#8c8af0"] ;
519 -> 520 ;
521 [label="X[0] <= 1375.5\ngini = 0.302\nsamples = 69\nvalue = [0, 0, 6, 57, 6]", fillcolor="#615fea"] ;
520 -> 521 ;
522 [label="X[3] <= 1015.5\ngini = 0.486\nsamples = 12\nvalue = [0, 0, 5, 7, 0]", fillcolor="#c7c6f8"] ;
521 -> 522 ;
523 [label="gini = 0.0\nsamples = 3\nvalue = [0, 0, 3, 0, 0]", fillcolor="#39e5c5"] ;
522 -> 523 ;
524 [label="X[19] <= 6.5\ngini = 0.346\nsamples = 9\nvalue = [0, 0, 2, 7, 0]", fillcolor="#7472ec"] ;
522 -> 524 ;
525 [label="X[4] <= 3.5\ngini = 0.219\nsamples = 8\nvalue = [0, 0, 1, 7, 0]", fillcolor="#5855e9"] ;
524 -> 525 ;
526 [label="gini = 0.0\nsamples = 6\nvalue = [0, 0, 0, 6, 0]", fillcolor="#3c39e5"] ;
525 -> 526 ;
527 [label="X[0] <= 1256.0\ngini = 0.5\nsamples = 2\nvalue = [0, 0, 1, 1, 0]", fillcolor="#ffffff"] ;
525 -> 527 ;
528 [label="gini = 0.0\nsamples = 1\nvalue = [0, 0, 0, 1, 0]", fillcolor="#3c39e5"] ;
527 -> 528 ;
529 [label="gini = 0.0\nsamples = 1\nvalue = [0, 0, 1, 0, 0]", fillcolor="#39e5c5"] ;
527 -> 529 ;
530 [label="gini = 0.0\nsamples = 1\nvalue = [0, 0, 1, 0, 0]", fillcolor="#39e5c5"] ;
524 -> 530 ;
531 [label="X[0] <= 1855.5\ngini = 0.219\nsamples = 57\nvalue = [0, 0, 1, 50, 6]", fillcolor="#5754e9"] ;
521 -> 531 ;
532 [label="X[7] <= 11.0\ngini = 0.069\nsamples = 28\nvalue = [0, 0, 0, 27, 1]", fillcolor="#4340e6"] ;
531 -> 532 ;
533 [label="X[0] <= 1646.0\ngini = 0.245\nsamples = 7\nvalue = [0, 0, 0, 6, 1]", fillcolor="#5d5ae9"] ;
532 -> 533 ;
534 [label="gini = 0.0\nsamples = 5\nvalue = [0, 0, 0, 5, 0]", fillcolor="#3c39e5"] ;
533 -> 534 ;
535 [label="X[11] <= 0.5\ngini = 0.5\nsamples = 2\nvalue = [0, 0, 0, 1, 1]", fillcolor="#ffffff"] ;
533 -> 535 ;
536 [label="gini = 0.0\nsamples = 1\nvalue = [0, 0, 0, 1, 0]", fillcolor="#3c39e5"] ;
535 -> 536 ;
537 [label="gini = 0.0\nsamples = 1\nvalue = [0, 0, 0, 0, 1]", fillcolor="#e539c0"] ;
535 -> 537 ;
538 [label="gini = 0.0\nsamples = 21\nvalue = [0, 0, 0, 21, 0]", fillcolor="#3c39e5"] ;
532 -> 538 ;
539 [label="X[3] <= 1010.0\ngini = 0.34\nsamples = 29\nvalue = [0, 0, 1, 23, 5]", fillcolor="#6d6aec"] ;
531 -> 539 ;
540 [label="gini = 0.0\nsamples = 1\nvalue = [0, 0, 1, 0, 0]", fillcolor="#39e5c5"] ;
539 -> 540 ;
541 [label="X[0] <= 1876.5\ngini = 0.293\nsamples = 28\nvalue = [0, 0, 0, 23, 5]", fillcolor="#6664eb"] ;
539 -> 541 ;
542 [label="gini = 0.0\nsamples = 1\nvalue = [0, 0, 0, 0, 1]", fillcolor="#e539c0"] ;
541 -> 542 ;
543 [label="X[6] <= 9.5\ngini = 0.252\nsamples = 27\nvalue = [0, 0, 0, 23, 4]", fillcolor="#5e5bea"] ;
541 -> 543 ;
544 [label="X[0] <= 2144.5\ngini = 0.42\nsamples = 10\nvalue = [0, 0, 0, 7, 3]", fillcolor="#908ef0"] ;
543 -> 544 ;
545 [label="X[2] <= 15.0\ngini = 0.346\nsamples = 9\nvalue = [0, 0, 0, 7, 2]", fillcolor="#7472ec"] ;
544 -> 545 ;
546 [label="gini = 0.0\nsamples = 1\nvalue = [0, 0, 0, 0, 1]", fillcolor="#e539c0"] ;
545 -> 546 ;
547 [label="X[7] <= 20.5\ngini = 0.219\nsamples = 8\nvalue = [0, 0, 0, 7, 1]", fillcolor="#5855e9"] ;
545 -> 547 ;
548 [label="X[3] <= 1017.0\ngini = 0.444\nsamples = 3\nvalue = [0, 0, 0, 2, 1]", fillcolor="#9e9cf2"] ;
547 -> 548 ;
549 [label="gini = 0.0\nsamples = 1\nvalue = [0, 0, 0, 0, 1]", fillcolor="#e539c0"] ;
548 -> 549 ;
550 [label="gini = 0.0\nsamples = 2\nvalue = [0, 0, 0, 2, 0]", fillcolor="#3c39e5"] ;
548 -> 550 ;
551 [label="gini = 0.0\nsamples = 5\nvalue = [0, 0, 0, 5, 0]", fillcolor="#3c39e5"] ;
547 -> 551 ;
552 [label="gini = 0.0\nsamples = 1\nvalue = [0, 0, 0, 0, 1]", fillcolor="#e539c0"] ;
544 -> 552 ;
553 [label="X[0] <= 2215.0\ngini = 0.111\nsamples = 17\nvalue = [0, 0, 0, 16, 1]", fillcolor="#4845e7"] ;
543 -> 553 ;
554 [label="gini = 0.0\nsamples = 14\nvalue = [0, 0, 0, 14, 0]", fillcolor="#3c39e5"] ;
553 -> 554 ;
555 [label="X[6] <= 10.5\ngini = 0.444\nsamples = 3\nvalue = [0, 0, 0, 2, 1]", fillcolor="#9e9cf2"] ;
553 -> 555 ;
556 [label="gini = 0.0\nsamples = 1\nvalue = [0, 0, 0, 0, 1]", fillcolor="#e539c0"] ;
555 -> 556 ;
557 [label="gini = 0.0\nsamples = 2\nvalue = [0, 0, 0, 2, 0]", fillcolor="#3c39e5"] ;
555 -> 557 ;
558 [label="X[7] <= 10.5\ngini = 0.734\nsamples = 41\nvalue = [2, 4, 9, 15, 11]", fillcolor="#e5e5fc"] ;
520 -> 558 ;
559 [label="X[11] <= 0.5\ngini = 0.524\nsamples = 15\nvalue = [0, 0, 1, 5, 9]", fillcolor="#f5b0e6"] ;
558 -> 559 ;
560 [label="X[19] <= 2.0\ngini = 0.32\nsamples = 5\nvalue = [0, 0, 1, 4, 0]", fillcolor="#6d6aec"] ;
559 -> 560 ;
561 [label="gini = 0.0\nsamples = 1\nvalue = [0, 0, 1, 0, 0]", fillcolor="#39e5c5"] ;
560 -> 561 ;
562 [label="gini = 0.0\nsamples = 4\nvalue = [0, 0, 0, 4, 0]", fillcolor="#3c39e5"] ;
560 -> 562 ;
563 [label="X[0] <= 1573.5\ngini = 0.18\nsamples = 10\nvalue = [0, 0, 0, 1, 9]", fillcolor="#e84fc7"] ;
559 -> 563 ;
564 [label="X[19] <= 4.0\ngini = 0.5\nsamples = 2\nvalue = [0, 0, 0, 1, 1]", fillcolor="#ffffff"] ;
563 -> 564 ;
565 [label="gini = 0.0\nsamples = 1\nvalue = [0, 0, 0, 0, 1]", fillcolor="#e539c0"] ;
564 -> 565 ;
566 [label="gini = 0.0\nsamples = 1\nvalue = [0, 0, 0, 1, 0]", fillcolor="#3c39e5"] ;
564 -> 566 ;
567 [label="gini = 0.0\nsamples = 8\nvalue = [0, 0, 0, 0, 8]", fillcolor="#e539c0"] ;
563 -> 567 ;
568 [label="X[0] <= 1883.0\ngini = 0.722\nsamples = 26\nvalue = [2, 4, 8, 10, 2]", fillcolor="#e9e9fc"] ;
558 -> 568 ;
569 [label="X[2] <= 11.5\ngini = 0.656\nsamples = 16\nvalue = [2, 4, 8, 2, 0]", fillcolor="#bdf6ec"] ;
568 -> 569 ;
570 [label="X[0] <= 1443.0\ngini = 0.625\nsamples = 4\nvalue = [2, 1, 0, 1, 0]", fillcolor="#f6d5bd"] ;
569 -> 570 ;
571 [label="gini = 0.0\nsamples = 2\nvalue = [2, 0, 0, 0, 0]", fillcolor="#e58139"] ;
570 -> 571 ;
572 [label="X[5] <= 0.5\ngini = 0.5\nsamples = 2\nvalue = [0, 1, 0, 1, 0]", fillcolor="#ffffff"] ;
570 -> 572 ;
573 [label="gini = 0.0\nsamples = 1\nvalue = [0, 0, 0, 1, 0]", fillcolor="#3c39e5"] ;
572 -> 573 ;
574 [label="gini = 0.0\nsamples = 1\nvalue = [0, 1, 0, 0, 0]", fillcolor="#7be539"] ;
572 -> 574 ;
575 [label="X[8] <= 13.0\ngini = 0.486\nsamples = 12\nvalue = [0, 3, 8, 1, 0]", fillcolor="#91f1df"] ;
569 -> 575 ;
576 [label="X[7] <= 27.0\ngini = 0.444\nsamples = 3\nvalue = [0, 2, 1, 0, 0]", fillcolor="#bdf29c"] ;
575 -> 576 ;
577 [label="gini = 0.0\nsamples = 2\nvalue = [0, 2, 0, 0, 0]", fillcolor="#7be539"] ;
576 -> 577 ;
578 [label="gini = 0.0\nsamples = 1\nvalue = [0, 0, 1, 0, 0]", fillcolor="#39e5c5"] ;
576 -> 578 ;
579 [label="X[4] <= 0.5\ngini = 0.37\nsamples = 9\nvalue = [0, 1, 7, 1, 0]", fillcolor="#6aecd4"] ;
575 -> 579 ;
580 [label="X[2] <= 14.5\ngini = 0.5\nsamples = 2\nvalue = [0, 1, 0, 1, 0]", fillcolor="#ffffff"] ;
579 -> 580 ;
581 [label="gini = 0.0\nsamples = 1\nvalue = [0, 0, 0, 1, 0]", fillcolor="#3c39e5"] ;
580 -> 581 ;
582 [label="gini = 0.0\nsamples = 1\nvalue = [0, 1, 0, 0, 0]", fillcolor="#7be539"] ;
580 -> 582 ;
583 [label="gini = 0.0\nsamples = 7\nvalue = [0, 0, 7, 0, 0]", fillcolor="#39e5c5"] ;
579 -> 583 ;
584 [label="X[2] <= 14.5\ngini = 0.32\nsamples = 10\nvalue = [0, 0, 0, 8, 2]", fillcolor="#6d6aec"] ;
568 -> 584 ;
585 [label="gini = 0.0\nsamples = 7\nvalue = [0, 0, 0, 7, 0]", fillcolor="#3c39e5"] ;
584 -> 585 ;
586 [label="X[3] <= 1023.5\ngini = 0.444\nsamples = 3\nvalue = [0, 0, 0, 1, 2]", fillcolor="#f29ce0"] ;
584 -> 586 ;
587 [label="gini = 0.0\nsamples = 2\nvalue = [0, 0, 0, 0, 2]", fillcolor="#e539c0"] ;
586 -> 587 ;
588 [label="gini = 0.0\nsamples = 1\nvalue = [0, 0, 0, 1, 0]", fillcolor="#3c39e5"] ;
586 -> 588 ;
589 [label="X[7] <= 11.5\ngini = 0.504\nsamples = 41\nvalue = [0, 0, 1, 16, 24]", fillcolor="#f7c0eb"] ;
519 -> 589 ;
590 [label="X[19] <= 5.5\ngini = 0.124\nsamples = 15\nvalue = [0, 0, 0, 1, 14]", fillcolor="#e747c4"] ;
589 -> 590 ;
591 [label="gini = 0.0\nsamples = 14\nvalue = [0, 0, 0, 0, 14]", fillcolor="#e539c0"] ;
590 -> 591 ;
592 [label="gini = 0.0\nsamples = 1\nvalue = [0, 0, 0, 1, 0]", fillcolor="#3c39e5"] ;
590 -> 592 ;
593 [label="X[10] <= 0.5\ngini = 0.518\nsamples = 26\nvalue = [0, 0, 1, 15, 10]", fillcolor="#c2c1f7"] ;
589 -> 593 ;
594 [label="X[0] <= 2301.0\ngini = 0.418\nsamples = 15\nvalue = [0, 0, 1, 11, 3]", fillcolor="#7d7bee"] ;
593 -> 594 ;
595 [label="gini = 0.0\nsamples = 1\nvalue = [0, 0, 1, 0, 0]", fillcolor="#39e5c5"] ;
594 -> 595 ;
596 [label="X[6] <= 8.0\ngini = 0.337\nsamples = 14\nvalue = [0, 0, 0, 11, 3]", fillcolor="#716fec"] ;
594 -> 596 ;
597 [label="gini = 0.0\nsamples = 1\nvalue = [0, 0, 0, 0, 1]", fillcolor="#e539c0"] ;
596 -> 597 ;
598 [label="X[13] <= 0.5\ngini = 0.26\nsamples = 13\nvalue = [0, 0, 0, 11, 2]", fillcolor="#5f5dea"] ;
596 -> 598 ;
599 [label="X[8] <= 18.0\ngini = 0.153\nsamples = 12\nvalue = [0, 0, 0, 11, 1]", fillcolor="#4e4be7"] ;
598 -> 599 ;
600 [label="gini = 0.0\nsamples = 8\nvalue = [0, 0, 0, 8, 0]", fillcolor="#3c39e5"] ;
599 -> 600 ;
601 [label="X[4] <= 1.5\ngini = 0.375\nsamples = 4\nvalue = [0, 0, 0, 3, 1]", fillcolor="#7d7bee"] ;
599 -> 601 ;
602 [label="X[3] <= 1021.0\ngini = 0.5\nsamples = 2\nvalue = [0, 0, 0, 1, 1]", fillcolor="#ffffff"] ;
601 -> 602 ;
603 [label="gini = 0.0\nsamples = 1\nvalue = [0, 0, 0, 0, 1]", fillcolor="#e539c0"] ;
602 -> 603 ;
604 [label="gini = 0.0\nsamples = 1\nvalue = [0, 0, 0, 1, 0]", fillcolor="#3c39e5"] ;
602 -> 604 ;
605 [label="gini = 0.0\nsamples = 2\nvalue = [0, 0, 0, 2, 0]", fillcolor="#3c39e5"] ;
601 -> 605 ;
606 [label="gini = 0.0\nsamples = 1\nvalue = [0, 0, 0, 0, 1]", fillcolor="#e539c0"] ;
598 -> 606 ;
607 [label="X[19] <= 5.5\ngini = 0.463\nsamples = 11\nvalue = [0, 0, 0, 4, 7]", fillcolor="#f4aae4"] ;
593 -> 607 ;
608 [label="X[4] <= 0.5\ngini = 0.346\nsamples = 9\nvalue = [0, 0, 0, 2, 7]", fillcolor="#ec72d2"] ;
607 -> 608 ;
609 [label="gini = 0.0\nsamples = 1\nvalue = [0, 0, 0, 1, 0]", fillcolor="#3c39e5"] ;
608 -> 609 ;
610 [label="X[2] <= 8.0\ngini = 0.219\nsamples = 8\nvalue = [0, 0, 0, 1, 7]", fillcolor="#e955c9"] ;
608 -> 610 ;
611 [label="gini = 0.0\nsamples = 1\nvalue = [0, 0, 0, 1, 0]", fillcolor="#3c39e5"] ;
610 -> 611 ;
612 [label="gini = 0.0\nsamples = 7\nvalue = [0, 0, 0, 0, 7]", fillcolor="#e539c0"] ;
610 -> 612 ;
613 [label="gini = 0.0\nsamples = 2\nvalue = [0, 0, 0, 2, 0]", fillcolor="#3c39e5"] ;
607 -> 613 ;
614 [label="X[11] <= 0.5\ngini = 0.103\nsamples = 202\nvalue = [0, 1, 0, 10, 191]", fillcolor="#e644c4"] ;
496 -> 614 ;
615 [label="X[0] <= 4980.5\ngini = 0.541\nsamples = 14\nvalue = [0, 1, 0, 5, 8]", fillcolor="#f6bdea"] ;
614 -> 615 ;
616 [label="X[19] <= 6.5\ngini = 0.58\nsamples = 10\nvalue = [0, 1, 0, 5, 4]", fillcolor="#dedefb"] ;
615 -> 616 ;
617 [label="X[2] <= 14.0\ngini = 0.444\nsamples = 6\nvalue = [0, 0, 0, 2, 4]", fillcolor="#f29ce0"] ;
616 -> 617 ;
618 [label="X[1] <= 1.5\ngini = 0.444\nsamples = 3\nvalue = [0, 0, 0, 2, 1]", fillcolor="#9e9cf2"] ;
617 -> 618 ;
619 [label="gini = 0.0\nsamples = 2\nvalue = [0, 0, 0, 2, 0]", fillcolor="#3c39e5"] ;
618 -> 619 ;
620 [label="gini = 0.0\nsamples = 1\nvalue = [0, 0, 0, 0, 1]", fillcolor="#e539c0"] ;
618 -> 620 ;
621 [label="gini = 0.0\nsamples = 3\nvalue = [0, 0, 0, 0, 3]", fillcolor="#e539c0"] ;
617 -> 621 ;
622 [label="X[7] <= 7.5\ngini = 0.375\nsamples = 4\nvalue = [0, 1, 0, 3, 0]", fillcolor="#7d7bee"] ;
616 -> 622 ;
623 [label="gini = 0.0\nsamples = 1\nvalue = [0, 1, 0, 0, 0]", fillcolor="#7be539"] ;
622 -> 623 ;
624 [label="gini = 0.0\nsamples = 3\nvalue = [0, 0, 0, 3, 0]", fillcolor="#3c39e5"] ;
622 -> 624 ;
625 [label="gini = 0.0\nsamples = 4\nvalue = [0, 0, 0, 0, 4]", fillcolor="#e539c0"] ;
615 -> 625 ;
626 [label="X[19] <= 5.5\ngini = 0.052\nsamples = 188\nvalue = [0, 0, 0, 5, 183]", fillcolor="#e63ec2"] ;
614 -> 626 ;
627 [label="X[0] <= 2986.0\ngini = 0.033\nsamples = 181\nvalue = [0, 0, 0, 3, 178]", fillcolor="#e53cc1"] ;
626 -> 627 ;
628 [label="X[7] <= 27.5\ngini = 0.231\nsamples = 15\nvalue = [0, 0, 0, 2, 13]", fillcolor="#e957ca"] ;
627 -> 628 ;
629 [label="X[0] <= 2970.0\ngini = 0.133\nsamples = 14\nvalue = [0, 0, 0, 1, 13]", fillcolor="#e748c5"] ;
628 -> 629 ;
630 [label="gini = 0.0\nsamples = 13\nvalue = [0, 0, 0, 0, 13]", fillcolor="#e539c0"] ;
629 -> 630 ;
631 [label="gini = 0.0\nsamples = 1\nvalue = [0, 0, 0, 1, 0]", fillcolor="#3c39e5"] ;
629 -> 631 ;
632 [label="gini = 0.0\nsamples = 1\nvalue = [0, 0, 0, 1, 0]", fillcolor="#3c39e5"] ;
628 -> 632 ;
633 [label="X[8] <= 9.5\ngini = 0.012\nsamples = 166\nvalue = [0, 0, 0, 1, 165]", fillcolor="#e53ac0"] ;
627 -> 633 ;
634 [label="X[3] <= 1021.5\ngini = 0.071\nsamples = 27\nvalue = [0, 0, 0, 1, 26]", fillcolor="#e641c2"] ;
633 -> 634 ;
635 [label="gini = 0.0\nsamples = 20\nvalue = [0, 0, 0, 0, 20]", fillcolor="#e539c0"] ;
634 -> 635 ;
636 [label="X[3] <= 1022.5\ngini = 0.245\nsamples = 7\nvalue = [0, 0, 0, 1, 6]", fillcolor="#e95acb"] ;
634 -> 636 ;
637 [label="X[0] <= 3463.0\ngini = 0.5\nsamples = 2\nvalue = [0, 0, 0, 1, 1]", fillcolor="#ffffff"] ;
636 -> 637 ;
638 [label="gini = 0.0\nsamples = 1\nvalue = [0, 0, 0, 0, 1]", fillcolor="#e539c0"] ;
637 -> 638 ;
639 [label="gini = 0.0\nsamples = 1\nvalue = [0, 0, 0, 1, 0]", fillcolor="#3c39e5"] ;
637 -> 639 ;
640 [label="gini = 0.0\nsamples = 5\nvalue = [0, 0, 0, 0, 5]", fillcolor="#e539c0"] ;
636 -> 640 ;
641 [label="gini = 0.0\nsamples = 139\nvalue = [0, 0, 0, 0, 139]", fillcolor="#e539c0"] ;
633 -> 641 ;
642 [label="X[0] <= 4386.5\ngini = 0.408\nsamples = 7\nvalue = [0, 0, 0, 2, 5]", fillcolor="#ef88d9"] ;
626 -> 642 ;
643 [label="X[3] <= 1026.0\ngini = 0.444\nsamples = 3\nvalue = [0, 0, 0, 2, 1]", fillcolor="#9e9cf2"] ;
642 -> 643 ;
644 [label="gini = 0.0\nsamples = 2\nvalue = [0, 0, 0, 2, 0]", fillcolor="#3c39e5"] ;
643 -> 644 ;
645 [label="gini = 0.0\nsamples = 1\nvalue = [0, 0, 0, 0, 1]", fillcolor="#e539c0"] ;
643 -> 645 ;
646 [label="gini = 0.0\nsamples = 4\nvalue = [0, 0, 0, 0, 4]", fillcolor="#e539c0"] ;
642 -> 646 ;
}